{"conv2d": {"kernel": [[[[-0.16607844829559326, -0.09962853044271469, -0.1544613093137741, 0.23976783454418182, -0.12717099487781525, 0.04499334841966629, 0.016460206359624863, -0.039171118289232254]], [[0.05052962899208069, -0.20081490278244019, 0.2592199146747589, -0.16788914799690247, 0.10184070467948914, -0.019605718553066254, -0.2640698552131653, -0.04483344033360481]], [[-0.24167034029960632, 0.09522287547588348, 0.06338699907064438, -0.21753636002540588, -0.04713180661201477, 0.10455600917339325, -0.24539649486541748, -0.06506285816431046]]], [[[-0.18446002900600433, 0.16952545940876007, 0.026471970602869987, 0.2320539355278015, 0.22365491092205048, 0.12757608294487, 0.07285425812005997, -0.1857447475194931]], [[0.05943077802658081, -0.09800484776496887, -0.0517200268805027, 0.2001190036535263, 0.2568543255329132, 0.0017782400827854872, -0.0391610749065876, 0.22695207595825195]], [[-0.13994380831718445, -0.12904776632785797, 0.18179379403591156, 0.13854186236858368, -0.04588920995593071, 0.1796543449163437, -0.16014961898326874, 0.13363003730773926]]], [[[-0.21511374413967133, 0.22055013477802277, -0.005948949605226517, 0.018907062709331512, -0.131012424826622, -0.09566274285316467, 0.02270193211734295, -0.2419460415840149]], [[-0.24630577862262726, 0.004018328618258238, 0.10759425908327103, -0.0007161680841818452, 0.13172069191932678, 0.21518875658512115, -0.05859491974115372, 0.09339363127946854]], [[-0.15172654390335083, -0.21872524917125702, 0.14483091235160828, 0.20892579853534698, -0.1831999123096466, 0.10003252327442169, 0.10498563945293427, 0.11559512466192245]]]], "bias": [0.0, -0.0013154124608263373, -0.0011668254155665636, 0.001781096332706511, 0.0020423000678420067, -0.0029368980322033167, 0.0033916255924850702, -0.0003716339124366641]}, "batch_normalization": {"kernel": [1.0, 1.002303957939148, 0.9981728792190552, 1.0023038387298584, 0.9979768395423889, 0.9995135068893433, 1.0034180879592896, 1.0010197162628174], "bias": [-0.0011954258661717176, 0.0022418058943003416, 0.0007627374143339694, 0.0030478383414447308, 0.0005109925987198949, -0.0001763137843227014, 0.0017225100891664624, 0.0007068322156555951]}, "conv2d_1": {"kernel": [[[[0.1105271503329277, 0.02882814221084118, 0.11330392211675644, -0.16422167420387268, -0.08834199607372284, 0.07605499029159546, 0.05438503623008728, 0.13922232389450073, 0.04015526920557022, 0.09998346120119095, -0.010901590809226036, 0.05440060794353485, 0.025707466527819633, 0.16198214888572693, 0.0066130696795880795, -0.1325114220380783], [-0.03645685315132141, 0.154716357588768, 0.057059891521930695, 0.08912739902734756, -0.05657956376671791, 0.1020088940858841, -0.09432316571474075, 0.03836417570710182, -0.0015175128355622292, 0.0064462935552001, 0.06427853554487228, 0.0827118456363678, 0.08196785300970078, 0.0911337360739708, 0.01998903602361679, 0.04522404819726944], [0.036713071167469025, 0.15049974620342255, 0.033741310238838196, -0.14242470264434814, -0.03413800522685051, -0.05409018695354462, 0.05012555420398712, 0.005694477818906307, -0.011143255047500134, 0.03753511980175972, -0.036489564925432205, 0.09988757967948914, 0.11063504964113235, -0.09446010738611221, -0.1403159201145172, -0.1441551297903061], [-0.03487811237573624, 0.08693050593137741, -0.14212028682231903, 0.15570679306983948, -0.16217249631881714, -0.13881729543209076, -0.11612342298030853, -0.0826244205236435, -0.1233057826757431, -0.14846116304397583, -0.08949736505746841, -0.011121817864477634, 0.14513367414474487, -0.08617690950632095, -0.16219297051429749, 0.037197940051555634], [0.14935804903507233, -0.1041080430150032, 0.02259351871907711, -0.05277983844280243, -0.07015009224414825, 0.07779969274997711, 0.022452689707279205, 0.060000818222761154, -0.14372752606868744, -0.06730420887470245, 0.1012798547744751, -0.15173928439617157, -0.13738258183002472, 0.03454654663801193, 0.1690412014722824, -0.019963297992944717], [0.09383532404899597, -0.14144469797611237, 0.08262818306684494, 0.040976084768772125, 0.00836110394448042, -0.10180070996284485, -0.03246794641017914, -0.14118218421936035, -0.0325334370136261, -0.024505726993083954, 0.13745304942131042, -9.108075573749375e-06, 0.012423467822372913, 0.14405618607997894, 0.0006942583131603897, -0.04661214351654053], [0.10097207129001617, -0.12768934667110443, -0.04673169180750847, -0.09590312838554382, 0.06547871232032776, 0.014722190797328949, 0.1047789603471756, 0.06894908845424652, 0.05100409686565399, 0.10673604160547256, -0.11815063655376434, 0.14224639534950256, 0.05861542001366615, 0.00687127560377121, -0.038408249616622925, 0.14001797139644623], [-0.1337415724992752, -0.11580510437488556, -0.09506446123123169, -0.03886795789003372, 0.08403512090444565, 0.09077385067939758, -0.09384937584400177, 0.07784506678581238, 0.04195002466440201, 0.09655937552452087, 0.11553589999675751, -0.11359025537967682, 0.01662558689713478, 0.13280323147773743, 0.029400883242487907, 0.11315909773111343]], [[-0.07253354042768478, -0.10730090737342834, -0.08838177472352982, 0.10899408906698227, 0.14709241688251495, 0.11399254947900772, -0.08129903674125671, 0.07786928862333298, -0.06610357016324997, 0.1054411455988884, -0.011279681697487831, -0.10222822427749634, -0.02017570286989212, -0.018436716869473457, -0.027756856754422188, -0.16506680846214294], [0.05849100276827812, 0.013604256324470043, -0.03365452215075493, 0.07413716614246368, -0.12503324449062347, 0.14376863837242126, -0.0503171943128109, 0.017719026654958725, -0.10639575123786926, -0.15793371200561523, -0.04891399294137955, 0.08156942576169968, 0.11938709020614624, -0.0042574587278068066, 0.06933514028787613, -0.06281483173370361], [-0.14300183951854706, 0.0007986919372342527, 0.05877789482474327, 0.13529536128044128, 0.053140535950660706, 0.07244154810905457, -0.014665876515209675, 0.11360448598861694, -0.0380866639316082, 0.10641615837812424, -0.0054763127118349075, -0.14889030158519745, 0.05639081820845604, 0.029906971380114555, -0.008028960786759853, 0.1615990400314331], [-0.08185333758592606, -0.0721120834350586, 0.08044368028640747, 0.03421939164400101, 0.15349829196929932, 0.07426033169031143, 0.06145329400897026, -0.04197625070810318, -0.11897999048233032, -0.017138181254267693, -0.11119481176137924, 0.1463993638753891, 0.00611929502338171, 0.005613515619188547, -0.1596192717552185, 0.021878143772482872], [-0.04172758013010025, 0.06051541492342949, -0.05438164249062538, 0.032384373247623444, 0.04795378819108009, 0.008982183411717415, -0.026576008647680283, 0.025609582662582397, -0.02610892988741398, 0.15042540431022644, 0.037720635533332825, 0.04821456968784332, -0.16525009274482727, -0.0014881206443533301, 0.11326230317354202, -0.04795428737998009], [0.16277232766151428, 0.15093611180782318, -0.11712516844272614, 0.00647678691893816, 0.03983381763100624, -0.03433731943368912, 0.04067622125148773, -0.07888130843639374, 0.04658990353345871, 0.08085514605045319, -0.10151655972003937, -0.13977199792861938, 0.08045673370361328, -0.12600594758987427, -0.1382407248020172, 0.1614808440208435], [0.04830460622906685, -0.16628873348236084, 0.1429823338985443, -0.11223259568214417, -0.13393215835094452, -0.1473727822303772, -0.08942461758852005, 0.046276070177555084, -0.05290253460407257, 0.15461790561676025, -0.15717151761054993, 0.08659395575523376, 0.03175830841064453, -0.15579108893871307, -0.1134769544005394, 0.06761275231838226], [0.13256089389324188, -0.05938690900802612, -0.042822275310754776, 0.14610038697719574, -0.10157036036252975, 0.021679159253835678, -0.069107785820961, -0.13206858932971954, 0.14573676884174347, -0.10842584073543549, 0.16551199555397034, -0.14950375258922577, 0.050162166357040405, 0.03917983919382095, 0.13781768083572388, 0.06859222799539566]], [[0.05743596702814102, -0.08960267156362534, -0.0471951849758625, -0.156795933842659, -0.08636564761400223, -0.07155534625053406, 0.16200897097587585, -0.05098647624254227, 0.002161632291972637, 0.0464508980512619, -0.024194998666644096, 0.1670788824558258, -0.08601222932338715, 0.008848429657518864, -0.055824145674705505, -0.089886873960495], [0.012269874103367329, 0.12245699018239975, -0.15036164224147797, -0.155099019408226, -0.1202857494354248, -0.1471131443977356, -0.036488525569438934, 0.13172967731952667, 0.056075070053339005, 0.12528270483016968, 0.06935901194810867, -0.07838216423988342, 0.15339241921901703, 0.04581953585147858, 0.0729871466755867, 0.13818205893039703], [-0.1005726084113121, -0.14846834540367126, -0.12801103293895721, 0.13088221848011017, -0.14263202250003815, 0.11154133826494217, -0.010352052748203278, -0.13342082500457764, -0.051964711397886276, -0.032000716775655746, -0.0518423467874527, 0.119109146296978, -0.10805006325244904, -0.05394979193806648, 0.13956297934055328, 0.11135147511959076], [0.1339477151632309, 0.15230880677700043, -0.11979455500841141, 0.01853290945291519, 0.12935806810855865, 0.07093241065740585, -0.068589948117733, -0.07811220735311508, -0.08520890772342682, -0.02419261448085308, -0.09885859489440918, 0.11674101650714874, -0.025891346856951714, -0.06875311583280563, -0.153929203748703, -0.11189445853233337], [-0.014511669985949993, -0.06108327582478523, -0.09976566582918167, -0.016248652711510658, 0.03211042657494545, 0.12210168689489365, -0.15340927243232727, -0.08561449497938156, 0.10089657455682755, 0.0813370794057846, -0.09206128865480423, 0.037830010056495667, 0.11424881219863892, 0.08611809462308884, -0.04506448283791542, 0.11862313002347946], [0.13944193720817566, -0.1561613380908966, 0.06399180740118027, -0.07991775870323181, 0.09561964124441147, 0.02831142023205757, -0.11584680527448654, -0.11241475492715836, 0.012958589009940624, 0.061184536665678024, -0.015815971419215202, -0.0029134510550647974, 0.15552590787410736, -0.16648945212364197, 0.1053781732916832, -0.06859426945447922], [0.15944235026836395, 0.06451907753944397, 0.04140317812561989, -0.08217943459749222, 0.14615143835544586, -0.06104940548539162, 0.04847102612257004, 0.02568206563591957, 0.011805187910795212, -0.0609196312725544, 0.09221924096345901, -0.0280479583889246, -0.09834763407707214, 0.14838837087154388, -0.08459784090518951, -0.1649107187986374], [0.016678888350725174, 0.02410060539841652, 0.12364140152931213, -0.047976553440093994, 0.14713963866233826, 0.10006813704967499, -0.014977230690419674, 0.04189993813633919, -0.12903112173080444, 0.12726905941963196, 0.08083131164312363, 0.013814907521009445, 0.1016978919506073, -0.0037328472826629877, 0.1363678276538849, 0.03509286046028137]]], [[[-0.1523602157831192, -0.04304799064993858, 0.15522651374340057, -0.09125318378210068, 0.14000415802001953, -0.01279307622462511, 0.026111150160431862, -0.032778531312942505, 0.16442275047302246, 0.04871147871017456, -0.0820535197854042, -0.05205713212490082, 0.08454422652721405, 0.09611179679632187, -0.032236114144325256, 0.12740397453308105], [-0.04478859901428223, -0.031626470386981964, -0.1259061098098755, -0.05033838748931885, -0.13557487726211548, 0.04594631865620613, -0.04147244244813919, -0.15362751483917236, -0.10782425850629807, -0.10873879492282867, -0.10881929099559784, -0.0620771087706089, 0.06153351441025734, 0.14495742321014404, 0.0581364668905735, 0.06288035213947296], [0.09339164942502975, -0.10544352233409882, 0.16255199909210205, 0.055712997913360596, -0.049266669899225235, 0.055257346481084824, -0.020709514617919922, 0.10522539168596268, 0.04919952154159546, 0.03171059861779213, 0.01253951620310545, -0.07464689761400223, 0.033939264714717865, -0.05539867281913757, -0.008193996734917164, 0.05416751652956009], [-0.05884888023138046, 0.010534101165831089, 0.13017180562019348, -0.10993491858243942, 0.12313659489154816, 0.07088735699653625, 0.005712368059903383, 0.029023732990026474, -0.028639493510127068, -0.10171269625425339, -0.1131872683763504, 0.043454792350530624, 0.16097243130207062, -0.09861826151609421, -0.11063821613788605, -0.02376784197986126], [0.15811003744602203, 0.054684482514858246, 0.12640921771526337, -0.029843606054782867, -0.07100865244865417, 0.11268758773803711, 0.06797651946544647, -0.0026836981996893883, 0.13052450120449066, -0.1139005571603775, -0.16781187057495117, -0.08701606839895248, -0.036073800176382065, -0.07731546461582184, 0.0068232109770178795, -0.08553506433963776], [-0.10286817699670792, -0.10666612535715103, -0.07330497354269028, -0.0029001024086028337, 0.13208775222301483, -0.018613310530781746, -0.14735521376132965, 0.11626681685447693, -0.022468220442533493, 0.12835872173309326, -0.02042880281805992, -0.07091750204563141, 0.16298440098762512, 0.06899310648441315, -0.001894923159852624, 0.08391426503658295], [-0.146315798163414, 0.002366777742281556, -0.05824069306254387, 0.027239587157964706, -0.04564496502280235, 0.03994027525186539, -0.0671488419175148, 0.160320445895195, -0.1017366349697113, -0.04741326719522476, 0.06245175749063492, 0.1008906215429306, -0.15721459686756134, 0.08491331338882446, 0.1460115909576416, -0.11012791842222214], [0.0010945830726996064, 0.06042906641960144, 0.016484128311276436, 0.09722161293029785, -0.08332458138465881, -0.08347698301076889, -0.0760224312543869, 0.1293928325176239, -0.030882397666573524, -0.1444138139486313, -0.06721246242523193, -0.10958516597747803, -0.06917542964220047, 0.0809965580701828, 0.037935905158519745, 0.1657830774784088]], [[-0.11628437787294388, -0.1519998013973236, 0.0749596580862999, -0.11674945801496506, 0.009100590832531452, -0.014491126872599125, 0.06385135650634766, -0.05997961014509201, -0.05834382027387619, -0.03675253316760063, -0.011369968764483929, -0.04360673949122429, 0.1442601978778839, -0.03723535314202309, -0.15752442181110382, -0.007465625647455454], [-0.10391751676797867, 0.12585097551345825, 0.01099281758069992, -0.08645355701446533, 0.07407599687576294, -0.06960265338420868, 0.15561842918395996, 0.07008609175682068, -0.0756191611289978, -0.07249248772859573, 0.050840746611356735, -0.11480805277824402, -0.031218426302075386, -0.036364827305078506, -0.1462123543024063, -0.029227424412965775], [-0.10294295847415924, 0.03873952478170395, 0.08755248039960861, -0.06867974996566772, 0.13925400376319885, -0.09967982769012451, -0.007053878158330917, 0.12977094948291779, 0.07916302233934402, -0.1163690835237503, 0.1555810421705246, 0.13452082872390747, 0.02900141291320324, -0.10612423717975616, 0.004998913966119289, -0.1314806491136551], [0.04644830524921417, -0.00973496027290821, 0.13052470982074738, -0.0321403369307518, 0.0592801496386528, 0.057475682348012924, 0.14095009863376617, 0.05902053788304329, -0.015824688598513603, -0.0382099524140358, 0.13998208940029144, -0.016559796407818794, -0.09112665802240372, 0.07193850725889206, 0.14524619281291962, -0.1682721972465515], [-0.0774964988231659, -0.028810495510697365, -0.07198012620210648, -0.08393339812755585, -0.13304023444652557, -0.12208906561136246, 0.09898039698600769, -0.027792861685156822, 0.15426602959632874, 0.14043909311294556, -0.0840686559677124, -0.1191445142030716, 0.052256710827350616, -0.05278705433011055, 0.15478672087192535, 0.02733788453042507], [0.09905931353569031, 0.0478329062461853, 0.03260631859302521, -0.05777337774634361, 0.14371660351753235, 0.1586025208234787, 0.12577132880687714, -0.08143126964569092, 0.1622580885887146, 0.06597862392663956, 0.041476860642433167, 0.03495890274643898, -0.11917128413915634, -0.05614588037133217, -0.0742751955986023, -0.07623637467622757], [-0.1550799459218979, 0.0780782625079155, -0.0925891250371933, 0.003490492468699813, -0.09656891226768494, 0.10771460086107254, 0.11245322227478027, -0.09161224961280823, 0.05312012508511543, 0.04393118619918823, 0.13420787453651428, 0.13967549800872803, -0.0716005191206932, -0.02921195514500141, 0.012519805692136288, 0.058901313692331314], [0.08101053535938263, -0.05382564663887024, -0.03001655824482441, -0.08016185462474823, -0.0899793952703476, -0.09040578454732895, 0.08268290013074875, 0.05016934499144554, 0.1584734171628952, 0.015095226466655731, 0.07676850259304047, -0.052464164793491364, -0.11309989541769028, 0.13660892844200134, -0.025630909949541092, 0.07066497206687927]], [[0.13476911187171936, -0.09485645592212677, 0.08708058297634125, 0.09211792796850204, 0.14529775083065033, -0.15990369021892548, 0.16200941801071167, 0.011076164431869984, -0.15638750791549683, 0.01710345409810543, 0.04812895879149437, -0.10953957587480545, -0.005695978179574013, 0.1070425733923912, -0.02595212124288082, 0.09975185245275497], [0.15415367484092712, -0.03348598629236221, 0.031048215925693512, -0.04433941841125488, 0.155000701546669, -0.16333259642124176, 0.018430249765515327, -0.01835910975933075, 0.09908060729503632, 0.01888413354754448, -0.1265333592891693, 0.09678146243095398, -0.05452160909771919, -0.03204725682735443, 0.1592395305633545, 0.14630027115345], [0.004901272710412741, 0.07406152039766312, 0.11051850765943527, 0.0093294158577919, 0.01391345914453268, -0.0793297216296196, -0.09508727490901947, -0.0855564996600151, 0.15984612703323364, 0.1562987118959427, -9.467046766076237e-06, 0.08972407132387161, -0.13509024679660797, 0.12687157094478607, 0.011476051062345505, 0.05707675591111183], [-0.12435582280158997, 0.10073747485876083, 0.15255123376846313, 0.15455655753612518, 0.035581622272729874, 0.1381596326828003, -0.12472613900899887, 0.03853635489940643, -0.04610495641827583, -0.051618512719869614, 0.07809879630804062, 0.10743431001901627, -0.04598664119839668, 0.06541629880666733, 0.1569642573595047, 0.0370783731341362], [-0.021657006815075874, -0.10054503381252289, -0.1318509429693222, -0.098239004611969, -0.07953257858753204, -0.009370889514684677, -0.12151259928941727, 0.1630822718143463, -0.02406277321279049, 0.14409275352954865, 0.09840363264083862, 0.11206832528114319, 0.043526239693164825, -0.054300807416439056, 0.0392509363591671, -0.13375668227672577], [-0.08006986975669861, -0.07477351278066635, -0.08517000824213028, -0.10003452748060226, -0.10769043862819672, -0.022265585139393806, 0.1522083580493927, -0.14416174590587616, 0.14715199172496796, -0.05792304873466492, 0.07393594831228256, 0.032457321882247925, -0.1572236865758896, 0.13337820768356323, 0.012168709188699722, -0.08663880079984665], [-0.16450566053390503, -0.06942674517631531, 0.1611359566450119, -0.031493548303842545, 0.0604308657348156, 0.08657284826040268, -0.06830127537250519, 0.15728425979614258, -0.007373979780822992, 0.10882511734962463, 0.07555144280195236, -0.02189975418150425, -0.07801508158445358, -0.14209604263305664, 0.0007439241744577885, 0.027205422520637512], [-0.09206172078847885, -0.12885232269763947, 0.07898487895727158, 0.11372753232717514, 0.09044314920902252, -0.14587309956550598, -0.12505555152893066, -0.08756525814533234, -0.019447823986411095, -0.04325621947646141, 0.013220231980085373, 0.1349104791879654, -0.028132043778896332, 0.03715946897864342, 0.026628829538822174, -0.1445588618516922]]], [[[-0.13113872706890106, -0.13591554760932922, 0.07367094606161118, -0.09116722643375397, -0.1306847631931305, 0.16374757885932922, -0.10391321033239365, -0.056112490594387054, -0.1318577229976654, 0.077720046043396, 0.020630447193980217, 0.049710288643836975, -0.06164418160915375, 0.07227178663015366, 0.1570582091808319, -0.05421753227710724], [0.08840494602918625, -0.09820804744958878, 0.11023528128862381, 0.0934029221534729, 0.1382187008857727, 0.057291336357593536, 0.06018678843975067, 0.059795480221509933, 0.05389409512281418, -0.13298608362674713, -0.005549269262701273, 0.07425212860107422, -0.06649822741746902, -0.09179746359586716, 0.138374462723732, 0.031967997550964355], [0.10327227413654327, 0.03674166277050972, 0.0239123348146677, 0.07847954332828522, -0.0259956493973732, 0.10370997339487076, -0.14757882058620453, 0.12203028798103333, 0.09563667327165604, -0.00387081247754395, -0.03649430349469185, -0.14453519880771637, 0.15031211078166962, 0.04337469860911369, 0.15374021232128143, -0.1575244963169098], [-0.01035735011100769, 0.06658339500427246, 0.0037419027648866177, 0.07510735839605331, 0.11859134584665298, 0.033446189016103745, 0.11287175863981247, 0.12597131729125977, -0.07361620664596558, 0.11650638282299042, -0.05034177750349045, 0.06754275411367416, 0.13035424053668976, -0.11506219953298569, 0.04285648465156555, 0.11983350664377213], [-0.07901862263679504, -0.13807861506938934, 0.0794442743062973, -0.001197066274471581, 0.04166996851563454, 0.08308259397745132, 0.15429210662841797, 0.013518530875444412, -0.09164785593748093, 0.003258567303419113, -0.005471686366945505, -0.066908098757267, -0.0965438112616539, 0.018340077251195908, 0.036976516246795654, 0.1156000941991806], [0.018832338973879814, 0.00985206663608551, -0.14145560562610626, -0.006058947183191776, -0.029820876196026802, -0.05426519364118576, -0.15494179725646973, -0.05884989723563194, 0.05444689095020294, 0.045308325439691544, -0.03839656338095665, 0.031086357310414314, -0.0938047543168068, -0.005334026645869017, 0.10441963374614716, -0.0695401206612587], [-0.06869207322597504, -0.07007323205471039, -0.15070384740829468, -0.09355369210243225, 0.05726292356848717, -0.13587234914302826, 0.13427653908729553, -0.0290973000228405, -0.10113746672868729, 0.061893709003925323, 0.10478616505861282, 0.08981692790985107, -0.02912248857319355, 0.03645189851522446, -0.04805711656808853, -0.030688470229506493], [0.15238329768180847, -0.15330098569393158, -0.026055503636598587, -0.11175665259361267, 0.07731711864471436, 0.10148797184228897, -0.0001853956637205556, 0.07701516896486282, -0.0571591816842556, 0.11792068183422089, 0.14259043335914612, 0.14447525143623352, -0.09058831632137299, -0.16039913892745972, 0.007086372002959251, 0.11960398405790329]], [[-0.08196328580379486, 0.011069911532104015, 0.1187177374958992, -0.02357180044054985, -0.06210292503237724, -0.15632401406764984, -0.10724901407957077, 0.15332885086536407, 0.1270281821489334, 0.09918217360973358, -0.018003445118665695, 0.09533718228340149, -0.06710579991340637, -0.12503105401992798, -0.1289936602115631, 0.15839451551437378], [0.02259499952197075, -0.10758771002292633, 0.0340554378926754, -0.12800972163677216, 0.010409186594188213, -0.13152775168418884, 0.08245398849248886, 0.004850607831031084, 0.05778003856539726, -0.148467555642128, -0.038979560136795044, 0.08640344440937042, -0.15047936141490936, 0.09343580156564713, 0.15346583724021912, -0.09054049849510193], [0.11512237042188644, -0.06015627086162567, 0.04993538558483124, -0.14276130497455597, -0.039108168333768845, -0.07827599346637726, 0.007927985861897469, 0.05892966687679291, 0.12576493620872498, -0.0972004234790802, 0.05272522568702698, 0.032585509121418, 0.06445417553186417, -0.14912959933280945, -0.06962987035512924, 0.00781309511512518], [0.06970121711492538, 0.060543742030858994, -0.08711911737918854, -0.10635164380073547, -0.04416411370038986, 0.11675111949443817, -0.09622891992330551, -0.1333305835723877, -0.06802783906459808, -0.1330805867910385, 0.14524444937705994, -0.12442141026258469, 0.10001157224178314, 0.06085915490984917, 0.10042135417461395, -0.049720924347639084], [0.04317472130060196, -0.008653983473777771, -0.10282392054796219, -0.13183382153511047, -0.09996720403432846, -0.03291723504662514, 0.05695313215255737, -0.14496906101703644, 0.13077162206172943, 0.09350508451461792, 0.09996943920850754, 0.019324572756886482, 0.05024779215455055, -0.04667213559150696, 0.11963729560375214, 0.1156914234161377], [-0.13509176671504974, -0.049850065261125565, 0.08185120671987534, 0.12338495999574661, -0.02065993659198284, 0.084105484187603, -0.12993738055229187, 0.14460209012031555, 0.00335718528367579, 0.13968800008296967, 0.0017755188746377826, -0.05536520481109619, -0.08973679691553116, -0.15594284236431122, -0.1327332705259323, 0.005844972096383572], [-0.09192736446857452, 0.11835175007581711, -0.11226300895214081, 0.05727839469909668, 0.09632836282253265, 0.12317225337028503, 0.16239185631275177, -0.06756751239299774, 0.13079188764095306, -0.044716645032167435, -0.1444692611694336, 0.11539887636899948, -0.15793465077877045, 0.04577447101473808, 0.07533980160951614, -0.15085569024085999], [0.02254795841872692, -0.012796375900506973, -0.009710068814456463, -0.07784987986087799, -0.12424793839454651, 0.05021246150135994, 0.1327628642320633, -0.060937393456697464, 0.09205489605665207, 0.09013340622186661, 0.15573625266551971, 0.15706661343574524, 0.163096085190773, 0.11367148905992508, -0.038903459906578064, -0.1619238406419754]], [[0.06223844736814499, -0.052389565855264664, -0.09493429213762283, 0.022581417113542557, 0.1428615301847458, 0.10134539753198624, 0.1097264289855957, 0.01633903756737709, 0.15018922090530396, 0.10943091660737991, -0.0755312368273735, -0.06925823539495468, -0.04951826110482216, 0.11360462754964828, -0.042247675359249115, -0.13789699971675873], [0.1301344335079193, -0.0010699827689677477, 0.10240544378757477, 0.029095953330397606, -0.03638318181037903, 0.11778564006090164, 0.0764070451259613, -0.10565342754125595, -0.13713325560092926, -0.06855438649654388, 0.009861144237220287, -0.046896014362573624, 0.10212180018424988, 0.07648308575153351, -0.15671753883361816, 0.014740081503987312], [-0.1589004397392273, -0.08221586048603058, -0.006265484262257814, -0.025017132982611656, 0.01609794609248638, 0.1631774753332138, -0.040912434458732605, 0.12109000980854034, -0.038357581943273544, -0.15927180647850037, 0.0967261865735054, 0.15785208344459534, -0.13571728765964508, -0.037851158529520035, -0.005315257236361504, 0.04144887998700142], [0.032600097358226776, -0.15892963111400604, 0.12236780673265457, 0.14626358449459076, 0.1495460420846939, -0.06392443925142288, 0.11603458225727081, -0.01272922195494175, -0.14646510779857635, -0.03555737063288689, 0.0055125439539551735, 0.13327601552009583, 0.08738625049591064, -0.16329267621040344, 0.1397789567708969, -0.1204327940940857], [-0.0578836165368557, 0.042915087193250656, 0.01577998697757721, 0.12004353106021881, -0.13171778619289398, -0.027340928092598915, -0.12067338079214096, 0.031997598707675934, -0.16265088319778442, -0.10271258652210236, -0.08009324222803116, 0.03685636445879936, 0.13078877329826355, -0.010845446027815342, 0.04187311604619026, 0.06562644988298416], [0.14781907200813293, -0.11226823180913925, -0.08063077181577682, 0.1233806163072586, 0.024851981550455093, 0.10766273736953735, -0.07806601375341415, -0.07174646854400635, 0.12314964085817337, 0.1474764049053192, 0.014969998970627785, 0.06705010682344437, -0.10756102949380875, -0.06016737222671509, -0.03518657013773918, 0.10100601613521576], [0.07603739202022552, -0.1496109664440155, 0.0070204176008701324, 0.13404430449008942, 0.03509898483753204, -0.024212058633565903, -0.1610468477010727, -0.09608228504657745, 0.09995704144239426, 0.15267875790596008, 0.09359030425548553, 0.134242981672287, 0.061761289834976196, -0.14748956263065338, -0.00983910821378231, -0.1023479774594307], [-0.07724618166685104, -0.1538359671831131, -0.039725009351968765, -0.06009238213300705, -0.15425340831279755, -0.05997632071375847, -0.03885502740740776, -0.06078632175922394, -0.008232987485826015, 0.06162064149975777, -0.0965689867734909, -0.07181280106306076, 0.12171108275651932, 0.13732294738292694, -0.02166767418384552, 0.15798062086105347]]]], "bias": [0.0017830177675932646, -0.005421173293143511, -0.0024164151400327682, 0.003911253996193409, -0.001245991443283856, 0.0032150219194591045, -0.00399321923032403, 0.00196138396859169, -0.0005421580281108618, -0.0035750616807490587, -9.467305790167302e-05, 0.0021398584358394146, -0.0011451938189566135, -0.0036098011769354343, 0.0027222339995205402, 0.0016696670791134238]}, "batch_normalization_1": {"kernel": [0.9979037642478943, 1.008579134941101, 0.997150182723999, 0.9989221096038818, 1.000106692314148, 0.9972113370895386, 1.003194808959961, 0.9987327456474304, 0.9964936375617981, 1.001624584197998, 0.9970061779022217, 0.9998338222503662, 1.0014182329177856, 1.0057469606399536, 1.0001630783081055, 0.9957795739173889], "bias": [-0.0006572999991476536, -0.0019914417061954737, -0.005376647226512432, -0.0018090868834406137, 0.0002809043799061328, -0.0030612254049628973, -0.006774089764803648, -0.003449752926826477, 0.0007304660393856466, -0.0034530882257968187, -0.0014282823540270329, 5.552663060370833e-05, 0.0011007242137566209, -0.004039441235363483, 0.0005571017391048372, 0.00043470776290632784]}, "conv2d_2": {"kernel": [[[[0.01669410616159439, 0.029654527083039284, -0.08100651949644089, 0.08894671499729156, 0.09591630101203918, 0.06716794520616531, -0.07476857304573059, -0.05290834978222847, 0.06339015066623688, 0.06989554315805435, 0.07640226185321808, 0.07590137422084808, 0.017835279926657677, 0.09122606366872787, 0.08940968662500381, 0.003861393313854933, 0.0014810403808951378, -0.03609911724925041, 0.10137549042701721, 0.04321477189660072, -0.08250456303358078, -0.039851151406764984, -0.10591347515583038, 0.04385405406355858, 0.05494033172726631, 0.03881097957491875, -0.11487199366092682, -0.10682430863380432, 0.006750764325261116, 0.0006918447907082736, 0.06936828047037125, -0.09288723021745682], [-0.033289648592472076, -0.10747794806957245, 0.030306022614240646, 0.0624503567814827, 0.11145710200071335, -0.0014640388544648886, -0.07289628684520721, -0.09594112634658813, 0.05324346572160721, -0.0888691395521164, 0.05165017023682594, 0.011240649968385696, 0.12272435426712036, -0.04793291166424751, 0.09296079725027084, -0.01140514761209488, -0.11602994054555893, -0.032848358154296875, -0.00962801743298769, 0.011803053319454193, -0.004314611665904522, 0.013103796169161797, 0.003186517860740423, -0.10601309686899185, -0.06726981699466705, 0.07840404659509659, -0.06595953553915024, 0.07484663277864456, -0.025151174515485764, -0.11241333931684494, 0.07216905802488327, -0.0013096340699121356], [0.09927982836961746, 0.06611759960651398, -0.008901061490178108, -0.10998654365539551, -0.020392384380102158, 0.026936203241348267, 0.05569084361195564, -0.11482354998588562, 0.06827138364315033, -0.06698805838823318, 0.07891668379306793, -0.06218058615922928, -0.04851718246936798, 0.030368873849511147, 0.08574604243040085, -0.07592599838972092, -0.11186068505048752, 0.06484922021627426, 0.03548193350434303, -0.00661137979477644, 0.10959089547395706, -0.02243349701166153, -0.015011090785264969, -0.10891536623239517, -0.06129831075668335, -0.01352832280099392, -0.056515976786613464, -0.0787523090839386, 0.049421269446611404, 0.05344199389219284, 0.06392621248960495, -0.032276663929224014], [-0.0410311333835125, 0.06307542324066162, 0.0046837772242724895, -0.03484996408224106, 0.009127278812229633, -0.052647266536951065, -0.013996226713061333, 0.09484691917896271, 0.0637071430683136, -0.05222802981734276, 0.003873495850712061, 0.06340783089399338, -0.07288183271884918, -0.061286069452762604, 0.05841556191444397, 0.10789773613214493, 0.10075507313013077, -0.028266530483961105, 0.0014439739752560854, 0.05381932482123375, -0.07333958148956299, 0.10822384804487228, -0.02079981379210949, -0.04183095693588257, -0.016866596415638924, -0.11562366783618927, 0.07374164462089539, 0.07977928221225739, 0.10930147767066956, 0.035599976778030396, 0.06216667965054512, -0.023901158943772316], [-0.08503098785877228, 0.0879543200135231, 0.07607139647006989, 0.0017162348376587033, 0.045999057590961456, -0.062271397560834885, 0.06855389475822449, -0.11973517388105392, 0.016438176855444908, -0.09514529258012772, 0.0330905057489872, -0.04595338553190231, 0.052887722849845886, -0.07172811776399612, 0.026699667796492577, 0.047527242451906204, -0.09251422435045242, -0.009603707119822502, 0.024763403460383415, -0.05616568773984909, -0.0494459792971611, -0.03438703715801239, -0.0574079193174839, 0.021076563745737076, -0.03978407755494118, -0.08697709441184998, 0.048010919243097305, 0.06511883437633514, -0.05918712541460991, -0.08623792231082916, 0.06177288293838501, 0.09710901975631714], [0.10999038070440292, -0.08879893273115158, -0.06337154656648636, 0.07886304706335068, -0.07209829241037369, 0.07114822417497635, -0.01884165219962597, 0.0721665471792221, 0.024174131453037262, -0.060895826667547226, -0.04406053200364113, -0.03839277848601341, 0.08733503520488739, 0.01875462383031845, -0.001112774247303605, -0.016502901911735535, 0.10179105401039124, 0.09812317788600922, -0.0838070660829544, 0.0293904859572649, 0.05008525773882866, -0.04305281862616539, -0.09564695507287979, -0.07652448862791061, -0.07202668488025665, 0.030595019459724426, -0.10364354401826859, 0.1093323603272438, 0.059033919125795364, -0.02175021916627884, -0.0037468618247658014, -0.015103560872375965], [-0.009256630204617977, 0.048079460859298706, -0.04722226783633232, -0.08085230737924576, 0.045969199389219284, -0.044373396784067154, 0.1035606861114502, -0.11234546452760696, 0.08410809934139252, 0.05900285020470619, -0.10232751071453094, -0.047339875251054764, 0.011904154904186726, -0.044941503554582596, 0.07625637203454971, -0.016906194388866425, -0.1085626408457756, -0.12288901954889297, 0.025149470195174217, 0.05505278706550598, -0.10704054683446884, -0.11116452515125275, -0.0906076580286026, -0.04461061954498291, -0.09035428613424301, -0.017833435907959938, 0.055555228143930435, -0.09091266244649887, 0.06931798160076141, 0.1055062860250473, -0.04693096503615379, 0.015375093556940556], [-0.08925145119428635, -0.06904330849647522, 0.08709792792797089, 0.09158755093812943, 0.048582419753074646, 0.03985214605927467, 0.10648588091135025, -0.10507455468177795, -0.06565551459789276, 0.0939302071928978, -0.03506504371762276, 0.1157149076461792, 0.08170143514871597, -0.06808187812566757, 0.09861148148775101, -0.03383008390665054, 0.02433682791888714, -0.0966578871011734, 0.1055474728345871, 0.0968075841665268, 0.03520567715167999, 0.09608808159828186, 0.040949080139398575, -0.04104458540678024, 0.05424816533923149, 0.08586377650499344, 0.03704952821135521, -0.022330526262521744, 0.00856902077794075, -0.06344408541917801, 0.009046216495335102, 0.10494762659072876], [0.043679483234882355, -0.05212375894188881, 0.10361280292272568, 0.07954497635364532, 0.09480457007884979, 0.06300239264965057, 0.10227400809526443, 0.055482588708400726, -0.11585374176502228, -0.02454569935798645, -0.06261983513832092, -0.10563648492097855, 0.0818265825510025, -0.10576094686985016, -0.028564516454935074, -0.08137249201536179, -0.08874935656785965, -0.11231754720211029, -0.0030048254411667585, 0.03330279886722565, 0.04119307920336723, 0.026580456644296646, -0.04820404201745987, -0.09198351204395294, -0.028065312653779984, -0.060846541076898575, 0.05094531551003456, 0.0376579575240612, 0.0062401676550507545, 0.08043500036001205, 0.03854982927441597, -0.10263866186141968], [0.10396337509155273, 0.09110230952501297, 0.07675562053918839, 0.023635420948266983, 0.014181806705892086, -0.03014669194817543, 0.08198655396699905, 0.03318747133016586, -0.034777119755744934, 0.015760118141770363, 0.05720865726470947, -0.06154073774814606, -0.002129767555743456, 0.004060148261487484, 0.04020483046770096, -0.11291687190532684, 0.06411924958229065, -0.0478878915309906, -0.09780161082744598, -0.10347940772771835, 0.11018853634595871, -0.004307988565415144, -0.03659600391983986, 0.02993199974298477, 0.09439971297979355, 0.017510833218693733, -0.03813202306628227, -0.03203282877802849, 0.03532985970377922, -0.10890517383813858, 0.10427694767713547, 0.040388330817222595], [0.07488543540239334, 0.022716637700796127, 0.035550978034734726, 0.05717146769165993, 0.10864204913377762, -0.019505564123392105, 0.06251361221075058, -0.014533543027937412, 0.060841888189315796, -0.039715223014354706, 0.09554687142372131, -0.05455666780471802, 0.0222542155534029, -0.05138402804732323, -0.00939223449677229, 0.05432884767651558, -0.04508248344063759, -0.05922172963619232, 0.0018000577110797167, 0.10880108922719955, 0.035380925983190536, 0.038263045251369476, -0.05518772080540657, -0.06968125700950623, 0.0984196588397026, -0.037090547382831573, 0.06018555536866188, -0.06636598706245422, -0.11188345402479172, -0.07445983588695526, -0.09313138574361801, -0.06608882546424866], [0.04608593136072159, 0.07031705230474472, 0.11009018868207932, 0.010243458673357964, -0.05778798833489418, 0.057467423379421234, 0.006682150531560183, 0.047882430255413055, 0.08607776463031769, -0.02663474902510643, -0.11159083247184753, 0.08411151170730591, -0.00011943439312744886, -0.069749616086483, 0.10696347057819366, 0.06567522883415222, -0.06291661411523819, -0.033951535820961, 0.023814400658011436, -0.03322041407227516, 0.0413387194275856, 0.004895055200904608, 0.009809661656618118, -0.0024979538284242153, 0.04828552156686783, 0.07109501957893372, -0.02811959944665432, 0.05011819675564766, 0.01752668432891369, 0.04920879006385803, -0.04836941882967949, -0.10659812390804291], [0.06392355263233185, -0.09236268699169159, 0.02705339901149273, -0.1082579717040062, 0.08404228091239929, 0.06094760075211525, 0.007749004755169153, 0.062382325530052185, -0.0913938507437706, -0.0038787114899605513, 0.10480789095163345, 0.014815768226981163, 0.08697140961885452, 0.059558428823947906, 0.06832818686962128, -0.027279874309897423, 0.04794197902083397, 0.07777748256921768, 0.012111383490264416, 0.07295441627502441, 0.042728159576654434, -0.10657843947410583, 0.047916725277900696, 0.11779465526342392, 0.054842956364154816, 0.07486772537231445, -0.08245294541120529, 0.01834661327302456, -0.08344744890928268, -0.033987775444984436, -0.05521140620112419, -0.05174243822693825], [0.05276751518249512, 0.018213430419564247, 0.04474079608917236, -0.08090366423130035, 0.0931810662150383, -0.033790167421102524, -0.015544637106359005, -0.10019153356552124, -0.08982934057712555, 0.007051187567412853, 0.07566653192043304, -0.08115952461957932, -0.05012151226401329, 0.04941970482468605, 0.01724250428378582, -0.03366783633828163, -0.08494274318218231, 0.012763198465108871, -0.043998848646879196, 0.07290729880332947, -0.0008713213610462844, -0.08507878333330154, 0.11298920959234238, -0.08977928012609482, -0.049577027559280396, -0.07131954282522202, 0.0054427217692136765, 0.039815668016672134, 0.10657456517219543, -0.0598842017352581, 0.11858835071325302, 0.09620089083909988], [-0.04217560216784477, -0.04245465621352196, 0.09629035741090775, 0.056961387395858765, 0.03999151661992073, -0.09210695326328278, 0.013319089077413082, 0.08968502283096313, -0.10946833342313766, 0.009524968452751637, -0.034415677189826965, -0.09914631396532059, 0.05712823197245598, -0.06997714936733246, 0.02295440249145031, -0.09602844715118408, -0.09030759334564209, -0.07113390415906906, -0.038468338549137115, 0.045755062252283096, 0.08898793160915375, -0.09376785904169083, -0.010709266178309917, -0.10231608152389526, 0.021981053054332733, -0.013614168390631676, -0.023461833596229553, -0.037354566156864166, -0.09034567326307297, -0.07255744189023972, 0.11084001511335373, -0.02585870400071144], [0.027881601825356483, -0.027091829106211662, -0.11812163144350052, 0.08487784117460251, -0.03667531535029411, -0.05497054010629654, 0.04509441554546356, 0.07061489671468735, 0.019013889133930206, -0.08424200862646103, -0.00640976382419467, 0.059548065066337585, -0.010332140140235424, -0.10398630797863007, 0.03237978368997574, -0.038776230067014694, -0.004068301524966955, -0.047901082783937454, 0.09952759742736816, -0.08456187695264816, 0.023533500730991364, 0.0012289019068703055, -0.020680248737335205, 0.08424628525972366, -0.0035725990310311317, -0.05498780682682991, -0.017078476026654243, -0.11358769237995148, -0.09510345011949539, 0.022003965452313423, -0.06048211827874184, -0.06105564162135124]], [[0.01686764694750309, 0.06683522462844849, 0.014469285495579243, 0.08454907685518265, 0.06308887153863907, 0.10502251237630844, -0.05735373497009277, 0.012299682945013046, -0.011686266399919987, -0.0009699568618088961, -0.08824143558740616, 0.008313823491334915, -0.023257138207554817, 0.06334838271141052, 0.08586843311786652, 0.07198068499565125, -0.03145608305931091, -0.0422668531537056, 0.0515667088329792, -0.04698465019464493, 0.08652319014072418, 0.06785337626934052, -0.11157079041004181, -0.06884955614805222, -0.015322900377213955, 0.12189168483018875, 0.04946902394294739, -0.1036406084895134, 0.09098009765148163, 0.0737956240773201, 0.05065958574414253, 0.018321866169571877], [-0.10079987347126007, -0.010650460608303547, -0.0017794432351365685, -0.048291657119989395, -0.005431156139820814, 0.003158699022606015, 0.09859020262956619, 0.02593431994318962, -0.11558189988136292, -0.10673296451568604, -0.041720252484083176, -0.04211572930216789, 0.051944032311439514, -0.11393998563289642, 0.020152879878878593, -0.10596302151679993, -0.061762530356645584, -0.003032830310985446, 0.06794340163469315, -0.10469832271337509, 0.013899214565753937, -0.1005302295088768, 0.11413688212633133, 0.009707876481115818, -0.05525875836610794, 0.06627059727907181, 0.02407635934650898, 0.020344600081443787, -0.019036730751395226, 0.010782851837575436, -0.061499305069446564, -0.09173329174518585], [0.06279034912586212, -0.040243882685899734, -0.0581677183508873, -0.03390241786837578, -0.060592278838157654, 0.07895942032337189, 0.034055255353450775, 0.013528571464121342, -0.042571309953927994, -0.020934222266077995, -0.03546585515141487, -0.020134788006544113, 0.06138419732451439, 0.11658809334039688, -0.10465763509273529, 0.04260145500302315, 0.11724943667650223, 0.06018679589033127, 0.09123101830482483, -0.030765077099204063, 0.11611100286245346, -0.06775855273008347, -0.06270992755889893, 0.038084276020526886, -0.07306259870529175, 0.054572634398937225, -0.06837564706802368, -0.008946741931140423, -0.11438493430614471, 0.0546034537255764, 0.05200035870075226, -0.1179664134979248], [0.06926794350147247, -0.08716632425785065, 0.061298586428165436, 0.019672857597470284, -0.10039258748292923, 0.034983351826667786, -0.1164693683385849, -0.11278878152370453, 0.09726092219352722, 0.11510302126407623, -0.028703907504677773, 0.005792155861854553, -0.0707060918211937, 0.07631392776966095, 0.06397481262683868, -0.060393720865249634, 0.025199024006724358, 0.11367177218198776, 0.012196958065032959, 0.04898207634687424, -0.11049424111843109, 0.026857538148760796, 0.07258246839046478, 0.0082497987896204, -0.07187110185623169, -0.0531199686229229, 0.07066716253757477, -0.016584936529397964, -0.10723274201154709, 0.0009658201015554368, -0.08000940084457397, -0.10147085040807724], [0.018414758145809174, 0.10692957043647766, 0.030048638582229614, 0.03235027566552162, 0.007506717927753925, -0.035785406827926636, -0.07647576183080673, 0.11180639266967773, -0.0509224608540535, 0.05962474271655083, 0.01771913468837738, -0.08683861047029495, 0.0017853417666628957, 0.04769172519445419, 0.005600220989435911, -0.05175800248980522, 0.04173571616411209, -0.06859192252159119, -0.08585864305496216, 0.01351702120155096, -0.0997312068939209, 0.11196160316467285, -0.0038312587421387434, -0.014006657525897026, -0.1090955063700676, -0.10686074942350388, 0.007650152780115604, 0.08722810447216034, 0.030137473717331886, 0.10028050094842911, 0.11422058939933777, -0.09481841325759888], [-0.0337306447327137, -0.042198143899440765, 0.046059928834438324, -0.08483387529850006, -0.027363784611225128, 0.04304380342364311, -0.029718173667788506, 0.06768259406089783, 0.08367462456226349, -0.036262765526771545, 0.04722041264176369, -0.09670843183994293, -0.050303634256124496, -0.11144671589136124, -0.05992979556322098, -0.05412584915757179, -0.09247320145368576, 0.07353212684392929, 0.01707979291677475, -0.10952382534742355, 0.08190128207206726, -0.10090575367212296, -0.06754108518362045, 0.08778161555528641, 0.03244459629058838, 0.08338824659585953, -0.04566020518541336, -0.02355804108083248, 0.067161425948143, -0.07228546589612961, 0.02548144944012165, 0.09387176483869553], [-0.007735042367130518, 0.11054549366235733, -0.11656348407268524, 0.07585468143224716, -0.06380782276391983, 0.036943186074495316, 0.006337842904031277, -0.01637355051934719, 0.02178412489593029, -0.11818931996822357, 0.08655837178230286, -0.043540649116039276, 0.08047720044851303, -0.044866979122161865, 0.006546429358422756, 0.03327147290110588, -0.07963062822818756, 0.042525384575128555, 0.017359614372253418, -0.05397338792681694, -0.04056474566459656, 0.05987746641039848, 0.08967914432287216, 0.11482717096805573, -0.09643705934286118, 0.0056997304782271385, 0.09465722739696503, 0.08433038741350174, 0.008815980516374111, 0.05831960588693619, -0.11821478605270386, 0.10196028649806976], [-0.08087484538555145, 0.10386651009321213, 0.09102930873632431, 0.05244055390357971, 0.05427937209606171, 0.03204481676220894, 0.053980499505996704, -0.08241760730743408, -0.06863944977521896, 0.0036516364198178053, 0.02293277718126774, 0.026934662833809853, 0.11112998425960541, 0.026780083775520325, -0.013020451180636883, 0.00972684845328331, -0.011331004090607166, 0.012956634163856506, 0.008421184495091438, -0.04316575080156326, 0.004524854943156242, 0.10742239654064178, -0.08570349961519241, 0.05156587436795235, -0.016685282811522484, 0.03813841566443443, 0.025958873331546783, -0.09477988630533218, 0.05916781723499298, 0.07635094225406647, -0.0407930426299572, -0.05388258770108223], [-0.033055055886507034, -0.0497279055416584, -0.05422745645046234, 0.09576743841171265, -0.023279620334506035, 0.05241977795958519, 0.04749973118305206, 0.0668029859662056, -0.1143706813454628, -0.09751905500888824, -0.053325772285461426, -9.030617366079241e-05, 0.04553094506263733, -0.10307492315769196, 0.03657417371869087, -0.0005255704163573682, 0.02189457230269909, 0.10760631412267685, -0.1094503179192543, -0.03842056542634964, -0.052273888140916824, -0.03751951828598976, 0.023607958108186722, 0.03948768228292465, 0.031529415398836136, 0.07671584188938141, -0.067129947245121, 0.06134133040904999, 0.10055527091026306, -0.07283293455839157, 0.07338254898786545, -0.11763636022806168], [-0.07328490167856216, 0.07448563724756241, 0.07438675314188004, -0.03182534500956535, -0.009117360226809978, 0.07585979998111725, 0.07006637752056122, 0.07127335667610168, -0.03692594915628433, -0.10017739236354828, 0.11246871203184128, -0.11203613877296448, -0.07487917691469193, -0.1142166331410408, -0.06593877822160721, -0.09256751090288162, 0.06226596236228943, -0.04517157003283501, 0.10711801052093506, -0.10988301783800125, -0.03910909220576286, 0.05614219233393669, -0.025536609813570976, -0.059617817401885986, 0.04776880517601967, 0.019202562049031258, 0.028118154034018517, -0.07222970575094223, 0.07006972283124924, -0.028395771980285645, 0.06389468908309937, 0.0805564820766449], [-0.016774065792560577, -0.02967342548072338, -0.0373239740729332, -0.08410359919071198, -0.11351195722818375, 0.008115244098007679, -0.0891394317150116, -0.0697251409292221, -0.06858302652835846, 0.013906119391322136, -0.11719449609518051, 0.11213549226522446, -0.011013212613761425, -0.0007081613875925541, 0.03119508922100067, -0.08820328861474991, 0.09669700264930725, 0.08464754372835159, 0.07935933023691177, 0.05493764579296112, 0.04708410054445267, 0.0800357535481453, 0.03234913572669029, 0.0790354534983635, 0.057584065943956375, -0.0014299341710284352, 0.0007966930279508233, -0.039707548916339874, -0.08595641702413559, 0.026185110211372375, -0.030286289751529694, -0.0580565445125103], [-0.083918496966362, 0.03379931300878525, -0.024187378585338593, 0.034011874347925186, 0.0821620523929596, 0.1178736761212349, -0.10915547609329224, 0.015809999778866768, 0.0570414699614048, -0.05299406126141548, 0.02505853958427906, 0.045254647731781006, 0.014186897315084934, 0.09672319144010544, -0.0004772809334099293, 0.07127101719379425, -0.07517663389444351, 0.019210495054721832, 0.01077054813504219, 0.08869063854217529, -0.09597628563642502, 0.11716606467962265, -0.08018568903207779, 0.11218218505382538, -0.01915479451417923, -0.04763968288898468, -0.009704886935651302, -0.04777675122022629, 0.0673576220870018, 0.057732634246349335, -0.07576093077659607, -0.02272421307861805], [-0.059011589735746384, 0.06599373370409012, 0.10906702280044556, 0.10551945865154266, -0.10451512038707733, 0.019253740087151527, -0.07554557174444199, 0.06290110945701599, 0.01684083789587021, 0.09840097278356552, 0.10111573338508606, -0.06603707373142242, 0.015555087476968765, 0.09050077944993973, 0.10735155642032623, 0.03710339590907097, 0.0056123510003089905, -0.05521648749709129, -0.10722757130861282, 0.041110001504421234, 0.07909896224737167, 0.06313798576593399, 0.05956045165657997, 0.08709485083818436, 0.10889112204313278, -0.05513161048293114, -0.04464562609791756, 0.07245000451803207, -0.09878791123628616, -0.08139055967330933, 0.10604139417409897, -0.07211297005414963], [0.0992872565984726, -0.05253499001264572, -0.08155274391174316, -0.08484049141407013, -0.04845041409134865, 0.03270751237869263, -0.03453173488378525, 0.057523101568222046, 0.017177626490592957, 0.011081863194704056, -0.10196085274219513, -0.04292654991149902, -0.10384424030780792, -0.09623280167579651, -0.058013733476400375, -0.0886501669883728, 0.07929255813360214, -0.11794845759868622, -0.08786368370056152, 0.03292061761021614, 0.04752763733267784, 0.10586844384670258, -0.0346333347260952, -0.007949624210596085, 0.09193572402000427, 0.10851650685071945, 0.10560991615056992, 0.006190419662743807, 0.051939282566308975, -0.010732843540608883, -0.08659981936216354, 0.11514356732368469], [0.11339909583330154, -0.05656154453754425, 0.04447657987475395, -0.04914821311831474, -0.014936847612261772, 0.014527286402881145, -0.10283941775560379, 0.07186852395534515, -0.004886489827185869, -0.10508634150028229, 0.09307775646448135, -0.02682649902999401, 0.08929726481437683, 0.007788020186126232, -0.11653075367212296, 0.055994730442762375, -0.021030349656939507, -0.022833939641714096, 0.016124524176120758, 0.03406583145260811, 0.055816348642110825, 0.05199671536684036, 0.025509437546133995, -0.02107352949678898, -0.08829788863658905, -0.0034560207277536392, -0.08317166566848755, -0.024925323203206062, -0.03281605988740921, 0.08067744970321655, 0.11337626725435257, 0.09604818373918533], [0.061818696558475494, 0.061918772757053375, -0.07635132223367691, 0.03683268278837204, -0.04235910624265671, -0.09379933029413223, -0.06356152147054672, 0.06317605823278427, 0.03257044032216072, 0.054633159190416336, -0.04576217010617256, -0.0986807644367218, 0.06879078596830368, -0.11011716723442078, 6.0448775911936536e-05, -0.09818814694881439, -0.017053864896297455, -0.08166522532701492, 0.09043345600366592, -0.06711263954639435, -0.09027883410453796, 0.07731997221708298, 0.07122041285037994, 0.06901217997074127, 0.04686342552304268, -0.08107493072748184, 0.023858996108174324, -0.09483170509338379, -0.06359850615262985, -0.04274666681885719, -0.11467432975769043, 0.07687874138355255]], [[0.09455797076225281, -0.033502768725156784, 0.05712425336241722, 0.07498808950185776, 9.822160063777119e-05, -0.1118486076593399, -0.03649475425481796, 0.0222984217107296, 0.11199206858873367, 0.03789669647812843, -0.05005775764584541, 0.025731323286890984, -0.06492884457111359, 0.11952857673168182, 0.1121533140540123, 0.0002078028192045167, 0.008801059797406197, -0.06069807708263397, 0.08339891582727432, -0.11062425374984741, 0.003411279059946537, -0.05006358027458191, -0.07068057358264923, -0.052409540861845016, 0.011099070310592651, 0.030654363334178925, -0.0708911344408989, -0.08992394059896469, -0.0727929174900055, 0.023564284667372704, -0.11256358027458191, 0.012522895820438862], [0.08543457835912704, -0.03980841860175133, -0.058897268027067184, 0.09163280576467514, 0.10287151485681534, -0.03266593813896179, -0.0014524048892781138, -0.08319360762834549, -0.01802622340619564, -0.11217911541461945, -0.08278162032365799, 0.09643103927373886, -0.02453596144914627, 0.09469900280237198, -0.0008254888234660029, -0.09202796220779419, 0.11683912575244904, 0.07514677196741104, 0.10128060728311539, -0.0850134789943695, -0.06868559867143631, 0.07259061932563782, -0.012650773860514164, -0.021173350512981415, -0.06614599376916885, 0.029160398989915848, -0.040507860481739044, -0.08328152447938919, -0.11522110551595688, -0.08515097200870514, -0.008736321702599525, 0.06555376201868057], [0.11466517299413681, -0.09221571683883667, 0.06988386809825897, 0.06024429202079773, -0.10661855340003967, 0.11024534702301025, -0.09619824588298798, -0.07942479103803635, -0.001472610980272293, 0.02270389534533024, 0.08466455340385437, -0.009973829612135887, 0.08422175794839859, -0.07480470836162567, -0.04495479539036751, 0.008547082543373108, 0.10077734291553497, 0.11464742571115494, -0.109767384827137, 0.11552789062261581, -0.0378793366253376, 0.050098806619644165, -0.07275144010782242, 0.060678765177726746, -0.08711215108633041, 0.04957200586795807, 0.021826952695846558, -0.0677391067147255, 0.003786555491387844, 0.039159055799245834, 0.027541426941752434, 0.06520260125398636], [-0.02960014156997204, 0.06576210260391235, 0.008791581727564335, -0.006943138781934977, 0.06989209353923798, -0.007496233098208904, 0.034918367862701416, 0.03628714755177498, -0.05145519599318504, 0.11404794454574585, 0.09446883946657181, -0.025038519874215126, 0.03815620020031929, -0.05475563555955887, 0.055043239146471024, -0.02921021357178688, -0.0667523518204689, -0.11070099472999573, -0.0447312593460083, -0.11061196029186249, -0.01265744585543871, 0.0992007777094841, -0.040199313312768936, 0.07319655269384384, 0.01572480984032154, 0.07005193829536438, 0.11581028997898102, -0.03406061977148056, 0.038522958755493164, -0.054898280650377274, 0.085921511054039, -0.05631239339709282], [-0.09999214112758636, 0.01322112139314413, -0.11479251086711884, 0.06431689858436584, 0.06834439933300018, -0.10737249255180359, -0.04183346405625343, -0.06805597245693207, -0.10327041149139404, 0.07944566756486893, -0.03732934966683388, -0.035482075065374374, 0.04352828860282898, 0.055243514478206635, 0.02817213162779808, 0.014433884993195534, 0.010274960659444332, -0.05327434837818146, -0.05958985164761543, 0.008636664599180222, -0.11419989913702011, -0.039386771619319916, 0.008190770633518696, -0.05308415740728378, 0.08271393924951553, -0.06486676633358002, 0.07689150422811508, 0.00016181131650228053, -0.020183322951197624, -0.05606384575366974, -0.1149803027510643, 0.037101734429597855], [0.03626367077231407, 0.015393634326756, 0.013620298355817795, 0.04649251699447632, 0.09640330076217651, -0.1087917685508728, -0.0050673531368374825, -0.04798896238207817, 0.04659249261021614, 0.023858260363340378, -0.0020052131731063128, 0.028844693675637245, 0.023576484993100166, 0.10323096066713333, 0.01777663081884384, -0.04158082604408264, -0.08619903773069382, -0.012320008128881454, -0.09721403568983078, -0.026545818895101547, -0.07029945403337479, 0.0702604129910469, -0.008744373917579651, 0.03603425621986389, 0.040278658270835876, -0.020561080425977707, -0.11334840953350067, 0.02139078453183174, 0.05302967503666878, 0.07126621156930923, -0.021522298455238342, 0.012090316042304039], [-0.09573924541473389, 0.106101393699646, -0.0733335092663765, -0.07771801203489304, -0.07860081642866135, 0.055910624563694, -0.10478315502405167, -0.08342482149600983, -0.004229764919728041, -0.011514361016452312, -0.07370442897081375, 0.04813966155052185, 0.004007854498922825, 0.030639223754405975, 0.05423026159405708, 0.030200082808732986, 0.07212303578853607, -0.11614286154508591, 0.024011170491576195, -0.050856221467256546, 0.055677708238363266, -0.042853184044361115, -0.04037090390920639, 0.06163071468472481, -0.11030986160039902, -0.09447084367275238, 0.03939055651426315, 0.020991120487451553, 0.11307132989168167, -0.04074036329984665, 0.10264014452695847, -0.10476303100585938], [-0.0809176042675972, 0.05955623462796211, 0.031034749001264572, -0.07213455438613892, 0.0842125415802002, -0.00614022184163332, -0.10992573201656342, 0.01474626362323761, 0.09288471937179565, 0.012558596208691597, 0.036120880395174026, -0.11283395439386368, 0.03635597601532936, -0.06048569455742836, -0.02596096508204937, 0.019665008410811424, -0.08078932017087936, -0.04649033769965172, 0.06774595379829407, 0.07229211181402206, 0.04987139254808426, -0.08673804253339767, -0.09937632828950882, -0.06317020207643509, 0.09926596283912659, 0.11336898803710938, 0.06245924532413483, 0.042674411088228226, -0.07738591730594635, -0.09135376662015915, -0.05418676882982254, -0.10878580808639526], [0.08209814876317978, 0.08840374648571014, -0.02833695523440838, -0.054319124668836594, 0.10959991812705994, 0.1103149801492691, -0.10119519382715225, 0.11052677780389786, -0.05205444246530533, -0.10908038914203644, 0.04456113651394844, 0.021655533462762833, 0.06933258473873138, -0.09492933750152588, -0.030520524829626083, -0.030408959835767746, -0.005986587144434452, -0.05024249851703644, -0.039280813187360764, -0.06160323694348335, 0.0023631544318050146, -0.02796580083668232, -0.061229053884744644, 0.10576114803552628, 0.11699792742729187, -0.08573693037033081, -0.05128047615289688, 0.055087536573410034, 0.05927183851599693, -0.017790256068110466, -0.024125810712575912, 0.08166562020778656], [-0.08040317893028259, -0.008964596316218376, 0.05348941683769226, 0.05984990671277046, -0.08033069223165512, 0.09171207994222641, 0.03317035362124443, -0.041271016001701355, -0.09508229792118073, -0.09525319933891296, -0.06659521907567978, -0.011536641046404839, -0.09810703992843628, 0.11149925738573074, 0.07559970766305923, -0.007105228025466204, 0.031870290637016296, 0.09975080192089081, 0.020702967420220375, 0.11311805993318558, 0.08504394441843033, 0.02341275103390217, 0.07121003419160843, -0.11208195239305496, -0.038994964212179184, -0.042977750301361084, 0.020657453685998917, -0.10846272110939026, 0.03645183891057968, -0.06847725063562393, -0.11298353970050812, 0.021391460672020912], [0.10941481590270996, 0.02147037349641323, 0.05880173668265343, -0.10127902776002884, -0.040185265243053436, -0.10462357103824615, -0.11516516655683517, -0.11700901389122009, -0.008541681803762913, -0.10977961122989655, -0.030486445873975754, 0.03970305621623993, 0.06172119453549385, -0.07590997964143753, -0.035884592682123184, -0.08639305830001831, 0.06625527888536453, 0.03939437121152878, 0.05893130600452423, -0.0851341113448143, -0.03303168714046478, 0.046775251626968384, -0.05886545777320862, -0.03077276609838009, 0.06544968485832214, -0.02765313722193241, 0.06633182615041733, 0.0835907831788063, -0.04792674258351326, -0.06685008853673935, -0.0939902737736702, -0.1132211834192276], [-0.053625546395778656, 0.02762434631586075, 0.04314533621072769, -0.09357061982154846, -0.07745972275733948, 0.11473894864320755, -0.07054996490478516, -0.03543869033455849, 0.04995868355035782, -0.06926410645246506, 0.0504603274166584, 0.08907021582126617, 0.035170793533325195, -0.013533768244087696, 0.06151900812983513, 0.09490595757961273, 0.012652451172471046, -0.053487781435251236, 0.056302547454833984, 0.06794094294309616, 0.03679105266928673, -0.11687646061182022, 0.060598138719797134, 0.10961258411407471, 0.11509991437196732, 0.04064518213272095, -0.004566939081996679, -0.02765348181128502, -0.05935098975896835, 0.10142386704683304, -0.018052777275443077, 0.03957736864686012], [0.04646681249141693, -0.016164304688572884, -0.0892961248755455, -0.04584686830639839, 0.10634973645210266, 0.06769897788763046, 0.0868450477719307, 0.018418380990624428, -0.03862079232931137, 0.10770592093467712, 0.017293523997068405, 0.0424044206738472, -0.11530755460262299, -0.030261799693107605, 0.03863460198044777, -0.03605835139751434, -0.10829155147075653, -0.10270915925502777, -0.07794323563575745, 0.09776131063699722, 0.08145634829998016, -0.024055974557995796, -0.030895784497261047, 0.017076771706342697, -0.03660254925489426, 0.04383911192417145, 0.08889397233724594, -0.03410997614264488, -0.005037514492869377, 0.0741216316819191, 0.045348916202783585, 0.09585336595773697], [0.11182095855474472, 0.08443091809749603, -0.0853600800037384, 0.06274165958166122, -0.008490832522511482, -0.08870045095682144, 0.03135530650615692, -0.06815072894096375, 0.11271219700574875, -0.07797560840845108, 0.11680421233177185, 0.07870633155107498, -0.07184027880430222, 0.07263461500406265, 0.0634617805480957, -0.03673428297042847, -0.07676587998867035, -0.06838110089302063, 0.00771939754486084, 0.01802579127252102, 0.11434130370616913, -0.050636209547519684, 0.005142413079738617, -0.04872008040547371, 0.06002775952219963, -0.04523972421884537, -0.09906283020973206, 0.014761372469365597, 0.09354102611541748, -0.011744894087314606, -0.003050166415050626, -0.011417190544307232], [-0.0036952572409063578, -0.06585291028022766, 0.11149022728204727, -0.07575935870409012, 0.02498745359480381, -0.09976118057966232, -0.05692974105477333, -0.06978324800729752, -0.09225905686616898, -0.05097036436200142, -0.03564082458615303, -0.06321680545806885, 0.021732386201620102, 0.08486202359199524, -0.0750018060207367, 0.06449498236179352, 0.05011631175875664, -0.08734030276536942, 0.02726966142654419, 0.007290710229426622, 0.11719860881567001, 0.05394904315471649, 0.10502500087022781, 0.008746341802179813, 0.01099471841007471, -0.1090366542339325, 0.08575421571731567, 0.09975656867027283, -0.041352786123752594, 0.11815240234136581, -0.10726580023765564, 0.00654188496991992], [-0.06524409353733063, 0.05038011819124222, 0.07449610531330109, -0.09727983176708221, 0.04798150435090065, -0.038365304470062256, 0.07941733300685883, -0.08480291068553925, -0.07685548812150955, 0.09996892511844635, 0.09376062452793121, -0.05495823174715042, 0.09792275726795197, 0.011965278536081314, -0.06500692665576935, -0.0838172659277916, -0.014570286497473717, 0.09137094765901566, -0.024705691263079643, -0.09151970595121384, -0.08821287006139755, -0.07420177757740021, -0.09312568604946136, 0.013016480021178722, -0.017842696979641914, -0.0880352258682251, -0.013178014196455479, 0.026763172820210457, -0.1143474206328392, 0.029364652931690216, 0.0017557835672050714, -0.0488446019589901]]], [[[-0.003598496550694108, -0.08923725038766861, 0.061493776738643646, 0.06315406411886215, -0.020191455259919167, 0.10320375859737396, 0.05983798950910568, -0.10411733388900757, -0.03655032813549042, 0.09555638581514359, 0.09021524339914322, -0.08136772364377975, 0.041843630373477936, -0.05611530691385269, -0.018966922536492348, -0.036940798163414, -0.040921811014413834, -0.062083806842565536, 0.07841294258832932, -0.0887579470872879, -0.004343501757830381, 0.013194205239415169, -0.11397560685873032, -0.10186132788658142, -0.023865578696131706, 0.08029890060424805, 0.07309158146381378, 0.11276198923587799, 0.08220044523477554, 0.1129392683506012, 0.07390286028385162, -0.0935414507985115], [-0.08968409895896912, 0.06602978706359863, 0.048212744295597076, -0.021212559193372726, -0.06311959028244019, -0.08863209187984467, 0.1125953271985054, 0.11251885443925858, 0.06190834566950798, -0.06671534478664398, -0.08377385884523392, -0.10003295540809631, 0.01402504462748766, 0.06956703960895538, -0.02142344042658806, -0.020197641104459763, -0.10057717561721802, 0.002086662221699953, 0.011749161407351494, -0.10909546166658401, 0.08106764405965805, -0.11913479119539261, -0.0512937530875206, 0.07062946259975433, 0.016771767288446426, -0.08108595758676529, -0.037024836987257004, 0.052653051912784576, -0.06427866220474243, -0.040133822709321976, -0.07054011523723602, 0.06389670819044113], [-0.06685300171375275, -0.014406168833374977, -0.08809816092252731, -0.02352111227810383, -0.09795350581407547, 0.09352552145719528, 0.045480191707611084, 0.05695017799735069, 0.08651736378669739, -0.10583197325468063, -0.06495220214128494, 0.06671333312988281, 0.08492356538772583, 0.058202262967824936, -0.0820305272936821, 0.03322577849030495, -0.10091355443000793, -0.057129811495542526, -0.016910050064325333, 0.0015027610352262855, -0.03998658061027527, 0.051950883120298386, 0.03931909054517746, -0.09240587055683136, 0.0443233922123909, 0.009305019862949848, -0.07026840001344681, -0.018844755366444588, -0.0213098656386137, -0.09546060115098953, 0.04056432843208313, 0.012986164540052414], [-0.03646190091967583, 0.019563091918826103, -0.09178613871335983, -0.08847801387310028, -0.02818935364484787, -0.08925673365592957, -0.09766629338264465, -0.04115457087755203, -0.09909690916538239, -0.06475961953401566, -0.11120935529470444, -0.031729213893413544, -0.09073951095342636, 0.015370704233646393, 0.08931905031204224, 0.11155829578638077, -0.0574202761054039, -0.06302331387996674, 0.10196757316589355, 0.09129302203655243, 0.0965830385684967, -0.09293223917484283, 0.06975849717855453, -0.10388777405023575, 0.002210348378866911, -0.045293644070625305, 0.07190971821546555, 0.08126258105039597, 0.07390044629573822, 0.06630832701921463, -0.07429680973291397, 0.022262828424572945], [-0.07287469506263733, 0.11744172126054764, 0.08753131330013275, -0.024234462529420853, 0.11066565662622452, -0.012315889820456505, 0.023530028760433197, -0.007341667078435421, 0.07354476302862167, 0.061715126037597656, 0.08306471258401871, -0.016517577692866325, -0.0893850028514862, 0.039303041994571686, -0.10245706886053085, 0.026179781183600426, -0.005668263416737318, 0.03413922339677811, -0.08751974254846573, 0.09413287788629532, 0.1146124005317688, 0.01491969171911478, 0.0008843770483508706, -0.028397589921951294, 0.07160239666700363, 0.09527431428432465, -0.07005325704813004, -0.07829035818576813, -0.04906370863318443, 0.01757570542395115, 0.018066074699163437, -0.07141923904418945], [-0.037573713809251785, 0.011296026408672333, 0.036718133836984634, 0.04168912395834923, 0.07460268586874008, -0.09388068318367004, 0.07792440056800842, -0.05019965395331383, 0.0013213461497798562, 0.058152906596660614, 0.0994081050157547, -0.026919063180685043, 0.05148563161492348, -0.06493470072746277, 0.07102193683385849, 0.015082813799381256, 0.10193825513124466, -0.01821238361299038, -0.09775178134441376, 0.09121603518724442, -0.037700869143009186, -0.01400767918676138, 0.0951622948050499, 0.0473506897687912, -0.06605003774166107, -0.07730545848608017, 0.07220938801765442, 0.11130121350288391, -0.019152656197547913, 0.02162468247115612, -0.0504210963845253, 0.09703176468610764], [0.017932148650288582, 0.025459574535489082, -0.11850913614034653, 0.06509989500045776, 0.018436942249536514, -0.08182467520236969, -0.08651982992887497, -0.037002548575401306, -0.029244601726531982, 0.02580532617866993, 0.07169745117425919, 0.024579741060733795, 0.034676410257816315, 0.06427988409996033, 0.01820640079677105, -0.04142824187874794, -0.03113788552582264, 0.01990521512925625, 0.009943654760718346, 0.10529542714357376, -0.05845323204994202, -0.08751779794692993, 0.08427056670188904, -0.10987057536840439, 0.06111773103475571, 0.0013396266149356961, -0.05702940747141838, 0.0887724831700325, -0.06238347291946411, -0.08004167675971985, -0.0008703643688932061, 0.08191657811403275], [-0.07866846024990082, 0.11073511093854904, 0.0938437432050705, 0.07146891951560974, -0.0087418919429183, -0.017190871760249138, -0.006326266098767519, 0.11117257177829742, 0.07247591763734818, -0.03992879018187523, 0.05773843452334404, 0.06960790604352951, 0.092936672270298, 0.038414523005485535, -0.09593422710895538, 0.01459536887705326, 0.010942274704575539, 0.01824742741882801, 0.10723026841878891, -0.10836136341094971, 0.09063266217708588, -0.01404871977865696, -0.03614744171500206, 0.060670554637908936, -0.08425512164831161, 0.086835578083992, 0.02912292070686817, -0.018764594569802284, 0.031365953385829926, 0.061377476900815964, 0.019572924822568893, 0.0973261296749115], [0.025033386424183846, -0.06815330684185028, 0.05366046354174614, 0.022108450531959534, -0.0733775943517685, -0.09545649588108063, 0.09802254289388657, 0.10177323967218399, 0.017178988084197044, 0.10446569323539734, -0.0514131560921669, 0.03510728105902672, -0.07825621962547302, -0.09553103148937225, -0.07148432731628418, -0.1152227520942688, 0.0006049575749784708, 0.06285353004932404, 0.0037856472190469503, 0.06983797252178192, -0.08249962329864502, -0.05249575898051262, 0.00850994698703289, -0.09391290694475174, -0.057011235505342484, 0.0075531997717916965, -0.026863379403948784, -0.06726682186126709, -0.08164864778518677, -0.050245482474565506, 0.04397951439023018, 0.027884671464562416], [0.08638674020767212, -0.01675577089190483, 0.08857930451631546, 0.10106270015239716, 0.01617714762687683, 0.008058616891503334, -0.0018470593495294452, -0.004582527559250593, -0.05553993582725525, -0.051647622138261795, 0.08160635083913803, 0.0036017426755279303, -0.03887379541993141, -0.10628040879964828, -0.09048892557621002, -0.003084679367020726, -0.0406511165201664, 0.031177081167697906, -0.02253301814198494, -0.03430698812007904, 0.1004597395658493, 0.07027039676904678, 0.052989065647125244, 0.06469949334859848, -0.018209123983979225, 0.1155063733458519, -0.08563544601202011, -0.002695308532565832, 0.05530618876218796, 0.0017044456908479333, -0.0011650408850982785, 0.021088486537337303], [-0.0833006352186203, 0.009883641265332699, 0.10717738419771194, 0.034070391207933426, -0.11532565206289291, 0.10789847373962402, 0.09320110082626343, -0.011058230884373188, -0.06482744216918945, 0.11635781079530716, -0.0851500928401947, -0.037393368780612946, -0.029933642596006393, 0.07005320489406586, -0.011120603419840336, 0.015589575283229351, 0.08905957639217377, -0.03567807003855705, 0.09216564148664474, 0.02238726243376732, -0.06761778146028519, -0.060345884412527084, 0.004897145554423332, 0.03822135180234909, -0.05824271962046623, 0.10837869346141815, 0.02680293284356594, -0.011054173111915588, 0.027628961950540543, 0.08865009248256683, 0.11622859537601471, 0.09355274587869644], [0.04533401131629944, 0.05425086244940758, 0.03899838402867317, -0.009248279966413975, 0.009510609321296215, 0.040422223508358, -0.09724049270153046, -0.08770058304071426, -0.05435910075902939, 0.03288741782307625, 0.027507854625582695, 0.08648977428674698, -0.07330094277858734, 0.08138570934534073, 0.03858774155378342, 0.03316359594464302, -0.007833721116185188, 0.0946337953209877, -0.07783408463001251, -0.10223779082298279, 0.05322572588920593, -0.05904442444443703, -0.004733802285045385, 0.08194782584905624, -0.1084577888250351, 0.0478220134973526, -0.045145101845264435, 0.02884512022137642, 0.04689275845885277, 0.06816054880619049, -0.07009073346853256, -0.0716543197631836], [-0.038347430527210236, 0.08765312284231186, -0.06421205401420593, 0.01704779639840126, 0.08751530945301056, -0.10798381268978119, 0.01182885468006134, -0.06385482847690582, 0.09367135912179947, 0.03701883181929588, 0.09331153333187103, 0.09782432019710541, -0.04641949385404587, -0.07421571761369705, 0.050241973251104355, 0.11264433711767197, -0.04626614972949028, 0.09782107919454575, -0.0952131524682045, -0.06674334406852722, -0.013565512374043465, -0.008356236852705479, -0.030248109251260757, -0.08289668709039688, 0.028088044375181198, -0.011736229993402958, -0.06370735168457031, -0.115418940782547, -0.08231117576360703, -0.08183817565441132, -0.027742458507418633, -0.06596596539020538], [-0.0056411647237837315, -0.012264697812497616, -0.015552159398794174, 0.08989474922418594, -0.0028599905781447887, 0.07189381867647171, -0.10262252390384674, 0.01638898439705372, -0.08783383667469025, 0.08091631531715393, 0.09282278269529343, 0.054947104305028915, -0.009689372964203358, 0.04651064798235893, 0.006210255436599255, 0.05221123620867729, 0.07445020973682404, -0.05752185732126236, 0.09258913993835449, 0.11815441399812698, 0.08368711918592453, -0.004020098131150007, -0.012844366021454334, -0.11859486252069473, 0.026506735011935234, 0.10657677799463272, -0.022089213132858276, -0.001747224130667746, 0.03609945997595787, -0.07308122515678406, 0.06810341775417328, -0.033503178507089615], [-0.06449425220489502, 0.08415453881025314, -0.0465688593685627, 0.10310756415128708, -0.06580604612827301, -0.11640536785125732, -0.0014863795368000865, 0.09688923507928848, 0.04308658465743065, 0.010399630293250084, 0.07772523909807205, -0.10355227440595627, -0.06680314987897873, 0.12353848665952682, 0.11854217946529388, 0.09557890892028809, 0.1174778863787651, -0.004591070581227541, -0.11556025594472885, -0.0026577399112284184, 0.023222997784614563, 0.07786744832992554, 0.09454266726970673, 0.037050820887088776, -0.040704868733882904, 0.10467536747455597, -0.06331809610128403, -0.09477968513965607, 0.042721863836050034, -0.06994807720184326, -0.018351837992668152, 0.09597283601760864], [0.07101432979106903, -0.08990664780139923, 0.056709736585617065, -0.0859534963965416, 0.022305257618427277, -0.030852679163217545, -0.09318145364522934, 0.035219479352235794, 0.042488519102334976, -0.11690640449523926, 0.1029900535941124, 0.06954239308834076, 0.001755950739607215, -0.003738108556717634, 0.09836318343877792, -0.027567416429519653, -0.10042697936296463, 0.1159791499376297, -0.09580067545175552, -0.04449988901615143, -0.040065307170152664, 0.0827893391251564, -0.08652950078248978, 0.027439966797828674, 0.09337185323238373, 0.07963351905345917, -0.10350839048624039, 0.07750848680734634, 0.0698307678103447, -0.028747431933879852, -0.09507889300584793, 0.11584582179784775]], [[0.10447582602500916, -0.07807914912700653, -0.05160146951675415, -0.10399296134710312, -0.05205092206597328, -0.0645575150847435, -0.10747379064559937, 0.010592419654130936, -0.0881093293428421, 0.04130761697888374, -0.08119136095046997, -0.032287340611219406, 0.08669304102659225, 0.015180692076683044, -0.11398231238126755, 0.0981665849685669, -0.036217257380485535, -0.008161739446222782, 0.054891228675842285, 0.08368426561355591, -0.05755801126360893, 0.0007832251721993089, 0.07025226950645447, 0.09015371650457382, 0.08846531808376312, 0.05867815762758255, 0.11004109680652618, -0.016143275424838066, 0.08638980984687805, 0.06388247758150101, 0.007038232404738665, -0.08107583224773407], [-0.08978406339883804, -0.02494354546070099, -0.09243081510066986, -0.047796379774808884, -0.02704303339123726, 0.06688527762889862, 0.08107304573059082, -0.060082387179136276, 0.055120617151260376, -0.03131025657057762, -0.04324110969901085, -0.10088203847408295, -0.03426511213183403, -0.005612567067146301, -0.021829750388860703, 0.01953067071735859, 0.030232388526201248, -0.09100299328565598, 0.0600762777030468, 0.08614636957645416, -0.02837863750755787, -0.04771333560347557, -0.004388582892715931, -0.022754980251193047, 0.030869117006659508, -0.09032201021909714, 0.007218302693217993, 0.09081903845071793, 0.06739584356546402, 0.013218089006841183, 0.02239275723695755, -0.07479336857795715], [-0.014395633712410927, 0.0242332611232996, -0.00592421181499958, 0.10037392377853394, -0.06904800981283188, 9.99455587589182e-05, 0.005952698178589344, -0.058875784277915955, 0.10192563384771347, 0.04946030676364899, 0.07561973482370377, -0.006345693022012711, 0.03172706440091133, -0.08984397351741791, 0.10896605253219604, 0.0998307317495346, -0.05131777003407478, 0.09190681576728821, 0.012074361555278301, 0.001301353331655264, -0.10714303702116013, -0.08370090276002884, 0.05807057023048401, 0.02738671936094761, -0.10849134624004364, -0.10302246361970901, 0.1076243668794632, -0.0398472398519516, 0.08629345148801804, 0.06874868273735046, -0.021621204912662506, -0.06602926552295685], [0.044965438544750214, -0.05243295058608055, -0.02963978797197342, 0.11029917001724243, -0.055797822773456573, -0.007468785159289837, -0.0960736945271492, 0.005121051333844662, -0.06595543026924133, -0.09461885690689087, -0.037217628210783005, 0.03471172973513603, -0.06597951054573059, 0.021527985110878944, -0.003037133486941457, 0.047244053333997726, 0.09508872032165527, -0.09681808948516846, -0.10317078232765198, 0.0031058203894644976, -0.02875233069062233, -0.08613906055688858, 0.02088596299290657, 0.07749772071838379, 0.003968831151723862, 0.03579692915081978, 0.029347937554121017, -0.04589920490980148, -0.10078827291727066, -0.08257827162742615, 0.10681645572185516, -0.0110349515452981], [0.04597828537225723, 0.10966787487268448, -0.10736625641584396, -0.04669221490621567, -0.08581721037626266, 0.07937178015708923, -0.04544440284371376, 0.03934340178966522, -0.08157622814178467, -0.0007269888301379979, -0.11064669489860535, -0.0741649642586708, -0.09020113945007324, -0.00676043052226305, -0.08776992559432983, -0.1146518662571907, -0.02566663920879364, -0.10710757970809937, -0.0011663911864161491, -0.07155606150627136, 0.020093560218811035, -0.10064654052257538, 0.1153302937746048, 0.08214282244443893, 0.0575198158621788, -0.11342364549636841, -0.0813462883234024, -0.04065505787730217, -0.014594453386962414, -0.02726452425122261, 0.02539377100765705, 0.029911698773503304], [-0.10388960689306259, -0.012864488177001476, 0.01937435381114483, 0.04102776199579239, -0.08279898762702942, -0.07710382342338562, 0.06642327457666397, -0.012248335406184196, -0.0038208302576094866, -0.024947240948677063, -0.05087050050497055, -0.11082641035318375, 0.011188555508852005, -0.04691559448838234, 0.06260933727025986, 0.09179139137268066, -0.07638507336378098, -0.00696879206225276, 0.01510671991854906, 0.08673332631587982, -0.06678612530231476, -0.0017285523936152458, 0.027200520038604736, 0.0815562903881073, 0.10693174600601196, 0.03363455459475517, 0.013331033289432526, 0.11214754730463028, 0.046969223767519, -0.09206263720989227, -0.08706722408533096, -0.07210715860128403], [0.08014576137065887, 0.04884916916489601, 0.029881468042731285, 0.050187237560749054, -0.02523776702582836, 0.11348726600408554, -0.05140845105051994, -0.0726885125041008, 0.004005247261375189, 0.06744086742401123, 0.018969053402543068, 0.11469092220067978, -0.10133074969053268, 0.07369223237037659, -0.034823283553123474, -0.033343199640512466, -0.025694547221064568, -0.03311106562614441, -0.04296787083148956, 0.030732175335288048, 0.06425050646066666, 0.0005385277909226716, -0.08955422043800354, 0.029675941914319992, -0.042461637407541275, 0.05617421492934227, 0.09094948321580887, -0.027088118717074394, -0.06841583549976349, -0.005347591824829578, -0.03937145322561264, -0.05605412274599075], [-0.02223081700503826, -0.0992569848895073, 0.0012586411321535707, -0.0794297382235527, -0.007303841877728701, -0.10997145622968674, 0.11105605214834213, -0.041076112538576126, -0.08888479322195053, -0.11132599413394928, 0.027609096840023994, 0.03189104050397873, -0.10788262635469437, -0.10824371874332428, -0.059507355093955994, -0.028644131496548653, -0.028234830126166344, 0.017319951206445694, 0.09168291091918945, 0.02129346691071987, 0.04771970584988594, 0.08143236488103867, -0.01877227984368801, 0.025224875658750534, -0.01527672540396452, 0.0637601837515831, 0.07076036185026169, 0.06369554996490479, 0.01740388385951519, -0.042491666972637177, 0.0902116447687149, 0.00880043301731348], [-0.10391426831483841, 0.06662622094154358, -0.03590801730751991, -0.05616001412272453, 0.06529781222343445, 0.05445901304483414, -0.042881060391664505, 0.04837604612112045, 0.04553133621811867, 0.09502415359020233, -0.011571761220693588, 0.10091914236545563, 0.010175364091992378, 0.08733146637678146, 0.0937354788184166, 0.10320305824279785, 0.07925202697515488, -0.10548557341098785, 0.06359507888555527, -0.030017662793397903, -0.06914598494768143, 0.08938130736351013, 0.07042735069990158, -0.014010150916874409, -0.0976065844297409, 0.04160499572753906, 0.05056851729750633, -0.013250462710857391, -0.004494739230722189, 0.06803706288337708, 0.09671404957771301, -0.05650998279452324], [0.039889857172966, 0.0784604474902153, 0.037403833121061325, -0.011049740947782993, -0.02605361118912697, 0.032634247094392776, -0.011718622408807278, -0.08773623406887054, -0.011484367772936821, 0.05599034205079079, 0.013138297013938427, -0.09241939336061478, -0.10822945088148117, -0.04137987643480301, 0.0716794803738594, 0.05692598223686218, 0.04141036793589592, -0.02931525930762291, 0.022565601393580437, 0.09907018393278122, 0.01634107530117035, 0.05678161606192589, 0.09655749797821045, 0.10771044343709946, 0.019502509385347366, 0.037595219910144806, 0.11678847670555115, 0.04169657826423645, 0.016485003754496574, 0.08516626060009003, 0.07425731420516968, 0.06267470866441727], [-0.029792863875627518, -0.11785591393709183, 0.07148541510105133, 0.06309038400650024, 0.05792808160185814, 0.018567390739917755, -0.07778271287679672, -0.1037057414650917, 0.0014868834987282753, -0.053655341267585754, 0.04817333072423935, -0.09423422068357468, 0.035812415182590485, -0.0580529160797596, 0.05728793889284134, 0.025005197152495384, 0.005947214085608721, -0.044787388294935226, -0.01113198697566986, -0.06658999621868134, 0.05803431198000908, 0.021546464413404465, -0.010875164531171322, -0.06698577851057053, -0.04665244743227959, 0.08418919146060944, -0.058704473078250885, -0.029376329854130745, 0.02179039642214775, 0.00685501703992486, -0.048551954329013824, -0.06839489936828613], [-0.04100743681192398, 0.10378071665763855, -0.10430090129375458, -0.07876505702733994, -0.10878627747297287, 0.11623837053775787, 0.061326924711465836, -0.03316956385970116, -0.01527677197009325, 0.022814156487584114, 0.023289207369089127, -0.10868396610021591, 0.08875615149736404, -0.027658289298415184, 0.11489343643188477, 0.03710014373064041, 0.10981021076440811, -0.11831003427505493, 0.019958119839429855, -0.0016293535009026527, 0.07908688485622406, 0.10588522255420685, 0.010131774470210075, 0.10511364787817001, 0.07128401100635529, -0.035946138203144073, 0.09343395382165909, -0.0998222604393959, -0.028839852660894394, -0.07807255536317825, -0.09362691640853882, -0.038152895867824554], [0.0394866019487381, -0.11617757380008698, 0.00361440097913146, 0.002734846668317914, -0.09863091260194778, 0.04652370885014534, -0.05404011905193329, -0.005301568191498518, 0.0139806242659688, 0.1030210554599762, -0.014741385355591774, 0.05971911549568176, 0.10034966468811035, -0.06404853612184525, -0.0329977422952652, -0.0009269904112443328, 0.007989275269210339, -0.0016498075565323234, -0.01644834317266941, -0.062073107808828354, -0.065997414290905, -0.038960471749305725, 0.08619707077741623, 0.03702034801244736, 0.04680325835943222, -0.056680433452129364, 0.01604965142905712, -0.05358586460351944, 0.06765852868556976, 0.11599642783403397, -0.05063081532716751, -0.013279853388667107], [-0.012814322486519814, 0.0469498448073864, -0.040485624223947525, 0.04960164055228233, 0.026459205895662308, -0.07318272441625595, 0.09906971454620361, -0.009301027283072472, 0.0027877967804670334, -0.016564344987273216, -0.112425297498703, -0.04136092960834503, 0.08608376979827881, 0.09852574020624161, -0.03859328851103783, 0.06066741421818733, -0.10639872401952744, 0.0060839056968688965, 0.08617164194583893, -0.041915543377399445, 0.07911630719900131, 0.008913473226130009, -0.053099967539310455, -0.08664540946483612, -0.07672002166509628, 0.0037703746929764748, 0.08472391217947006, 0.0949520543217659, 0.03476659953594208, 0.08499612659215927, -0.08594591915607452, 0.012421362102031708], [0.0637793242931366, -0.028830034658312798, 0.05465160310268402, 0.09394931048154831, -0.09273633360862732, 0.03955782577395439, 0.012754046358168125, -0.1107526570558548, -0.013684621080756187, 0.03621518984436989, 0.10727210342884064, 0.05565175414085388, 0.08902530372142792, -0.05193173512816429, -0.06755215674638748, 0.1099078580737114, 0.10584018379449844, -0.11892761290073395, -0.10049692541360855, 0.08268223702907562, -0.025370828807353973, -0.04834578558802605, -0.09258859604597092, -0.06601586192846298, 0.07381570339202881, -0.002554166130721569, -0.06530553847551346, -0.04507472366094589, -0.039255838841199875, 0.06983669847249985, -0.004681777209043503, 0.06745210289955139], [0.08545365929603577, 0.022834552451968193, -0.08185690641403198, 0.03086170181632042, 0.10823317617177963, 0.05980147421360016, 0.10476995259523392, 0.044030364602804184, -0.028550082817673683, -0.03793927654623985, 0.041756514459848404, 0.007034547161310911, -0.02258363366127014, 0.033953193575143814, 0.11342599987983704, 0.05422219634056091, -0.012898416258394718, 0.08033958822488785, 0.08453559130430222, 0.11532387137413025, -0.11755536496639252, -0.04040585458278656, 0.021638788282871246, 0.05251985415816307, 0.08562501519918442, 0.05009089410305023, -0.10368054360151291, 0.020288117229938507, 0.021746579557657242, 0.06736120581626892, -0.05816667154431343, -0.05757515877485275]], [[0.02911234088242054, -0.0722474455833435, -0.04727432504296303, 0.10518403351306915, -0.0835735946893692, 0.014578941278159618, -0.10575979948043823, -0.011782713234424591, -0.1117168739438057, -0.09049909561872482, -0.01782440021634102, -0.07760508358478546, -0.022694194689393044, 0.06276507675647736, 0.11476912349462509, 0.021848969161510468, 0.11503536254167557, -0.08650384843349457, 0.11604998260736465, -0.016870180144906044, 0.0032783637288957834, -0.028328824788331985, -0.08034399151802063, 0.07162464410066605, -0.07792827486991882, -0.07918733358383179, 0.04951575770974159, -0.05378115922212601, 0.044050902128219604, -0.04540281370282173, -0.09108664095401764, -0.1109648197889328], [0.09854661673307419, 0.03143750876188278, -0.11433064192533493, 0.01713341474533081, 0.004770341329276562, 0.07857055962085724, 0.07132244855165482, 0.08385723829269409, -0.019236572086811066, 0.0729963406920433, 0.09683922678232193, 0.11162629723548889, -0.06660211831331253, 0.10488137602806091, 0.06326629221439362, 0.11002364009618759, -0.05952022969722748, 0.11158650368452072, -0.0477294996380806, -0.00412584887817502, 0.04743587225675583, 0.0719011202454567, -0.10701889544725418, -0.00754280760884285, 0.01789947599172592, 0.02261750027537346, 0.04708551615476608, -0.07000419497489929, 0.11514820158481598, 0.08231388032436371, -0.011244207620620728, 0.10663067549467087], [0.0011537667596712708, 0.0018946073250845075, -0.04247523471713066, -0.0032675715629011393, -0.060350630432367325, -0.03429040312767029, -0.08087342977523804, 0.07425377517938614, -0.044117264449596405, -0.0737866684794426, 0.08849365264177322, -0.012716537341475487, 0.08810252696275711, -0.10996398329734802, 0.06085704267024994, 0.030952824279665947, 0.017153285443782806, -0.06133810058236122, -0.07637608051300049, 0.08735251426696777, -0.08787564188241959, -0.10134296119213104, 0.04624477028846741, -0.07462234050035477, -0.020558778196573257, -0.002578170271590352, -0.009734930470585823, -0.002316012280061841, 0.11189457029104233, -0.0749882385134697, -0.02943192981183529, -0.051501329988241196], [0.013414016924798489, 0.05390134081244469, 0.011121287010610104, -0.1118086650967598, 0.006379959173500538, 0.04756050184369087, 0.0029811416752636433, -0.11495144665241241, -0.026670120656490326, 0.09624844789505005, -0.026163609698414803, -0.06090458482503891, -0.10361164808273315, 0.033749453723430634, -0.013705221004784107, 0.08641640096902847, 0.017292344942688942, 0.09174885600805283, 0.0999663770198822, -0.07178475707769394, -0.055162567645311356, 0.06496180593967438, 0.04047895967960358, 0.11607562005519867, -0.023359199985861778, -0.024755027145147324, -0.005984397605061531, -0.014027903787791729, 0.09368760138750076, -0.10011685639619827, -0.04422077164053917, 0.08888392895460129], [0.07743653655052185, 0.07773566991090775, 0.008586895652115345, 0.05713949352502823, 0.024114107713103294, -0.05590995028614998, -0.07653718441724777, -0.11735951155424118, -0.08509431034326553, -0.02023797482252121, -0.10191770642995834, -0.01997697539627552, -0.007474561687558889, 0.01583990454673767, 0.035962313413619995, -0.04306194186210632, -0.07006219029426575, -0.08204638957977295, 0.0565769225358963, 0.107028529047966, 0.038592420518398285, 0.08496862649917603, -0.008084320463240147, -0.1128268837928772, 0.0015408548060804605, -0.0037372149527072906, -0.10277196764945984, -0.045148253440856934, -0.06591866910457611, -0.047876954078674316, -0.0177821796387434, 0.09417653828859329], [-0.1081833690404892, -0.0428290031850338, -0.09801366925239563, -0.013912556692957878, -0.010593793354928493, -0.0161389522254467, 0.10269053280353546, -0.09310153126716614, -0.06712104380130768, 0.08861737698316574, 0.09469784796237946, 0.1130172461271286, 0.0531618669629097, 0.07764343917369843, -0.021317433565855026, -0.07836684584617615, 0.038456421345472336, -0.032049041241407394, 0.08674730360507965, -0.07757832109928131, 0.060993559658527374, -0.04025578126311302, -0.06537720561027527, 0.11981341987848282, -0.07024886459112167, 0.11079888790845871, -0.08635542541742325, 0.04334873706102371, -0.038246121257543564, -0.062402840703725815, 0.05498010665178299, 0.029108744114637375], [-0.02902085706591606, 0.006998521275818348, -0.07066334038972855, -0.09907205402851105, 0.048685893416404724, 0.07694537192583084, -0.09413307905197144, 0.10340581089258194, 0.1074691116809845, -0.10421986877918243, -0.09079864621162415, -0.004940756596624851, 0.024773215875029564, -0.0744670033454895, -0.050677329301834106, -0.014661206863820553, 0.05575616657733917, 0.00024865358136594296, -0.1095891073346138, -0.11935336142778397, 0.057433340698480606, 0.05713917687535286, 0.0070065828040242195, -0.013158204965293407, 0.0019874346908181906, 0.014879630878567696, -0.030427217483520508, -0.09836191684007645, 0.10656706988811493, -0.047632843255996704, 0.0972234383225441, 0.03469433635473251], [0.03241639584302902, -0.04366447404026985, 0.07351471483707428, -0.05154713615775108, 0.010657149367034435, -0.027507193386554718, -0.04874361678957939, 0.10079006105661392, 0.05632849037647247, 0.09756388515233994, 0.07381133735179901, 0.039803944528102875, -0.03428567945957184, -0.048574093729257584, -0.08481942117214203, 0.021698664873838425, -0.015615941025316715, -0.11494770646095276, 0.08295799791812897, 0.03810827434062958, -0.04216087982058525, 0.10022366791963577, -0.1048809215426445, 0.09272947907447815, 0.07164325565099716, -0.04585530608892441, 0.10702880471944809, 0.014690807089209557, 0.01997857168316841, -0.08932359516620636, 0.06539880484342575, 0.0907798483967781], [-0.007979759946465492, -0.07213842868804932, 0.08848996460437775, -0.05828263238072395, 0.04083983227610588, -0.10618942975997925, 0.019509557634592056, 0.048352502286434174, -0.07520756125450134, -0.02876134216785431, -0.07499135285615921, -0.06234476715326309, -0.10383843630552292, 0.07347346097230911, -0.0791933611035347, -0.007530106697231531, 0.11717136204242706, -0.0838538110256195, 0.013366256840527058, -0.07127955555915833, 0.08743029087781906, 0.07458006590604782, -0.09395468980073929, 0.02597001940011978, -0.0848076120018959, -0.07931673526763916, -0.07471299916505814, 0.09016281366348267, 0.07099100202322006, 0.10621669888496399, 0.0004672259383369237, -0.08576096594333649], [-0.05046696215867996, 0.019885245710611343, 0.050070736557245255, 0.1150452196598053, 0.0816262885928154, 0.07949776947498322, 0.08652299642562866, -0.0635421946644783, -0.005497027188539505, -0.043224774301052094, 0.030241673812270164, 0.09003937989473343, 0.0004871111596003175, -0.11623069643974304, 0.06588258594274521, -0.015060404315590858, -0.08541814982891083, -0.006267455406486988, -0.027963638305664062, 0.0992865115404129, 0.01760246604681015, -0.07081559300422668, 0.00019837581203319132, -0.036667872220277786, -0.053945641964673996, -0.05553431436419487, 0.10011336952447891, -0.07795284688472748, 0.07636658847332001, -0.05855557695031166, -0.05624791979789734, -0.044096726924180984], [0.09293802827596664, -0.07203774154186249, -0.09869914501905441, -0.0345342755317688, 0.007819467224180698, -0.015954216942191124, 0.004832892678678036, -0.05553605407476425, 0.08529738336801529, -0.09585070610046387, 0.02199299819767475, -0.08317185938358307, -0.09501912444829941, 0.11466114223003387, -0.11620176583528519, -0.06233914569020271, 0.0407615602016449, 0.08359997719526291, 0.006890493910759687, 0.06196260824799538, -0.10184088349342346, 0.1172495111823082, -0.09302999824285507, 0.024034755304455757, 0.08129353821277618, -0.11349207907915115, 0.11525938659906387, -0.06315803527832031, -0.09343123435974121, 0.10131993889808655, -0.09075958281755447, 0.09852027893066406], [-0.015170270577073097, -0.08187977969646454, -0.10010620951652527, 0.07083597779273987, 0.05530969053506851, 0.08263974636793137, 0.07562585175037384, -0.018844271078705788, 0.03845890238881111, 0.10610309988260269, 0.03781113401055336, -0.06693678349256516, 0.07340040057897568, 0.03254322707653046, 0.10289900749921799, 0.04038689658045769, -0.0343574695289135, -0.041307881474494934, -0.020829234272241592, 0.04790341481566429, -0.057818613946437836, 0.0720716044306755, 0.10570144653320312, -0.0303888488560915, -0.0771147832274437, 0.014578797854483128, 0.03224378451704979, 0.03917678818106651, -0.00537777878344059, -0.11025327444076538, 0.09497883915901184, 0.09598731994628906], [-0.030601631850004196, 0.03347386419773102, 0.08038327097892761, -0.07491064816713333, -0.09077556431293488, 0.055658094584941864, -0.010448290035128593, -0.027847200632095337, -0.06374877691268921, 0.11547410488128662, 0.004144663456827402, 0.04093412682414055, 0.05494949594140053, -0.06915619224309921, 0.048159923404455185, -0.054788738489151, 0.04864918813109398, -0.08388688415288925, -0.04438141733407974, -0.11211985349655151, 0.031149521470069885, -0.007947275415062904, -0.11293632537126541, 0.09554816782474518, 0.11619216203689575, 0.0017889441223815084, 0.004047587979584932, -0.07806862145662308, -0.05778802931308746, 0.08609530329704285, 0.07559431344270706, 0.03176414594054222], [0.006841151975095272, 0.07657352089881897, -0.05863621085882187, -0.049946460872888565, -0.027609199285507202, -0.013979613780975342, -0.06346029788255692, -0.07161656022071838, 0.0890602320432663, -0.07242600619792938, -0.006950837559998035, -0.047541167587041855, 0.08099408447742462, 0.008535224013030529, -0.029676849022507668, -0.056481797248125076, -0.11370105296373367, -0.09838201850652695, -0.035594385117292404, -0.028532417491078377, -0.06655128300189972, -0.0234291460365057, -0.039687905460596085, -0.11670486629009247, -0.0023307506926357746, -0.10360919684171677, 0.12222301214933395, -0.05216607823967934, 0.0008845381089486182, -0.02567136101424694, 0.08792904019355774, -0.09210864454507828], [0.043233659118413925, -0.08352240920066833, -0.03958342969417572, 0.08109256625175476, 0.049767591059207916, 0.0790495052933693, -0.04483678564429283, -0.04501134529709816, -0.07701167464256287, -0.06165036931633949, 0.09434792399406433, -0.04958552494645119, -0.08148214966058731, -0.016158143058419228, -0.003543767612427473, 0.0642554983496666, 0.0855683758854866, 0.10106229782104492, -0.015565901063382626, 0.09994816780090332, -0.058717358857393265, -0.0067590028047561646, -0.055393368005752563, 0.11992197483778, -0.08371178805828094, -0.02200431190431118, 0.08902022242546082, 0.059013623744249344, -0.081611268222332, -0.02716880664229393, -0.10125633329153061, -0.09539381414651871], [0.07587376236915588, -0.02808644063770771, 0.06729559600353241, 0.014586783945560455, 0.004940955899655819, -0.042407456785440445, 0.0627472922205925, -0.06833287328481674, -0.06905298680067062, -0.09988728165626526, 0.10870670527219772, 0.07552795857191086, -0.05269377678632736, -0.07731816917657852, -0.08035579323768616, 0.104127898812294, 0.03311876952648163, 0.07906224578619003, 0.04682046175003052, 0.020519202575087547, -0.11821824312210083, -0.11663316190242767, 0.028743330389261246, 0.06687663495540619, 0.11515196412801743, -0.09949760884046555, -0.04139011353254318, -0.0917019173502922, -0.1031511202454567, -0.06698921322822571, -0.09598570317029953, -0.07396084815263748]]], [[[-0.0447605699300766, -0.06381118297576904, -0.059752002358436584, -0.0008473700727336109, -0.04222521558403969, -0.10070516169071198, -0.08497338742017746, 0.04061714559793472, -0.026561062783002853, -0.07427409291267395, -0.00883133988827467, 0.012592957355082035, -0.10001910477876663, 0.07080436497926712, 0.03320269286632538, -0.06647240370512009, 0.06842342019081116, -0.08041875064373016, -0.03731394186615944, 0.09889630973339081, -0.06947777420282364, -0.009530331008136272, 0.06824208050966263, -0.09793508797883987, 0.07290401309728622, 0.07472147792577744, 0.05986778065562248, -0.10459230095148087, 0.09505277127027512, -0.054023828357458115, 0.045131225138902664, -0.08429193496704102], [-0.0014474899508059025, 0.10499691963195801, -0.07351246476173401, -0.013618089258670807, -0.050007183104753494, -0.05496440827846527, 0.043083466589450836, -0.06427503377199173, -0.04866831377148628, 0.06284651160240173, -0.07228755205869675, -0.030677730217576027, -0.01006938237696886, -0.06803880631923676, -0.07450684905052185, -0.1044231727719307, 0.09010850638151169, 0.01677371747791767, 0.10373229533433914, 0.023614373058080673, -0.05684586614370346, 0.06552597135305405, -0.06287308782339096, 0.09328515082597733, -0.013397281989455223, 0.018961923196911812, -0.02071908861398697, 0.07725462317466736, -0.04033646732568741, -0.07956717163324356, -0.11187878996133804, 0.0017683148616924882], [0.09746085852384567, 0.019846344366669655, 0.050637297332286835, 0.015951599925756454, -0.07988851517438889, 0.013541936874389648, -0.03519466146826744, -0.03671248257160187, 0.07656127214431763, -0.08944832533597946, 0.018627343699336052, -0.08146677911281586, 0.11218462884426117, 0.04472535476088524, -0.07104168087244034, -0.09363554418087006, 0.0557938851416111, -0.10299330949783325, -0.012621106579899788, 0.04916496202349663, 0.09720872342586517, 0.04874269664287567, 0.08566655218601227, 0.02772977203130722, 0.09520874172449112, -0.015245172195136547, 0.06773131340742111, -0.03377903252840042, -0.042649444192647934, 0.1086348220705986, -0.0974791944026947, -0.050188492983579636], [-0.013314839452505112, 0.09381500631570816, -0.017230413854122162, -0.09534376114606857, -0.09792350232601166, 0.012654250487685204, 0.12143810838460922, -0.06826946139335632, -0.08729913830757141, -0.016689352691173553, -0.0801505520939827, 0.011005046777427197, -0.07083357870578766, -0.03546074032783508, 0.08652281761169434, 0.0031808356288820505, -0.038526490330696106, -0.05642615631222725, 0.04376692324876785, 0.016863852739334106, 0.02181117795407772, 0.03475140035152435, 0.054701678454875946, 0.0088836420327425, -0.06160302460193634, 0.04232282564043999, 0.026963982731103897, 0.11433299630880356, 0.08207108825445175, -0.08134148269891739, 0.008120045997202396, -0.0839933454990387], [-0.007462386507540941, -0.07010427862405777, -0.02120480127632618, 0.0859379917383194, -0.04239226505160332, 0.11459600180387497, -0.09698449075222015, -0.06573989987373352, 0.09220673888921738, 0.09990233927965164, -0.0305032841861248, -0.10467268526554108, -0.0037318607792258263, -0.08143341541290283, -0.11240736395120621, 0.03028840944170952, -0.06898216158151627, 0.06770192831754684, -0.043839648365974426, -0.08916109800338745, -0.06340844184160233, 0.04020505025982857, -0.025115832686424255, -0.017877748236060143, 0.011383652687072754, 0.0074937245808541775, -0.04758927971124649, -0.07251948118209839, 0.056804779917001724, -0.0337103009223938, -0.035457149147987366, -0.024315407499670982], [0.0778597891330719, -0.05718423053622246, 0.12103676795959473, 0.06850194185972214, -0.11277072131633759, -0.07945700734853745, 0.023743076249957085, -0.052668746560811996, -0.11502531915903091, 0.12036591023206711, 0.07413855195045471, -0.01145861204713583, -0.03155643865466118, 0.001765132532455027, -0.10975650697946548, -0.0002519263653084636, 0.1120818555355072, 0.10379262268543243, 0.006078501231968403, -0.0503283254802227, -0.01843159832060337, -0.020830493420362473, 0.10504929721355438, 0.05246149003505707, 6.300384848145768e-05, -0.02017424814403057, -0.01780940406024456, -0.1199808418750763, -0.07820115983486176, 0.051433295011520386, -0.10229362547397614, 0.018586954101920128], [0.04342563450336456, 0.06536450237035751, 0.11177779734134674, -0.11951214075088501, -0.004741208162158728, 0.11343532055616379, 0.030044686049222946, -0.05055297538638115, 0.06716396659612656, -0.0889381542801857, 0.0012766214786097407, -0.10448808968067169, 0.100801482796669, -0.04653257504105568, 0.04012465476989746, -0.02495124749839306, -0.06210361421108246, 0.02070578932762146, 0.09196159243583679, -0.023737583309412003, 0.10007249563932419, -0.01891760528087616, -0.08364322781562805, 0.003882928751409054, 0.03876305744051933, 