{"conv2d": {"kernel": [[[[0.06940023601055145, -0.1148313656449318, -0.25592660903930664, -0.2483920007944107, 0.039478760212659836, -0.17119692265987396, -0.16369450092315674, -0.07523169368505478]], [[-0.04253684729337692, 0.047511328011751175, -0.0725526288151741, 0.023065200075507164, -0.004970410373061895, 0.07709313184022903, 0.19375990331172943, 0.14686740934848785]], [[-0.1178152933716774, 0.12010102719068527, -0.16489289700984955, -0.047473788261413574, -0.11793084442615509, 0.01912076398730278, 0.08185111731290817, -0.2475971281528473]]], [[[0.23193885385990143, 0.08420433104038239, -0.2322167605161667, 0.19399714469909668, -0.059697989374399185, 0.09573840349912643, -0.1729273647069931, 0.07488179951906204]], [[-0.16474561393260956, 0.05998745933175087, 0.14291127026081085, -0.18178360164165497, -0.11465694010257721, -0.10949970781803131, -0.04328059405088425, -0.1457679718732834]], [[0.26657217741012573, 0.05125287175178528, -0.11815798282623291, 0.18608586490154266, 0.01772284507751465, -0.057789187878370285, -0.051735151559114456, -0.10891994088888168]]], [[[-0.15504170954227448, 0.2011946588754654, -0.009644139558076859, 0.1496564894914627, 0.09361188858747482, -0.1919345259666443, -0.11242029815912247, -0.2468847930431366]], [[0.026718290522694588, 0.1996636986732483, -0.19328385591506958, 0.1840173900127411, -0.2308860719203949, 0.1852896809577942, 0.15214768052101135, 0.2018481194972992]], [[-0.11186407506465912, 0.0713036060333252, -0.004203052259981632, 0.18578825891017914, -0.21353323757648468, -0.12882044911384583, -0.15218323469161987, 0.2673583924770355]]]], "bias": [0.001012294553220272, 0.0010343954199925065, -0.0007344355108216405, 0.0013652268098667264, -0.0005170293734408915, 0.0006250898586586118, 0.001995034981518984, 0.0006529404199682176]}, "batch_normalization": {"kernel": [0.9964707493782043, 1.000655174255371, 0.999193012714386, 1.0019952058792114, 0.9991006851196289, 1.0009963512420654, 1.0028268098831177, 1.0009289979934692], "bias": [0.0018839117838069797, 0.002933425595983863, -0.0004180469550192356, 0.0019882600754499435, 0.0008474083733744919, -0.00048753517330624163, 0.0012988924281671643, 0.0014353058068081737]}, "conv2d_1": {"kernel": [[[[0.1549454629421234, -0.10704132914543152, 0.031275708228349686, -0.07092490047216415, -0.026718031615018845, -0.049447838217020035, 0.010234776884317398, -0.12408968061208725, -0.07642902433872223, 0.1227620542049408, -0.13126184046268463, 0.02164509706199169, -0.003931333310902119, -0.012275723740458488, 0.09106889367103577, 0.008905411697924137], [0.04753141850233078, -0.1162915900349617, 0.06874372065067291, -0.07548075169324875, -0.0037416117265820503, 0.08972637355327606, -0.0960516631603241, 0.06020965799689293, -0.08915305137634277, 0.07838607579469681, 0.10087566822767258, -0.012698182836174965, 0.16705992817878723, 0.1296297311782837, 0.11234207451343536, -0.11692903190851212], [0.15800973773002625, -0.04041551053524017, 0.054990168660879135, -0.13847419619560242, -0.07543361186981201, 0.11578527837991714, 0.043224602937698364, -0.06396972388029099, -0.11995597183704376, 0.100279800593853, -0.019183946773409843, 0.018661972135305405, 0.08311698585748672, -0.08235306292772293, 0.06908166408538818, -0.021366553381085396], [0.08361126482486725, -0.08033239096403122, 0.0008562976727262139, -0.045658499002456665, -0.12728065252304077, -0.017108554020524025, -0.1580030769109726, 0.08455191552639008, -0.062443096190690994, -0.15121400356292725, 0.09246470034122467, 0.06261678785085678, 0.15285265445709229, -0.01783851720392704, 0.07366091012954712, 0.027109870687127113], [0.05995505675673485, 0.11045550554990768, 0.06702736765146255, -0.14431267976760864, 0.008869151584804058, -0.09210985153913498, 0.08256258070468903, -0.1443914920091629, 0.15557610988616943, 0.09548894315958023, 0.10849487781524658, 0.026358041912317276, -0.12099094688892365, -0.06395188719034195, 0.0634271427989006, 0.03431541472673416], [-0.04836999624967575, 0.11274298280477524, 0.04629693552851677, -0.04471149295568466, -0.10395215451717377, -0.046041034162044525, 0.1095733642578125, -0.09987622499465942, -0.09731937944889069, 0.09526069462299347, -0.04592781513929367, 0.04477972909808159, -0.05589219927787781, 0.09770771116018295, 0.1601599156856537, -0.0029211724177002907], [-0.026785600930452347, -0.050990112125873566, -0.07355693727731705, -0.06623710691928864, 0.07288539409637451, 0.030828623101115227, -0.007917460985481739, -0.024354388937354088, 0.015712924301624298, -0.12903042137622833, -0.0781262069940567, -0.06648756563663483, -0.011916191317141056, 0.16506551206111908, -0.019177226349711418, 0.058521147817373276], [-0.04966035112738609, 0.065909743309021, -0.021887248381972313, 0.11529327929019928, 0.1640695184469223, 0.01893918216228485, -0.03234785050153732, -0.101868636906147, -0.08251956850290298, 0.1334768831729889, 0.04784847050905228, 0.06345734000205994, -0.14227131009101868, 0.1608891636133194, 0.09654637426137924, -0.013787019066512585]], [[0.14076106250286102, 0.10524371266365051, -0.1531340777873993, -0.021377431228756905, 0.1620943248271942, -0.007718641310930252, -0.12999673187732697, -0.15574951469898224, -0.15973147749900818, 0.09647592902183533, 0.021098997443914413, 0.11736322939395905, 0.08862096071243286, -0.11899200826883316, 0.14530761539936066, 0.11738906055688858], [-0.1612062007188797, 0.14840489625930786, -0.12249696999788284, -0.04941254481673241, 0.1211862713098526, -0.02852761000394821, -0.02614716812968254, 0.14799733459949493, -0.03465993329882622, -0.1407621055841446, 0.027036553248763084, 0.008324670605361462, -0.07742470502853394, -0.04048304632306099, -0.06485709547996521, 0.11090204119682312], [-0.12031389772891998, 0.021714240312576294, -0.0016374621773138642, 0.04872423782944679, 0.087940514087677, 0.059853918850421906, -0.004018725827336311, -0.042131103575229645, -0.023216495290398598, 0.148331880569458, 0.06442324817180634, 0.13958275318145752, 0.11376716941595078, -0.022704534232616425, 0.030862756073474884, -0.14048445224761963], [-0.08943019062280655, -0.10475685447454453, 0.11024802178144455, 0.15179845690727234, 0.14704637229442596, 0.015116642229259014, 0.15423214435577393, -0.07262246310710907, -0.001196346478536725, 0.01601528935134411, -0.05823300778865814, 0.16125160455703735, -0.0744209960103035, 0.08951287716627121, -0.03813014551997185, 0.0670904815196991], [-0.07146309316158295, -0.04854726046323776, 0.11463601887226105, 0.09499397873878479, 0.1034015417098999, -0.14600124955177307, 0.06178717687726021, -0.038192447274923325, -0.16396769881248474, 0.04838842898607254, -0.15628771483898163, 0.005568026565015316, -0.00017128595209214836, -0.14410711824893951, -0.13385790586471558, 0.003924033138900995], [0.0076881893910467625, 0.031112972646951675, -0.10930190235376358, -0.1624535471200943, 0.05489731207489967, 0.03466877341270447, -0.16722697019577026, -0.04908950626850128, 0.05661598965525627, -0.08503711223602295, 0.06665969640016556, -0.08274982869625092, -0.10953280329704285, -0.06082150712609291, -0.10336467623710632, -0.11665676534175873], [-0.03517664968967438, -0.0474504679441452, 0.05536637455224991, -0.15232740342617035, -0.1673603653907776, 0.1624576300382614, -0.0052052512764930725, 0.14057666063308716, 0.16082467138767242, -0.1613428145647049, 0.1407918632030487, 0.12244489043951035, 0.05072243884205818, 0.135966956615448, 0.026867084205150604, 0.06184665858745575], [0.025641070678830147, -0.037015993148088455, -0.012096498161554337, -0.060659267008304596, -0.06752233952283859, -0.12168065458536148, -0.11190730333328247, -0.13676372170448303, -0.14542298018932343, -0.10327255725860596, 0.1404041349887848, -0.14219270646572113, 0.015227074734866619, -0.058828022330999374, -0.12735147774219513, 0.0010446029482409358]], [[0.014212378300726414, 0.034600209444761276, 0.051389534026384354, 0.13168831169605255, 0.13257311284542084, -0.0127558009698987, 0.05636906996369362, -0.14899063110351562, 0.08333221077919006, 0.04460490122437477, -0.12600769102573395, -0.16442997753620148, -0.04608478024601936, -0.08454091101884842, 0.12752419710159302, -0.09604673087596893], [0.0871310755610466, 0.09284348785877228, -0.013919584453105927, 0.11001644283533096, -0.1123540922999382, -0.0011094980873167515, -0.15776896476745605, -0.10290259122848511, 0.10222095251083374, 0.016408180817961693, 0.004832294769585133, -0.12296716868877411, 0.12829411029815674, -0.09987733513116837, -0.05578828603029251, 0.1225576251745224], [0.07426168769598007, 0.11466087400913239, -0.09379502385854721, -0.08673296123743057, 0.027366938069462776, -0.07011272013187408, -0.1516142189502716, -0.13712075352668762, -0.06875849515199661, -0.15650610625743866, -0.024672402068972588, 0.12536460161209106, -0.11667352169752121, -0.14638535678386688, 0.10981936007738113, 0.04151485487818718], [-0.11489894241094589, 0.11348842084407806, 0.0733427107334137, 0.07183745503425598, -0.12800507247447968, -0.03337790444493294, -0.10114770382642746, -0.10988232493400574, -0.05816643685102463, 0.006768043618649244, 0.10438421368598938, -0.12623322010040283, 0.08226332068443298, 0.14684875309467316, 0.0887158066034317, -0.08867337554693222], [0.030164651572704315, 0.07200079411268234, 0.13860152661800385, 0.05712290108203888, 0.06460773944854736, -0.08121588081121445, 0.057161491364240646, -0.042877864092588425, 0.08512920886278152, 0.010561116971075535, 0.09034315496683121, -0.13667605817317963, 0.1371988207101822, 0.08434459567070007, 0.14027325809001923, -0.1301964521408081], [-0.12885038554668427, -0.05937695875763893, -0.13466688990592957, 0.10335731506347656, -0.07659781724214554, -0.14768275618553162, 0.013508864678442478, 0.1409517377614975, 0.16502630710601807, 0.05111945420503616, 0.016237648203969002, 0.15870922803878784, 0.07267092913389206, 0.047775592654943466, -0.1408868134021759, 0.020180875435471535], [0.14063778519630432, -0.16302001476287842, 0.03985751420259476, 0.09729424118995667, 0.1088554710149765, 0.16463594138622284, 0.053859319537878036, -0.13259555399417877, 0.0307505801320076, -0.10631953179836273, -0.09812013059854507, -0.021177662536501884, 0.09784604609012604, -0.08196157962083817, -0.027698246762156487, -0.028478533029556274], [0.021095035597682, -0.13368315994739532, 0.053793251514434814, 0.13567101955413818, 0.10215876251459122, -0.14355583488941193, -0.1403099149465561, 0.15813526511192322, -0.08112091571092606, -0.1494872123003006, -0.14903850853443146, 0.046927906572818756, -0.11796894669532776, -0.1658824384212494, 0.15311986207962036, -0.14311757683753967]]], [[[0.05897829309105873, 0.07963438332080841, -0.16115793585777283, -0.08762238174676895, 0.043401625007390976, 0.10288028419017792, 0.041506558656692505, 0.026521528139710426, 0.048251062631607056, -0.04868179187178612, 0.07308896631002426, 0.05706290900707245, 0.09633391350507736, 0.0057501052506268024, -0.02871090918779373, 0.11239885538816452], [0.13334910571575165, 0.09339054673910141, -0.08888714015483856, 0.01119857095181942, 0.043137289583683014, 0.03125547245144844, -0.1035475805401802, 0.13146854937076569, -0.11879205703735352, 0.04059511050581932, -0.05398291349411011, 0.0898401215672493, -0.05575752630829811, 0.09675661474466324, -0.1201825737953186, -0.12348446249961853], [-0.15677717328071594, -0.025300242006778717, 0.09886649996042252, 0.13489222526550293, -0.057082533836364746, -0.1590258926153183, 0.05336657539010048, 0.0872950553894043, -0.08120100945234299, -0.07349218428134918, -0.1562720686197281, -0.010450366884469986, -0.05276023969054222, 0.1385243982076645, 0.025717327371239662, -0.14601534605026245], [-0.049464669078588486, 0.08643542230129242, 0.021806541830301285, 0.058632273226976395, 0.15913331508636475, -0.03201558440923691, -0.1240963488817215, -0.09111081808805466, 0.0596732571721077, -0.00897347554564476, -0.02415887825191021, -0.08590176701545715, 0.060885779559612274, 0.08032114803791046, -0.007023634854704142, -0.15310779213905334], [0.07723858207464218, -0.16665898263454437, 0.16192816197872162, -0.0264925304800272, 0.0426970049738884, 0.05546072497963905, -0.05523247644305229, -0.02202858403325081, 0.06800875812768936, 0.03493892401456833, 0.0032073722686618567, 0.0956629291176796, 0.09815512597560883, 0.028171850368380547, -0.06885988265275955, -0.08910847455263138], [-0.0110743697732687, 0.104738250374794, 0.12263718247413635, 0.08408042788505554, -0.02041148580610752, 0.032435763627290726, -0.0018704727990552783, -0.1493406444787979, -0.13708695769309998, 0.01995234191417694, 0.09406779706478119, 0.04860720410943031, -0.025959325954318047, 0.06265239417552948, -0.12933924794197083, 0.05888195335865021], [-0.039953578263521194, -0.05998116359114647, -0.10294133424758911, 0.07106223702430725, -0.10613228380680084, -0.10515537112951279, 0.13513867557048798, -0.0916123241186142, -0.16190503537654877, 0.037001535296440125, 0.05010697990655899, 0.006118388846516609, 0.020625900477170944, -0.059806473553180695, 0.05122387409210205, 0.13339883089065552], [-0.14656473696231842, -0.07317720353603363, -0.01837324909865856, -0.04550687223672867, 0.1425684541463852, -0.09008510410785675, 0.10168624669313431, -0.14947429299354553, -0.024721268564462662, 0.0756344199180603, -0.10997418314218521, 0.02346677891910076, -0.020283125340938568, 0.12561939656734467, -0.12531256675720215, -0.058950599282979965]], [[0.10143005102872849, -0.13976949453353882, -0.052769988775253296, -0.0712684839963913, 0.038694240152835846, 0.010044182650744915, 0.11294139176607132, 0.13993103802204132, -0.14377032220363617, -0.051193710416555405, -0.05668110400438309, -0.07592948526144028, -0.009699714370071888, 0.13368742167949677, 0.1248018816113472, -0.09596361964941025], [-0.08946333825588226, 0.05831609666347504, -0.05696805939078331, 0.1651526391506195, 0.09196410328149796, -0.059813983738422394, 0.055565621703863144, -0.01265802327543497, 0.15006527304649353, 0.11708603799343109, 0.08733053505420685, 0.0248046163469553, 0.10862535983324051, 0.1285586953163147, -0.05969048663973808, -0.13169969618320465], [0.07808170467615128, -0.045455507934093475, -0.07257865369319916, -0.11913188546895981, 0.14853636920452118, -0.12665022909641266, 0.1147661879658699, -0.021793952211737633, -0.1215253472328186, 0.04678694158792496, 0.10373880714178085, 0.10051659494638443, -0.08564508706331253, 0.14662913978099823, -0.023872556164860725, 0.004304442089051008], [-0.11460649967193604, -0.09104065597057343, 0.14763054251670837, -0.10465475916862488, -0.08408041298389435, 0.1008753553032875, -0.16118542850017548, -0.14804577827453613, 0.08443422615528107, 0.08772686123847961, 0.10694322735071182, 0.15745608508586884, 0.006570907309651375, 0.15218119323253632, 0.03329792991280556, -0.007947875186800957], [-0.08612225949764252, 0.02677820809185505, 0.035321421921253204, -0.09142733365297318, -0.04305431991815567, 0.1446828991174698, -0.08112139254808426, -0.07249059528112411, -0.043948132544755936, -0.15355923771858215, -0.06793954223394394, 0.05809015780687332, -0.1327766627073288, -0.06599956005811691, -0.01924583502113819, -0.14048367738723755], [-0.07021410018205643, -0.11628380417823792, 0.0891856998205185, -0.08003917336463928, -0.06522347033023834, 0.09965281933546066, 0.04179424047470093, 0.06603597104549408, 0.08569971472024918, -0.028387509286403656, 0.11968859285116196, 0.09526284784078598, -0.07508675009012222, -0.06727156788110733, -0.021557414904236794, 0.09554436057806015], [-0.11627079546451569, -0.03158702328801155, 0.07329041510820389, 0.0433058999478817, 0.08469118922948837, 0.033653903752565384, 0.06629393994808197, -0.011563246138393879, 0.1261603981256485, 0.16044054925441742, 0.09642615169286728, -0.037637606263160706, -0.12338536977767944, -0.003351275809109211, 0.08598528802394867, 0.09053746610879898], [-0.04096393659710884, 0.14176739752292633, 0.039991021156311035, -0.016062818467617035, -0.09484874457120895, -0.0321447029709816, -0.12189832329750061, -0.11009663343429565, 0.10097113996744156, 0.11855048686265945, 0.09447935968637466, -0.029065323993563652, 0.1116786003112793, -0.1414264589548111, -0.13056494295597076, 0.09741262346506119]], [[-0.13104692101478577, 0.15109114348888397, 0.07764869928359985, 0.004369593225419521, -0.11344737559556961, 0.08607783913612366, 0.08012425154447556, 0.055981218814849854, -0.01410472672432661, -0.08260294049978256, -0.14711232483386993, 0.005624680779874325, -0.061236124485731125, 0.15256589651107788, -0.0162361953407526, 0.02796677127480507], [0.05402513965964317, 0.16648490726947784, 0.06875286251306534, 0.1481628566980362, 0.06916742771863937, 0.07339851558208466, -0.14705775678157806, -0.11632580310106277, -0.13981258869171143, 0.0012088195653632283, -0.05462080240249634, -0.11284542083740234, 0.06702973693609238, 0.08585389703512192, -0.061600103974342346, 0.0749758780002594], [0.11630557477474213, 0.07269465178251266, -0.009047313593327999, -0.07330933958292007, -0.09018806368112564, 0.12430429458618164, -0.03051450476050377, -0.04594944790005684, 0.0698767602443695, -0.058488767594099045, 0.14118050038814545, -0.09894994646310806, -0.03274282068014145, -0.1439419984817505, -0.07152411341667175, -0.07133190333843231], [0.14695560932159424, -0.035699911415576935, 0.07202862203121185, -0.11786992847919464, -0.01503558550029993, 0.1330706775188446, -0.06632041186094284, 0.04664407670497894, 0.01873045414686203, -0.06425486505031586, 0.020408904179930687, 0.08254113048315048, -0.09646698087453842, -0.04622618108987808, 0.028535671532154083, -0.09715933352708817], [-0.10668811202049255, -0.043314483016729355, -0.1084393635392189, -0.026002243161201477, 0.09026084095239639, 0.13172534108161926, 0.1163840964436531, -0.0323890782892704, 0.018079498782753944, -0.10222405940294266, -0.1399880051612854, -0.055346813052892685, 0.1173878163099289, 0.12737581133842468, -0.10164827853441238, -0.11035650968551636], [-0.011525828391313553, -0.012410541996359825, -0.017900217324495316, 0.1336170732975006, 0.015581036917865276, -0.14276723563671112, 0.09982248395681381, -0.03211166709661484, -0.0655055046081543, 0.1598297506570816, -0.11967688053846359, 0.0931376963853836, -0.12095055729150772, -0.12754982709884644, -0.16078072786331177, 0.16354972124099731], [-0.012616381980478764, -0.10808736830949783, -0.12293274700641632, -0.02718402072787285, -0.07166700810194016, -0.10161669552326202, -0.13950078189373016, -0.1418525129556656, 0.16340143978595734, -0.13761413097381592, 0.02026514522731304, -0.008928505703806877, -0.1394495666027069, -0.020231014117598534, 0.04541913792490959, 0.08974934369325638], [-0.07634110003709793, -0.08469529449939728, 0.02545003779232502, 0.023254849016666412, 0.10093969851732254, 0.16398151218891144, -0.14885152876377106, 0.06595537811517715, 0.0007917773327790201, -0.07920245826244354, 0.04843282699584961, -0.06107278913259506, -0.15479838848114014, -0.1658751219511032, 0.16284912824630737, 0.07266083359718323]]], [[[-0.1039128452539444, 0.06107715144753456, 0.12970370054244995, -0.038458798080682755, -0.029381826519966125, 0.08840052038431168, -0.12258634716272354, -0.1321844458580017, -0.10256945341825485, -0.13239805400371552, -0.15673236548900604, 0.056162916123867035, -0.1377640664577484, 0.06425562500953674, 0.13036270439624786, -0.12221594899892807], [-0.15172629058361053, -0.15020252764225006, 0.10519573837518692, -0.10808072984218597, 0.06892813742160797, -0.11091578006744385, 0.08366546034812927, 0.00999469868838787, 0.031715549528598785, -0.1265058070421219, -0.1601710468530655, 0.09258429706096649, 0.011100209318101406, 0.04833586513996124, -0.0641636922955513, 0.04384084790945053], [0.04313064366579056, 0.02638373337686062, 0.08813071250915527, -0.12645956873893738, -0.009378627873957157, 0.00670897401869297, 0.04033900797367096, -0.11205907166004181, 0.025006083771586418, -0.09808655083179474, 0.05143594369292259, 0.13481535017490387, -0.1489643007516861, -0.1038571298122406, 0.08816941827535629, 0.13699813187122345], [-0.05165903642773628, 0.15612508356571198, 0.03863287344574928, 0.11443047225475311, 0.1245492622256279, 0.004387970548123121, 0.05850546434521675, -0.039789777249097824, 0.13467039167881012, -0.06906407326459885, -0.11797584593296051, 0.11825209110975266, 0.15267010033130646, 0.007025487720966339, 0.13111746311187744, 0.004027416929602623], [0.04671328142285347, 0.15674148499965668, -0.026390010491013527, 0.10226286202669144, 0.14419908821582794, -0.08632213622331619, -0.08812239021062851, -0.14879001677036285, 0.0008828581776469946, -0.08732586354017258, -0.05490836128592491, 0.08909234404563904, 0.14096671342849731, -0.08378399908542633, -0.13250422477722168, 0.03162867948412895], [-0.10841803252696991, -0.08937308192253113, 0.11347351968288422, 0.08600151538848877, 0.1535973846912384, 0.14742609858512878, -0.1259355992078781, -0.10744959115982056, -0.03312039375305176, 0.03941937908530235, 0.0587434358894825, -0.044192083179950714, -0.13477292656898499, -0.048259563744068146, -0.16688166558742523, -0.047266218811273575], [-0.05637116730213165, -0.06787913292646408, 0.11299432069063187, -0.020360242575407028, -0.02263183891773224, -0.023372314870357513, -0.07037951797246933, -0.09280174970626831, 0.08162492513656616, 0.05966058373451233, 0.016253449022769928, -0.11212196201086044, 0.037303075194358826, 0.1363251805305481, 0.03511955589056015, -0.07167363166809082], [0.021514447405934334, -0.06000031530857086, 0.0018549752421677113, 0.0926385223865509, 0.0673079565167427, -0.01524554193019867, -0.03706606477499008, -0.13323308527469635, -0.15456385910511017, 0.08840829879045486, 0.042106203734874725, -0.08538427948951721, -0.11373518407344818, 0.08434303104877472, 0.0694093182682991, -0.0718647688627243]], [[0.14003929495811462, 0.05034090578556061, 0.04064755141735077, -0.008931632153689861, -0.051625899970531464, 0.02577015943825245, -0.11228223145008087, 0.14033859968185425, -0.10440056025981903, 0.16524752974510193, -0.11799053102731705, -0.008973351679742336, -0.0692492425441742, 0.09388825297355652, 0.056163474917411804, 0.1531648486852646], [0.017982706427574158, -0.007929976098239422, -0.07035873085260391, -0.11914505064487457, 0.13210919499397278, 0.001010263105854392, -0.13051755726337433, -0.09003262966871262, 0.023604756221175194, 0.1528228521347046, -0.036448266357183456, 0.08738776296377182, 0.03554709255695343, -0.017965810373425484, -0.021001720800995827, 0.04420851916074753], [0.014306390658020973, -0.05848048999905586, -0.030734313651919365, -0.14175055921077728, -0.13806062936782837, -0.004983185324817896, 0.10917782038450241, -0.08790306001901627, -0.01550241094082594, 0.09884726256132126, -0.163700133562088, -0.16074226796627045, 0.09517297148704529, 0.08233065903186798, 0.1326615959405899, -0.12133316695690155], [0.05572548136115074, -0.07347395271062851, 0.02492273785173893, 0.029209310188889503, -0.10860080271959305, 0.08375829458236694, -0.09216022491455078, -0.001698951469734311, 0.1141013354063034, 0.15913094580173492, -0.13560007512569427, 0.04401859641075134, -0.15197379887104034, 0.09197764098644257, 0.15309008955955505, -0.07008875161409378], [0.04183851182460785, -0.08431046456098557, -0.0023345472291111946, -0.09993062168359756, -0.09817184507846832, -0.04277880862355232, -0.11728354543447495, 0.091761015355587, -0.11722765862941742, -0.017235852777957916, 0.013079569675028324, 0.08882138133049011, 0.15959292650222778, 0.00481475330889225, 0.0437597781419754, -0.1112644150853157], [-0.1450045108795166, 0.1337355077266693, -0.12219413369894028, -0.017228951677680016, 0.051204655319452286, 0.05169205740094185, -0.12265513092279434, 0.03620239347219467, 0.0732380673289299, -0.11665579676628113, -0.06306034326553345, 0.1623847335577011, -0.06303971260786057, -0.15944205224514008, 0.023262400180101395, 0.0055783092975616455], [-0.00976313091814518, -0.1557864248752594, 0.10777570307254791, 0.11093626171350479, -0.07388760894536972, -0.11348587274551392, 0.015385346487164497, 0.11442185938358307, 0.1458284854888916, 0.04102196916937828, -0.15491093695163727, 0.0662909597158432, -0.10630318522453308, 0.14362311363220215, 0.04267303645610809, 0.028952358290553093], [-0.1481209397315979, 0.10359474271535873, -0.12855595350265503, 0.1550460159778595, 0.1456701010465622, -0.0791599228978157, -0.15954375267028809, 0.028763286769390106, 0.11059684306383133, -0.14367933571338654, 0.0711001306772232, 0.03000643476843834, 0.06635230779647827, 0.1445474624633789, 0.04175941273570061, -0.02956596575677395]], [[-0.13427451252937317, -0.14857551455497742, 0.011530146934092045, -0.030583078041672707, 0.00019786736811511219, -0.1293489933013916, -0.043692734092473984, 0.035663627088069916, 0.09728370606899261, -0.10499356687068939, -0.025672752410173416, -0.11369742453098297, 0.06928282976150513, -0.08990006148815155, -0.05686868354678154, 0.08886294066905975], [-0.016275277361273766, -0.055210284888744354, -0.1261700987815857, -0.06966317445039749, -0.13268440961837769, 0.011686282232403755, -0.11187915503978729, 0.0942680686712265, 0.02827620320022106, 0.12145093083381653, 0.10057292878627777, 0.031695909798145294, 0.025766117498278618, 0.009894944727420807, 0.10041120648384094, -0.16264380514621735], [0.006167834158986807, 0.08231636136770248, 0.09057645499706268, 0.1602471023797989, -0.03811846673488617, -0.16127091646194458, -0.10140335559844971, -0.025692271068692207, -0.02750059776008129, 0.11973225325345993, 0.09933002293109894, -0.13760963082313538, 0.10766563564538956, 0.13198275864124298, -0.03280754014849663, 0.021914971992373466], [0.1262015998363495, 0.10384237766265869, -0.06489434093236923, 0.011333884671330452, 0.014011465013027191, -0.025255804881453514, 0.09730278700590134, -0.09707777947187424, -0.018828891217708588, 0.08080704510211945, -0.04682707041501999, 0.14225304126739502, -0.05073845013976097, -0.0352523997426033, -0.040897198021411896, -0.08018825948238373], [-0.12340246886014938, -0.1257987916469574, -0.009005159139633179, 0.11708535999059677, 0.16090752184391022, 0.06462103128433228, -0.14792825281620026, 0.06601511687040329, -0.10130921751260757, 0.13760115206241608, -0.10723821073770523, -0.09110355377197266, 0.05389124155044556, -0.04294092580676079, 0.033242177218198776, -0.036017876118421555], [-0.049569033086299896, -0.02514626272022724, -0.01378477644175291, 0.1023835837841034, -0.05850623548030853, 0.09749853610992432, 0.03865264356136322, 0.04441666975617409, 0.09586384147405624, -0.08305901288986206, 0.04888148605823517, 0.06216995418071747, -0.1460348516702652, -0.09801728278398514, -0.011877388693392277, -0.1633698046207428], [0.028987500816583633, 0.16033129394054413, 0.10471657663583755, -0.005558409728109837, 0.16046102344989777, 0.13670042157173157, 0.1581100970506668, 0.1468198597431183, 0.13359105587005615, -0.01857556588947773, -0.049722664058208466, 0.13451944291591644, -0.01148249488323927, 0.13151580095291138, -0.14839011430740356, -0.12420148402452469], [0.12296383082866669, -0.08059345930814743, 0.004823124967515469, -0.007904818281531334, -0.09200674295425415, 0.07127955555915833, 0.13432477414608002, -0.06785420328378677, 0.13058459758758545, 0.09624022990465164, 0.04473230242729187, -0.05289195105433464, -0.08116935193538666, 0.018974654376506805, -0.09768504649400711, 0.016831910237669945]]]], "bias": [-0.0006092987023293972, 0.0001276376424357295, 0.0007469228585250676, 0.0007859800825826824, 0.0020475955680012703, -0.0004241089627612382, -0.004097919911146164, -0.0006874895188957453, 0.001080753980204463, 0.0015224955277517438, -0.0017844868125393987, 0.0004092893796041608, 4.918412014376372e-05, 0.0006601051427423954, 0.0014692835975438356, -0.00032385007943958044]}, "batch_normalization_1": {"kernel": [0.9986295700073242, 1.0002121925354004, 0.9978333711624146, 1.0009533166885376, 0.9982505440711975, 1.0002468824386597, 1.0039927959442139, 1.002239465713501, 0.9997948408126831, 0.997594952583313, 0.9996907711029053, 1.003066897392273, 1.0011616945266724, 0.9994800686836243, 0.998521625995636, 0.9984897971153259], "bias": [-0.0028855951968580484, -0.0021624367218464613, -0.0017309036338701844, 0.0011541072744876146, -0.0001736676349537447, -0.0013791279634460807, 0.001031601568683982, 0.001516550313681364, -0.0022428124211728573, -0.0032503504771739244, -0.0020543558057397604, 0.0010046999668702483, -0.002073924522846937, 0.0010388906812295318, -0.001727945520542562, -0.0015522860921919346]}, "conv2d_2": {"kernel": [[[[0.04987407475709915, -0.018487580120563507, 0.025475867092609406, -0.06992669403553009, -0.053857557475566864, 0.11360595375299454, 0.09734036028385162, 0.050904806703329086, -0.07476463168859482, 0.022347725927829742, 0.08213628828525543, -0.11461598426103592, 0.10640892386436462, 0.026212383061647415, 0.01774933561682701, -0.013783695176243782, 0.10498276352882385, 0.012051424942910671, -0.0755598321557045, -0.08681998401880264, -0.10255201905965805, -0.07922662794589996, -0.003953337669372559, -0.10150796920061111, -0.06304796785116196, -0.08080092072486877, -0.012666488066315651, 0.05572962015867233, -0.09702149033546448, 0.10563002526760101, -0.09901303797960281, 0.08299575001001358], [-0.06338035315275192, -0.007643073797225952, -0.04891536384820938, -0.053066518157720566, 0.052279286086559296, -0.0025185078848153353, -0.08877996355295181, 0.07715848088264465, 0.007327286526560783, -0.104500412940979, -0.11199671775102615, 0.11112738400697708, 0.03847094997763634, -0.06585077941417694, -0.013073497451841831, 0.10112332552671432, -0.02887929603457451, 0.10390506684780121, 0.002345634624361992, -0.11788971722126007, -0.020683985203504562, -0.10689319670200348, 0.04334491491317749, 0.0730254203081131, -0.0704178735613823, 0.11026217043399811, -0.08863931894302368, 0.04383623227477074, -0.11551263928413391, 0.05233268812298775, -0.02404376119375229, -0.011109360493719578], [-0.1027899757027626, -0.09958105534315109, -0.054667700082063675, -0.09187431633472443, 0.008465818129479885, -0.0005729676922783256, -0.03366411104798317, 0.10159474611282349, -0.030129607766866684, 0.09697463363409042, 0.032536234706640244, -0.08210209012031555, 0.07910331338644028, -0.008132531307637691, -0.034858159720897675, 0.0013196301879361272, -0.004177657887339592, 0.04539427533745766, -0.012637493200600147, -0.05821051076054573, -0.09743999689817429, 0.11131102591753006, 0.05585578829050064, 0.031833358108997345, 0.08469637483358383, 0.01910257339477539, -0.0869273990392685, -0.06582505255937576, 0.032726675271987915, -0.03889825940132141, -0.012645043432712555, 0.050833169370889664], [-0.10471241921186447, 0.035451680421829224, -0.01086493395268917, 0.11593713611364365, -0.07004833221435547, -0.021208450198173523, 0.11146807670593262, 0.10961904376745224, 0.09375476092100143, -0.0015052978415042162, -0.0902651846408844, 0.050724904984235764, -0.011384776793420315, -0.05592182278633118, 0.056466229259967804, -0.07277549803256989, 0.07951347529888153, -0.09017679840326309, 0.06801839917898178, -0.03748788684606552, 0.07662342488765717, -0.0029423420783132315, 0.06699895113706589, 0.0864761546254158, -0.10856270045042038, 0.042138051241636276, 0.11782148480415344, 0.1041698306798935, 0.029918722808361053, 0.010624401271343231, 0.07257568091154099, 0.03716008737683296], [-0.08345262706279755, 0.06504905968904495, -0.07487908005714417, 0.06367307901382446, -0.06207091733813286, -0.1012883111834526, 0.059951938688755035, 0.014406291767954826, 0.012054887600243092, -0.012504358775913715, 0.08779793232679367, -0.10072362422943115, 0.09877727180719376, -0.08884492516517639, -0.11611493676900864, -0.03943823277950287, -0.030471406877040863, 0.0731920450925827, 0.05841291323304176, -0.07952003926038742, 0.013485725037753582, 0.10729290544986725, -0.04069242626428604, -0.04648115858435631, 0.1183052584528923, -0.09031881392002106, -0.11630018800497055, -0.0504525750875473, 0.07445723563432693, 0.011172769591212273, -0.06587094813585281, -0.10520657151937485], [-0.08605629950761795, 0.030332492664456367, -0.04039328545331955, 0.017126698046922684, -0.11409831047058105, 0.09142647683620453, -0.11483553051948547, 0.08697528392076492, -0.032288555055856705, -0.020124053582549095, -0.008146736770868301, -0.020592153072357178, 0.013054232113063335, -0.06572292745113373, -0.08452515304088593, 0.06544626504182816, 0.04454874247312546, 0.0019624317064881325, -0.07485199719667435, -0.053848665207624435, -0.08910821378231049, 0.033664047718048096, 0.04899992421269417, 0.11790654808282852, 0.00784387718886137, 0.04620629921555519, -0.0020971400663256645, 0.10137797147035599, 0.09919682145118713, -0.01650315150618553, 0.028272682800889015, -0.0988108292222023], [0.10646586865186691, 0.10241542756557465, -0.03391103073954582, -0.05451667308807373, -0.002791965613141656, -0.10366805642843246, 0.055546242743730545, -0.10768406838178635, 0.03656245395541191, -0.025609035044908524, 0.07608766853809357, 0.07704299688339233, -0.07741345465183258, 0.011055308394134045, 0.11687581986188889, -0.08775488287210464, 0.004539570305496454, 0.019414842128753662, -0.05024297907948494, 0.06756293773651123, -0.09883960336446762, 0.09169255942106247, -0.0364794060587883, -0.05919056013226509, -0.04444987699389458, -0.03799144923686981, -0.09125281125307083, 0.09400877356529236, -0.1085858941078186, -0.009550361894071102, -0.03187818080186844, -0.11683759838342667], [-0.07775741815567017, -0.01648009568452835, -0.11017218977212906, 0.007980897091329098, -0.0863034650683403, 0.04581531509757042, -0.11023004353046417, -0.013280450366437435, 0.03235066309571266, 0.03806610032916069, 0.045064833015203476, -0.1078261137008667, -0.09836133569478989, 0.10831310600042343, 0.04443029686808586, 0.07507260888814926, -0.0835040733218193, -0.025828136131167412, -0.09193576127290726, -0.03530339524149895, -0.04784722626209259, -0.07235502451658249, 0.026428332552313805, 0.040850985795259476, 0.0874713659286499, 0.028307633474469185, 0.009707091376185417, 0.01798146963119507, 0.04940129071474075, 0.09612242877483368, 0.06159244477748871, 0.05579304322600365], [0.04358663409948349, -0.06808009743690491, -0.03080938011407852, 0.032466936856508255, 0.020168757066130638, 0.02192082814872265, -0.10006149858236313, 0.0943416953086853, -0.07562262564897537, -0.09132014960050583, -0.09315496683120728, -0.03229253739118576, -0.046949706971645355, -0.025401316583156586, 0.004431296139955521, -0.044178467243909836, -0.044975586235523224, 0.020945698022842407, 0.07817243784666061, -0.025244584307074547, 0.10129270702600479, -0.023428447544574738, -0.09242768585681915, 0.09961872547864914, 0.04678444191813469, 0.029336877167224884, 0.012137480080127716, 0.02369694598019123, -0.05221106484532356, 0.05689644068479538, 0.05894199013710022, 0.09497909992933273], [0.09800092875957489, -0.11582378298044205, 0.045615795999765396, -0.03483755141496658, 0.025046737864613533, 0.064898781478405, -0.04829667508602142, 0.011285621672868729, 0.03325456753373146, -0.1064118966460228, 0.11479008197784424, -0.04618684947490692, -0.08437035232782364, 0.014410869218409061, 0.026308244094252586, 0.09496120363473892, -0.06580889970064163, -0.0695057213306427, 0.05632426217198372, -0.07402634620666504, -0.014542199671268463, 0.10592781752347946, -0.016341835260391235, -0.022275006398558617, 0.094429150223732, -0.008843660354614258, -0.09730894863605499, -0.016084179282188416, 0.012358291074633598, -0.048193156719207764, -0.013628840446472168, 0.1064448431134224], [0.08666186034679413, 0.09984887391328812, -0.0911683514714241, -0.07621876895427704, -0.03980806842446327, 0.05946538969874382, -0.007811011280864477, -0.014307334087789059, -0.06844384223222733, -0.05444848909974098, -0.0718514621257782, 0.005612589418888092, -0.07484938204288483, -0.10526609420776367, -0.10898932814598083, 0.119221992790699, -0.033750031143426895, 0.06363799422979355, -0.07655812054872513, -0.004574336111545563, 0.0988055095076561, -0.10158675909042358, 0.0709526464343071, -0.0991591364145279, -0.08784160763025284, 0.031071679666638374, -0.03944681957364082, 0.021442405879497528, 0.027439862489700317, 0.07531845569610596, -0.07719553261995316, 0.07561009377241135], [0.0018430890049785376, -0.03252527117729187, -0.01795496977865696, 0.0564359687268734, 0.0021731513552367687, 0.007400340400636196, -0.033978432416915894, -0.10247311741113663, -0.11137604713439941, -0.0854712575674057, -0.1052999421954155, 0.004523912910372019, -0.0453043058514595, -0.0964549109339714, 0.10607991367578506, -0.04363089054822922, 0.04495495930314064, 0.09428652375936508, -0.07839468866586685, 0.0792279914021492, -0.04199615865945816, 0.05071089789271355, -0.005631695501506329, 0.04793844744563103, 0.05162665247917175, 0.08688625693321228, 0.11043079197406769, -0.06428910046815872, 0.00877567008137703, -0.03143058717250824, 0.06837977468967438, 0.06919609755277634], [0.03147083893418312, 0.022757012397050858, -0.05749125778675079, -0.005235343240201473, -0.016211340203881264, 0.05647239461541176, -0.01024189405143261, 0.051058124750852585, -0.08301671594381332, -0.04563412815332413, 0.10377439111471176, 0.07844916731119156, 0.05613170936703682, 0.08182858675718307, -0.0011334468144923449, 0.02340204082429409, 0.11004897952079773, -0.013150527141988277, -0.06604976952075958, -0.11720746755599976, 0.00048874004278332, 0.004068644717335701, -0.10398750752210617, 0.11915423721075058, -0.10159575939178467, 0.10825023800134659, -0.09360451996326447, -0.042882040143013, 0.02601996809244156, -0.09853529930114746, -0.00440375879406929, -0.0777534544467926], [-0.01566198281943798, 0.0586138591170311, 0.05395810306072235, -0.02363724634051323, 0.008005098439753056, 0.06895449757575989, 0.10325881838798523, -0.057272352278232574, 0.10514426231384277, 0.08745968341827393, -0.016859054565429688, -0.00715644983574748, 0.07383763045072556, 0.07512616366147995, -0.03803018480539322, 0.045638419687747955, 0.06386629492044449, 0.057609379291534424, 0.10931944102048874, 0.022976022213697433, 0.015461670234799385, 0.09939660876989365, -0.036393966525793076, 0.03746483847498894, 0.06889493763446808, 0.011317734606564045, -0.08415903896093369, 0.10049091279506683, 0.02924356423318386, 0.01214782427996397, -0.08331233263015747, -0.05433353781700134], [-0.08192217350006104, 0.003380756126716733, 0.022130591794848442, 0.022577213123440742, 0.03953792527318001, 0.03311987221240997, 0.07952743768692017, 0.05226607993245125, 0.019276291131973267, 0.10161446779966354, -0.055110011249780655, 0.010126368142664433, -0.04437785968184471, -0.050297655165195465, -0.10935533791780472, 0.010005632415413857, 0.07034605741500854, -0.06495127081871033, 0.017607830464839935, -0.0853586494922638, 0.0970265194773674, -0.07684504240751266, -0.03214014694094658, 0.07116788625717163, 0.02538612112402916, -0.08409810811281204, 0.06359677016735077, -0.06331987679004669, 0.07143645733594894, 0.04986497014760971, 0.01590905524790287, 0.014350480400025845], [0.08093735575675964, -0.07083892822265625, 0.0581635944545269, -0.04250543564558029, 0.08117860555648804, -0.11274797469377518, 0.04971705749630928, -0.031918808817863464, 0.015705665573477745, 0.012306294403970242, -0.0973358079791069, 0.01958833448588848, -0.08839933574199677, 0.1056109145283699, 0.038283172994852066, -0.07748390734195709, 0.009500054642558098, 0.07825006544589996, 0.06407299637794495, -0.06186412647366524, 0.07673940807580948, -0.08455219119787216, -0.06021370738744736, 0.059287577867507935, -0.11460607498884201, -0.06005346402525902, 0.014969779178500175, -0.07495271414518356, 0.06965785473585129, 0.11587965488433838, 0.07232732325792313, -0.05213189497590065]], [[0.023963145911693573, -0.04908096045255661, -0.03420707583427429, 0.05523914471268654, -0.11617037653923035, -0.1059492900967598, 0.008338620886206627, 0.1156851127743721, 0.11360286176204681, 0.11176486313343048, -0.047476284205913544, -0.05306922644376755, -0.08415450900793076, 0.05418527126312256, -0.023016130551695824, -0.04609294980764389, -0.026185084134340286, -0.11148029565811157, -0.024360978975892067, 0.06670376658439636, -0.06698840111494064, -0.04456017166376114, -0.08704917877912521, 0.018697885796427727, -0.10524450987577438, -0.06117796152830124, 0.05350213125348091, 0.024990491569042206, 0.02194979600608349, -0.06787863373756409, -0.10402049124240875, 0.013546470552682877], [0.0704781711101532, 0.028382709249854088, 0.039894018322229385, 0.001478988560847938, -0.001179989892989397, 0.08615037053823471, 0.06703867763280869, 0.0671524927020073, -0.05633030831813812, -0.045980602502822876, 0.06654295325279236, -0.04796042665839195, -0.04565146937966347, 0.005226850975304842, -0.08564821630716324, 0.11454592645168304, -0.028078593313694, -0.03272157162427902, 0.08190327882766724, 0.08261404186487198, -0.0054276855662465096, -0.06296927481889725, -0.11559612303972244, 0.11259105801582336, 0.11005730926990509, 0.01113123819231987, 0.08380535244941711, 0.11064862459897995, 0.07745043933391571, -0.056752994656562805, 0.024051610380411148, -0.011676313355565071], [0.048702649772167206, -0.027277490124106407, 0.019302306696772575, 0.0465661995112896, -0.06367143988609314, 0.06331292539834976, -0.1118798777461052, 0.03373846039175987, -0.11174488067626953, 0.05933946743607521, 0.02935226447880268, -0.04517437890172005, 0.08382464945316315, 0.054555922746658325, 0.020564930513501167, -0.033033907413482666, -0.06779178977012634, -0.04096417874097824, 0.02770368568599224, -0.06873074918985367, -0.008908855728805065, 0.07791148126125336, 0.08230891078710556, -0.0646686926484108, 0.08716823905706406, -0.08089648187160492, -0.07782994210720062, 0.015806855633854866, 0.082448311150074, 0.05496501550078392, 0.08350870013237, 0.0589674711227417], [-0.02873496152460575, -0.044089604169130325, -0.054482344537973404, -0.016719860956072807, 0.09184997528791428, 0.08094535768032074, -0.0005129874916747212, -0.032921791076660156, -0.09722723066806793, 0.01626983843743801, 0.003751097247004509, 0.07573182135820389, 0.0625237300992012, -0.006313923746347427, -0.037729643285274506, 0.0029774673748761415, 0.02904091402888298, 0.11138495057821274, -0.06640169024467468, -0.09607402980327606, 0.0085056247189641, 0.08494041860103607, -0.07298122346401215, 0.07650092989206314, -0.11150380969047546, 0.04608079046010971, 0.07865458726882935, 0.07131725549697876, -0.11205608397722244, -0.05320446938276291, -0.062404803931713104, 0.05454729497432709], [-0.08581117540597916, -0.08031611889600754, 0.08863534033298492, 0.09703316539525986, -0.07454875111579895, 0.00578443193808198, -0.06917855143547058, 0.06825114786624908, -0.07326998561620712, 0.09026550501585007, -0.11173934489488602, -0.023837663233280182, 0.013117743656039238, -0.11240449547767639, -0.02909531444311142, 0.01245764922350645, 0.044856224209070206, 0.09734522551298141, 0.026887081563472748, 0.006377199664711952, -0.010604635812342167, 0.08598148822784424, 0.09157653898000717, 0.1104033961892128, 0.032704271376132965, -0.07771594822406769, 0.06312960386276245, 0.09628420323133469, 0.11008481681346893, 0.03380988910794258, -0.1098889410495758, -0.008808855898678303], [0.076774962246418, 0.10827960073947906, -0.06286942958831787, 0.04981424659490585, 0.05942127853631973, -0.02307754196226597, 0.038310158997774124, -0.022119790315628052, -0.03291860222816467, 0.045719608664512634, -0.03280337527394295, 0.11196445673704147, 0.06394053250551224, 0.02263103984296322, 0.07654984295368195, -0.10875283926725388, -0.07363802194595337, -0.08948471397161484, 0.1169462651014328, -0.07390420138835907, 0.04513166844844818, -0.10605645924806595, -0.0179731622338295, 0.018782636150717735, -0.029477184638381004, 0.028210807591676712, -0.07755709439516068, -0.0059225247241556644, 0.03666030615568161, -0.036662597209215164, -0.10126107186079025, -0.05648777633905411], [0.10162296891212463, 0.10840247571468353, -0.11238152533769608, -0.046939946711063385, -0.0064051453955471516, 0.07089827954769135, 0.027598915621638298, -0.06037018448114395, -0.04422307014465332, -0.007045749109238386, 0.08766776323318481, 0.03580489382147789, -0.030433138832449913, 0.08017890155315399, 0.02685849368572235, -0.027241328731179237, -0.10312464833259583, 0.052776746451854706, -0.04922036826610565, 0.07486508786678314, 0.027228573337197304, 0.07930885255336761, 0.020541025325655937, -0.11043208092451096, 0.09845542907714844, -0.04200788959860802, -0.003182146465405822, -0.07382695376873016, 0.06607958674430847, 0.008196153677999973, -0.036697883158922195, 0.02859865501523018], [-0.06992611289024353, -0.007393089588731527, -0.005108657758682966, -0.07587993890047073, -0.09844871610403061, 0.060483887791633606, 0.060178954154253006, -0.09140074998140335, -0.029737401753664017, -0.060830362141132355, -0.0016821204917505383, -0.008699199184775352, 0.060538362711668015, -0.06926649808883667, -0.08835064619779587, 0.05329509824514389, 0.061055999249219894, 0.07496757805347443, 0.10433346778154373, 0.04300375282764435, -0.11445107311010361, -0.11198806762695312, 0.050095558166503906, -0.10716753453016281, 0.10681575536727905, -0.0454997643828392, 0.07297533750534058, -0.09524334222078323, 0.04691525921225548, -0.014783795922994614, -0.08663931488990784, -0.08190671354532242], [-0.009646229445934296, 0.03297821432352066, 0.07496855407953262, -0.050801582634449005, -0.02909032255411148, -0.08015483617782593, 0.09263008087873459, 0.06496310234069824, 0.07488738000392914, -0.036445070058107376, 0.0318872444331646, -0.08242236822843552, -0.04068408161401749, -0.035741813480854034, -0.06441174447536469, 0.051083799451589584, -0.007249629124999046, 0.027928223833441734, 0.07718689739704132, 0.0847509428858757, 0.06376928836107254, -0.04697509855031967, -0.04056119918823242, -0.035770487040281296, -0.0701151192188263, 0.00971614196896553, -0.05139925330877304, -0.09317450225353241, -0.011761379428207874, -0.11093156784772873, -0.09568411856889725, -0.01329530868679285], [-0.013540521264076233, -0.04486127197742462, -0.0790947899222374, 0.10342084616422653, 0.03517001494765282, 0.08590330928564072, 0.05292646959424019, 0.10718075186014175, 0.057158585637807846, 0.08987142145633698, 0.09965736418962479, 0.1049659475684166, 0.10225708782672882, -0.008586653508245945, -0.04733635485172272, -0.10826034843921661, 0.06001996994018555, -0.08289274573326111, 0.10697831213474274, -0.0932573527097702, -0.05999596044421196, -0.044756948947906494, 0.004923854488879442, -0.11591896414756775, 0.11401266604661942, 0.07422550022602081, 0.047528572380542755, 0.030803969129920006, -0.029101533815264702, -0.009434863924980164, 0.06722856312990189, 0.04964025318622589], [-0.023137545213103294, -0.058426741510629654, 0.026316499337553978, 0.04315674677491188, 0.08509397506713867, -0.0004247335600666702, -0.11330120265483856, 0.0071041164919734, 0.04459257051348686, 0.10252473503351212, -0.11714385449886322, 0.03724037855863571, -0.11044778674840927, -0.09481216967105865, -0.0811082199215889, 0.06468906998634338, 0.016234727576375008, 0.09023606777191162, -0.10432352870702744, -0.00467072706669569, -0.07396899908781052, -0.010289587080478668, 0.005688942037522793, 0.005461255554109812, -0.0230457354336977, -0.05135885253548622, -0.11457497626543045, 0.020950010046362877, -0.016726389527320862, 0.07546354085206985, -0.0026926740538328886, -0.012740317732095718], [0.019732361659407616, -0.0990026518702507, 0.06084907799959183, 0.024583352729678154, 0.08944602310657501, -0.0077355485409498215, 0.05412307381629944, 0.015950052067637444, 0.04850238934159279, -0.09021186828613281, -0.06680317968130112, 0.10695704072713852, 0.05687234178185463, 0.020513828843832016, -0.09854619950056076, 0.055885251611471176, -0.01067977026104927, -0.0018318606307730079, -0.08476735651493073, 0.050018057227134705, 0.07209368795156479, -0.07027582079172134, 0.054924752563238144, -0.051041871309280396, 0.03725359961390495, 0.05282573029398918, -0.051087550818920135, -0.0024368735030293465, 0.06503412872552872, 0.031857930123806, -0.1135740652680397, 0.05930907279253006], [-0.05714463070034981, 0.05519374459981918, -0.08087791502475739, 0.001277318922802806, -0.059952232986688614, 0.025710448622703552, 0.07262085378170013, 0.027422821149230003, -0.11140299588441849, 0.07367943227291107, -0.07706215977668762, 0.005023815203458071, 0.01902150921523571, -0.10319452732801437, 0.10304760187864304, -0.10104094445705414, 0.024233486503362656, 0.06902602314949036, -0.012151505798101425, -0.007393099367618561, 0.049965791404247284, 0.042024433612823486, -0.10644637793302536, 0.11460110545158386, 0.03813077136874199, -0.07214964926242828, -0.031108340248465538, 0.06995953619480133, 0.04333719611167908, 0.06963558495044708, 0.01410888321697712, -0.08810918033123016], [-0.0542069710791111, 0.09231510013341904, 0.10078033804893494, 0.031045308336615562, 0.046280231326818466, -0.10985389351844788, 0.10182096809148788, 0.06972008943557739, 0.04160277545452118, -0.032445117831230164, 0.10203908383846283, 0.04821298271417618, 0.01770581305027008, -0.11244409531354904, 0.06819825619459152, 0.09711849689483643, 0.10890313237905502, -0.07938991487026215, 0.08878117054700851, 0.11311560124158859, 0.042209602892398834, -0.11266417801380157, -0.10817648470401764, -0.10969773679971695, -0.08008740097284317, -0.004190107807517052, -0.01917354017496109, -0.0765974223613739, 0.08366649597883224, -0.0055990563705563545, 0.06709566712379456, 0.00190575304441154], [0.016609888523817062, -0.023475559428334236, -0.09079258143901825, -0.10346414893865585, 0.006026200484484434, 0.034045759588479996, -0.10912434756755829, 0.027488430961966515, 0.0894070565700531, 0.035779617726802826, 0.03901997208595276, -0.04941461607813835, 0.04936937242746353, 0.10865817964076996, 0.06480280309915543, -0.0960167646408081, -0.10830777138471603, 0.09856205433607101, -0.028707267716526985, 0.019520819187164307, 0.10314604640007019, -0.03222865238785744, -0.09885580092668533, -0.07890603691339493, 0.02465786412358284, -0.03064674511551857, -0.10166352242231369, 0.08266875147819519, -0.003724779700860381, -0.0817180722951889, 0.018053274601697922, -0.05392051860690117], [0.06308531761169434, 0.10197634994983673, -0.03336022421717644, 0.054204173386096954, 0.09053879231214523, -0.019106077030301094, -0.05149513855576515, 0.0835372656583786, -0.0887402892112732, 0.04244566708803177, -0.1014401838183403, -0.0961577519774437, 0.10790781676769257, 0.02811707742512226, 0.03937342390418053, -0.03462440147995949, -0.02925507165491581, 0.004143446683883667, -0.027880927547812462, 0.10985694080591202, 0.09213311970233917, -0.09400872141122818, -0.1161944568157196, -0.08604847639799118, 0.03757090121507645, 0.0676003023982048, -0.028121832758188248, -0.08600837737321854, -0.02073732204735279, -0.053141649812459946, 0.04248526692390442, 0.0843578353524208]], [[0.03102332167327404, -0.06566260755062103, -0.008692864328622818, -0.10722809284925461, -0.008944558911025524, 0.04750247672200203, -0.06371470540761948, 0.08632617443799973, 0.04738140106201172, 0.09295610338449478, -0.01633126102387905, 0.07949788868427277, -0.04898122698068619, 0.034660324454307556, -0.0386183075606823, -0.10138527303934097, -0.10743765532970428, 0.11563922464847565, 0.06738339364528656, -0.0242657158523798, -0.07335568219423294, 0.002842338290065527, 0.07263245433568954, 0.06226559728384018, -0.11018411815166473, 0.0031779163982719183, 0.043799351900815964, -0.04233035445213318, -0.11368072777986526, -0.08643282204866409, -0.04479699581861496, -0.04927339777350426], [-0.04658283293247223, 0.0425383634865284, -0.006328457500785589, 0.08160088956356049, -0.027452003210783005, 0.012848365120589733, 0.11756452172994614, 0.10978396236896515, -0.12035231292247772, 0.061558160930871964, -0.054276563227176666, 0.07420483976602554, -0.10220661759376526, -0.04635344818234444, 0.11237623542547226, 0.06307286769151688, 0.05003450810909271, -0.08669380098581314, 0.06508662551641464, 0.06976167857646942, -0.09967877715826035, 0.06391675770282745, 0.03753149136900902, 0.05929441750049591, -0.11513805389404297, 0.023036642000079155, -0.018462439998984337, 0.11550481617450714, -0.09303642809391022, -0.11184713989496231, 0.021709758788347244, 0.06459120661020279], [-0.0076858107931911945, -0.10631916671991348, -0.011990873143076897, 0.0881892740726471, -0.0072591048665344715, -0.04804527387022972, -0.017920825630426407, -0.03676547110080719, 0.004652606323361397, 0.012098005041480064, -0.11359074711799622, -0.034154124557971954, 0.06568607687950134, -0.010530851781368256, -0.08052673935890198, -0.10260650515556335, -0.09723789244890213, 0.004691786598414183, -0.02304995432496071, -0.10470464080572128, 0.07127292454242706, 0.0599125400185585, 0.01707332208752632, -0.006886884104460478, -0.11883778870105743, -0.04442305862903595, 0.010105262510478497, 0.10393030196428299, 0.029794784262776375, -0.04834168031811714, -0.05024128779768944, -0.026654869318008423], [0.04459098353981972, -0.05690673366189003, -0.01742481254041195, -0.0664403885602951, -0.029589850455522537, 0.05756601318717003, -0.09454981982707977, 0.06297872960567474, -0.08337074518203735, -0.07707404345273972, -0.029061876237392426, 0.06907970458269119, -0.07886461168527603, 0.05327317863702774, 0.047015778720378876, -0.09535416215658188, 0.0658520758152008, 0.02004808746278286, -0.03678814694285393, 0.09229613840579987, 0.08474376052618027, -0.06258949637413025, 0.09090911597013474, -0.07027780264616013, 0.07283934205770493, -0.0015171478735283017, -0.05760140344500542, -0.042838145047426224, -0.1139492467045784, 0.10666397958993912, 0.0621785968542099, 0.05587020516395569], [-0.03212173283100128, -0.013627844862639904, -0.00517862057313323, -0.08254308998584747, -0.050358787178993225, -0.046942126005887985, -0.08280149102210999, -0.10092909634113312, 0.04597157984972, 0.10884765535593033, 0.11073485016822815, 0.11194933950901031, 0.10703925043344498, 0.03861633688211441, 0.03305601328611374, -0.018459031358361244, -0.05180740728974342, 0.0011374673340469599, 0.07950982451438904, 0.0850527435541153, 0.017653940245509148, 0.07980359345674515, -0.06799048185348511, -0.10166259109973907, -0.11121377348899841, 0.00043204714893363416, -0.07035020738840103, 0.020768195390701294, 0.10397784411907196, 0.046057142317295074, 0.07838033884763718, -0.10349395126104355], [-0.06296593695878983, -0.03856716677546501, -0.03581367805600166, -0.018379908055067062, 0.08196911215782166, -0.06263381242752075, -0.04443571716547012, 0.03408946096897125, 0.05748305469751358, -0.11439822614192963, -0.004750392399728298, -0.09793545305728912, -0.03316407650709152, 0.10326557606458664, -0.05846085771918297, -0.048286017030477524, 0.1166844367980957, 0.07819733768701553, 0.061380717903375626, 0.09175406396389008, -0.09775451570749283, 0.11313752830028534, -0.03637436777353287, 0.07444241642951965, 0.03818167746067047, 0.055415160953998566, -0.02258741855621338, -0.033012278378009796, 0.029175471514463425, 0.0396740548312664, 0.10846167802810669, 0.03232167288661003], [-0.0013735733227804303, 0.00217377464286983, -0.03196883201599121, 0.1033211499452591, 0.020833980292081833, -0.03729793056845665, -0.021783672273159027, 0.017698539420962334, 0.10796114057302475, 0.029265979304909706, -0.03850677236914635, 0.060199424624443054, -0.07793177664279938, -0.011601755395531654, -0.038279708474874496, 0.06769267469644547, -0.07144041359424591, -0.06439367681741714, -0.061831034719944, -0.04869651421904564, 0.10450819134712219, -0.072166308760643, -0.03396235406398773, -0.02971787005662918, -0.0067405602894723415, -0.0784207358956337, 0.026444995775818825, 0.036285120993852615, 0.024695439264178276, 0.06368231028318405, 0.04377483204007149, 0.11116724461317062], [0.013938264921307564, -0.08961565047502518, -0.05330299213528633, -0.053853053599596024, 0.03984722122550011, -0.00517871743068099, 0.09759034216403961, 0.028045671060681343, 0.11646036058664322, 0.06590206921100616, 0.03415738418698311, -0.08502940088510513, 0.005966991651803255, -0.07449962943792343, -0.049265678972005844, -0.01915854401886463, -0.0008296063169836998, -0.08888380974531174, -0.0749669298529625, -0.08853204548358917, -0.03663280978798866, 0.059965573251247406, 0.007874052971601486, -0.03163480758666992, 0.0852050930261612, -0.0657595619559288, -0.06870629638433456, -0.012094316072762012, 0.0603359080851078, -0.03470177203416824, 0.1064172312617302, -0.09009182453155518], [0.08658373355865479, 0.031791798770427704, 0.046365391463041306, 0.10203741490840912, 0.04926111921668053, 0.04411310330033302, -0.06639988720417023, 0.06008147820830345, 0.09982704371213913, -0.0373615138232708, -0.0828520730137825, -0.09137631952762604, -0.10139450430870056, 0.06311967223882675, 0.004301103763282299, 0.0758666917681694, -0.040222931653261185, -0.013043181970715523, -0.015094934962689877, -0.020592447370290756, 0.09516938775777817, 0.04138357937335968, -0.014674576930701733, -0.03137242794036865, -0.06225879490375519, 0.021239113062620163, -0.009220697917044163, 0.10741659998893738, 0.05677447095513344, 0.09495548903942108, -0.01619694195687771, 0.035231199115514755], [-0.07541027665138245, -0.04978182539343834, 0.06238136813044548, 0.012097934260964394, -0.028457755222916603, -0.015262436121702194, 0.030115827918052673, -0.115475594997406, -0.0520637109875679, -0.002385189989581704, 0.0905621349811554, 0.02269616909325123, -0.09457407146692276, -0.04804854840040207, 0.09190675616264343, -0.07699783891439438, -0.10211094468832016, 0.030910497531294823, 0.11752715706825256, 0.10388437658548355, -0.08929931372404099, -0.03754701837897301, 0.1127617210149765, 0.04409182816743851, -0.03686008229851723, -0.006625611335039139, 0.11216530948877335, -0.10471396148204803, 0.11190130561590195, -0.07066705822944641, -0.021141566336154938, 0.0035200940910726786], [0.08207828551530838, -0.035953402519226074, 0.005479208659380674, 0.004041450563818216, 0.05945466458797455, -0.10082652419805527, -0.08311810344457626, 0.11258986592292786, -0.08886883407831192, -0.035441603511571884, 0.10484189540147781, 0.019179370254278183, 0.012082349509000778, -0.07781925052404404, -0.04345152527093887, 0.1127975806593895, 0.004613468423485756, -0.06760946661233902, 0.01896381750702858, -0.04693133383989334, -0.10355633497238159, 0.01800851710140705, 0.040273115038871765, 0.08852672576904297, 0.028842072933912277, 0.10809637606143951, -0.09025958925485611, -0.09200213849544525, 0.006953063420951366, -0.018087029457092285, 0.10562319308519363, 0.1125779077410698], [0.012906382791697979, 0.07193268835544586, 0.05695434659719467, -0.006386606954038143, 0.03206656128168106, -0.04410027712583542, 0.019010724499821663, -0.08543515205383301, -0.06192203238606453, 0.10372313112020493, -0.028447937220335007, -0.10390570014715195, 0.0567534975707531, -0.002651902614161372, -0.09268199652433395, 0.10501435399055481, 0.1154443770647049, -0.05409497395157814, -0.09457244724035263, -0.017687879502773285, -0.10625774413347244, -0.1168946921825409, -0.0742451399564743, -0.05842899903655052, 0.05622214451432228, 0.03529069200158119, 0.03109893575310707, 0.07677485048770905, 0.07555551826953888, -0.03456440195441246, -0.10203948616981506, -0.04535653442144394], [-0.04103536158800125, -0.02345268614590168, 0.036574166268110275, -0.09567967057228088, 0.031603626906871796, -0.06238396093249321, 0.07100304961204529, -0.11524741351604462, -0.03248506784439087, -0.10407930612564087, 0.11007945239543915, -0.041610073298215866, 0.07980087399482727, -0.09048565477132797, -0.11772135645151138, 0.10450423508882523, -0.07663458585739136, 0.07962452620267868, 0.08048299700021744, -0.07976724952459335, 0.012042629532516003, -0.0027902654837816954, -0.04890119656920433, 0.05174603685736656, 0.11576003581285477, -0.09399589151144028, -0.04671845957636833, 0.07232798635959625, 0.07917238771915436, 0.045635972172021866, 0.052516497671604156, -0.01522473432123661], [0.03361181914806366, -0.04338494688272476, 0.08818934112787247, 0.011331601068377495, 0.10117510706186295, 0.11347046494483948, 0.07065233588218689, -0.08198197185993195, -0.08693715929985046, 0.0011488670716062188, 0.0023589632473886013, 0.0895439088344574, 0.12006662786006927, -0.04934771731495857, -0.09081893414258957, -0.07464008778333664, 0.0832611545920372, -0.003737142076715827, 0.025428369641304016, 0.0903305858373642, 0.09855197370052338, 0.11030367761850357, -0.012106132693588734, 0.018788862973451614, 0.0361359603703022, -0.11986939609050751, 0.07714387774467468, 0.0707678347826004, -0.020444313064217567, 0.11289171129465103, -0.045411042869091034, -0.06256706267595291], [-0.0877101942896843, -0.08665255457162857, -0.10927391052246094, -0.0590921975672245, 0.08912497758865356, -0.010659816674888134, -0.1097564846277237, -0.03617944195866585, -0.02486773580312729, -0.07044842839241028, -0.10741417855024338, -0.04980408772826195, -0.07348257303237915, 0.023909468203783035, -0.005565914791077375, 0.1102457046508789, 0.03049362450838089, 0.06722353398799896, -0.03682335466146469, -0.10514739155769348, 0.03910141438245773, 0.05674698203802109, -0.08439969271421432, -0.03441790118813515, 0.03290456533432007, -0.09726057946681976, -0.06923288851976395, -0.09540059417486191, -0.006826229393482208, -0.03014240600168705, 0.07165125012397766, 0.03212546557188034], [-0.0350462906062603, 0.046672262251377106, -0.0461219884455204, 0.0838969424366951, -0.06801462173461914, 0.015714678913354874, 0.07180576026439667, -0.07136538624763489, -0.08104909956455231, -0.07571301609277725, 0.01836625672876835, 0.045815326273441315, -0.020077021792531013, -0.10879717767238617, 0.04413985460996628, -0.1085345521569252, 0.021521301940083504, 0.07755347341299057, -0.1038132905960083, -0.07352548837661743, 0.08581474423408508, -0.1030491515994072, -0.111711286008358, -0.07055523991584778, -0.02145206369459629, -0.02074502222239971, 0.09057967364788055, -0.07655254751443863, 0.08121677488088608, -0.11257267743349075, 0.11344116926193237, -0.021801060065627098]]], [[[0.039487894624471664, 0.06288891285657883, -0.06970077008008957, 0.06754680722951889, 0.0730551928281784, -0.07564675807952881, -0.05617378652095795, -0.07989993691444397, -0.042039114981889725, -0.040010400116443634, -0.08598743379116058, -0.0930350199341774, 0.06567332148551941, 0.04715021327137947, 0.03992686793208122, -0.07876631617546082, 0.033299509435892105, 0.05857696384191513, 0.10261190682649612, -0.06255585700273514, 0.07066771388053894, 0.0803937166929245, 0.0995509922504425, 0.10221776366233826, 0.07242558151483536, 0.03382456675171852, -0.1007121205329895, -0.05247543007135391, -0.017166005447506905, -0.023495668545365334, 0.00024419327382929623, -0.051715146750211716], [-0.03147895634174347, 0.053838856518268585, 0.04525887593626976, 0.02956743724644184, -0.08223014324903488, -0.025603866204619408, 0.03406064584851265, 0.02674291282892227, -0.011025071144104004, -0.1091705784201622, -0.0834556370973587, -0.03571223095059395, 0.0003180850762873888, 0.08037358522415161, -0.07425927370786667, -0.09411919116973877, -0.08664952963590622, 0.06686175614595413, -0.09786833822727203, -0.1180928647518158, 0.08207786083221436, 0.10304757952690125, 0.1053742989897728, -0.10208035260438919, 0.11428546160459518, -0.05214480683207512, 0.08910521864891052, -0.07355049252510071, 0.0667760968208313, -0.04870062321424484, -0.059164874255657196, 0.061179906129837036], [-0.1096998006105423, -0.0653073638677597, -0.1073155552148819, 0.07711603492498398, 0.11042998731136322, 0.04040138050913811, -0.1025707796216011, 0.04404930770397186, 0.07586951553821564, 0.016457712277770042, -0.03049018606543541, 0.014900202862918377, 0.06663201004266739, 0.10739611089229584, -0.056627899408340454, 0.02115483582019806, 0.11499593406915665, -0.05467754974961281, 0.040820904076099396, -0.019924776628613472, 0.02773429825901985, -0.09835371375083923, -0.01754683256149292, -0.10152283310890198, 0.009733771905303001, 0.03016204759478569, 0.06438841670751572, -0.04525896906852722, 0.05880529060959816, -0.09210824966430664, 0.05784803628921509, 0.0005219741142354906], [-0.021425951272249222, -0.014897097833454609, 0.10755259543657303, 0.08297485113143921, -0.11489886790513992, 0.09824655950069427, 0.03794391080737114, -0.07009084522724152, -0.0357997827231884, 0.07589905709028244, -0.019909262657165527, -0.11634910851716995, 0.06176779046654701, -0.03284700587391853, -0.03364001587033272, -0.07480909675359726, -0.06058836728334427, 0.041226889938116074, 0.0047734505496919155, 0.0421072356402874, 0.001152894925326109, -0.006501700729131699, 0.005685153417289257, 0.023650549352169037, 0.053453147411346436, 0.04434503614902496, -0.06021181493997574, 0.04691404104232788, -0.03593697398900986, -0.030798563733696938, -0.10742121189832687, -0.0456351563334465], [0.02420812100172043, 0.050010692328214645, -0.06725116819143295, -0.047380123287439346, -0.06692122668027878, 0.08823396265506744, -0.011273707263171673, -0.06686466187238693, 0.09159988909959793, -0.01844145357608795, 0.05261721834540367, -0.0417848601937294, 0.0871279165148735, -0.029491141438484192, 0.02892477996647358, 0.0895349532365799, -0.09201154857873917, 0.06049414351582527, -0.10226897150278091, -0.03030887059867382, 0.029075829312205315, 0.02516476996243, -0.06723104417324066, -0.0946536734700203, -0.1062866747379303, -0.10131362825632095, -0.10679714381694794, 0.027985716238617897, 0.1021665558218956, 0.09313351660966873, -0.014525315724313259, -0.01602928154170513], [-0.0264560729265213, 0.032356176525354385, 0.08608327060937881, 0.020634444430470467, 0.12107127159833908, 0.10164474695920944, -0.026959918439388275, -0.029311317950487137, -0.03988716006278992, -0.09120668470859528, -0.03821699321269989, 0.08211131393909454, 0.013351949863135815, 0.05186464264988899, 0.08706340193748474, 0.018849018961191177, -0.07404281198978424, 0.01038116030395031, -0.087530218064785, 0.04683227837085724, 0.03699255362153053, 0.08710434287786484, -0.0067422520369291306, 0.0021233540028333664, 0.10291286557912827, 0.07790044695138931, 0.0905919149518013, -0.08517652004957199, 0.002645447151735425, -0.009299261495471, 0.06566312164068222, -0.06866877526044846], [0.021409615874290466, 0.059417422860860825, 0.03600967675447464, -0.1045597568154335, 0.02241441048681736, -0.02602766454219818, -0.03444063663482666, 0.0482545830309391, -0.05121232569217682, -0.013001096434891224, -0.05913638323545456, -0.08544707298278809, 0.06729492545127869, -0.011318812146782875, -0.03604688122868538, 0.09792404621839523, -0.005249333567917347, 0.1000782698392868, -0.10586488246917725, -0.029324784874916077, 0.09971557557582855, -0.08414974808692932, 0.06163543462753296, -0.09450513869524002, -0.10961907356977463, 0.003361159935593605, -0.0021684085950255394, -0.09795185923576355, -0.06235746666789055, -0.07339189946651459, 0.11941719800233841, 0.004415000788867474], [-0.010877604596316814, 0.03624652326107025, 0.08868143707513809, -0.02014002576470375, -0.07844555377960205, -0.018979864194989204, -0.005897581577301025, 0.09706264734268188, 0.09619810432195663, -0.05185092240571976, 0.021330295130610466, 0.10319575667381287, 0.0034855466801673174, -0.02492062933743, 0.06112897768616676, -0.07936622202396393, -0.030501294881105423, 0.022233685478568077, 0.029160983860492706, -0.10968445986509323, -0.0158194862306118, 0.0429496243596077, 0.05386551097035408, 0.10203665494918823, 0.034427743405103683, 0.044881995767354965, -0.04899207502603531, -0.0496683306992054, 0.12013597786426544, -0.022891608998179436, 0.09221123158931732, 0.06711018830537796], [-0.07587707787752151, 0.0691266804933548, 0.044175464659929276, -0.09906309098005295, 0.03780567646026611, -0.11266633868217468, -0.05024023726582527, -0.07171376049518585, 0.05045079439878464, -0.02049560286104679, -0.013545443303883076, 0.07790215313434601, -0.10718344897031784, 0.018417000770568848, -0.022919688373804092, -0.01029947865754366, -0.0877460166811943, -0.05534830316901207, -0.08085654675960541, -0.08329524099826813, 0.018892381340265274, -0.11394815891981125, -0.05411120504140854, 0.0213994812220335, 0.07616735249757767, -0.08027660846710205, -0.11623116582632065, 0.05089249089360237, 0.012084558606147766, -0.0745033472776413, 0.07456685602664948, -0.018438855186104774], [0.05099083110690117, 0.0072916303761303425, 0.004978497512638569, -0.01716243103146553, 0.10695227235555649, 0.0656086653470993, 0.001407622010447085, -0.09010059386491776, -0.016021784394979477, 0.00446418859064579, 0.0340719111263752, -0.0902303084731102, -0.08749673515558243, -0.11405827105045319, -0.027174778282642365, -0.025754546746611595, 0.0885639563202858, -0.0538872554898262, 0.06953299045562744, -0.09499593079090118, 0.018953824415802956, 0.03258625790476799, -0.05163766071200371, 0.043048836290836334, 0.023834893479943275, -0.055939726531505585, -0.005347158759832382, -0.027671564370393753, 0.06402823328971863, 0.10229554027318954, -0.012428952381014824, 0.05653420090675354], [0.0788055881857872, 0.09689441323280334, -0.048376087099313736, -0.09885790199041367, -0.06902527809143066, -0.025801710784435272, 0.09994476288557053, -0.04924160614609718, -0.06359267234802246, -0.006912251003086567, 0.10850602388381958, 0.061814144253730774, 0.10993669927120209, 0.09132464230060577, 0.06113662198185921, 0.04162044823169708, -0.08817995339632034, 0.07378208637237549, -0.009287171065807343, 0.09255491942167282, -0.0725870430469513, 0.023817794397473335, -0.023350805044174194, -0.018537992611527443, 0.09480714052915573, 0.09621378779411316, 0.007323049008846283, -0.038813553750514984, 0.09943922609090805, 0.018847262486815453, 0.008075934834778309, -0.08722518384456635], [0.0057907868176698685, -0.05312075465917587, 0.10011693835258484, -0.013929089531302452, 0.08473513275384903, -0.07630203664302826, 0.06798173487186432, 0.03662324696779251, -0.030600521713495255, 0.03268977999687195, -0.0034213135950267315, -0.04337738826870918, -0.045323293656110764, -0.09175369143486023, -0.11303332448005676, 0.03767547383904457, 0.017884444445371628, 0.0625511109828949, -0.09466122090816498, 0.044286683201789856, -0.0597466304898262, 0.10705263912677765, 0.08428388088941574, 0.11764387786388397, 0.08868488669395447, -0.07095108926296234, 0.03514109551906586, -0.02803557738661766, 0.07796745002269745, 0.08518524467945099, -0.07032335549592972, 0.07570534199476242], [-0.06130625680088997, -0.05350811034440994, -0.08799989521503448, 0.07148914039134979, 0.020904377102851868, -0.006421337369829416, -0.03285403549671173, 0.09052874147891998, -0.006486786529421806, 0.05729301646351814, 0.10476408898830414, 0.03297387436032295, 0.08266393840312958, -0.10888298600912094, -0.10376761853694916, -0.03679736703634262, 0.012410126626491547, 0.09381929785013199, 0.1056918352842331, 0.014543137513101101, 0.10635609179735184, 0.02331470139324665, -0.09510443359613419, -0.0090239392593503, 0.045072246342897415, -0.06041455641388893, -0.000891448522452265, -0.06891779601573944, -0.04121266305446625, 0.09220806509256363, 0.006181325297802687, -0.0952681228518486], [-0.04278389364480972, 0.0668967068195343, 0.02028229832649231, -0.0049699353985488415, -0.030394382774829865, -0.056393999606370926, 0.09305749833583832, 0.11513478308916092, 0.10424517840147018, 0.09720395505428314, -0.0414217971265316, -0.09105807542800903, 0.006253557745367289, 0.08904369920492172, 0.016429485753178596, 0.10774046927690506, -0.03988758102059364, 0.02142571285367012, 0.045997899025678635, -0.07037805020809174, 0.07036681473255157, -0.04234539344906807, -0.09109216928482056, 0.02997310645878315, 0.0305296890437603, 0.04111890867352486, -0.07060768455266953, 0.037598494440317154, 0.0965937152504921, 0.08863876014947891, 0.0700145736336708, 0.03991667926311493], [0.10216177254915237, -0.05251973867416382, -0.01933905854821205, 0.09627585858106613, -0.009189645759761333, 0.030731571838259697, -0.00025902845663949847, 0.046391554176807404, -0.08410775661468506, -0.0766235888004303, 0.060891855508089066, -0.005368475336581469, 0.008855477906763554, 0.08068832010030746, -0.010798031464219093, 0.1057284027338028, -0.07725004106760025, 0.1124163419008255, -0.058582983911037445, 0.014290571212768555, 0.00991597305983305, 0.0879657194018364, 0.1054571345448494, 0.08761946111917496, 0.07774358242750168, -0.025628356263041496, -0.07383333146572113, -0.006185595411807299, -0.07369434088468552, -0.0795394778251648, -0.1197432428598404, -0.10220073163509369], [0.06044663488864899, -0.10202325135469437, 0.00991950836032629, 0.07699300348758698, -0.035728536546230316, 0.11168025434017181, 0.09837906807661057, 0.0362449511885643, -0.10270565003156662, -0.041762229055166245, 0.033444277942180634, -0.09540877491235733, 0.09795301407575607, -0.05533027648925781, -0.10364524275064468, -0.06699077039957047, 0.054824404418468475, -0.055896028876304626, -0.08538872748613358, -0.06918201595544815, -0.021660583093762398, 0.06618370115756989, -0.08561255782842636, 0.10786378383636475, 0.10796135663986206, 0.05067666620016098, 0.0012206732062622905, 0.009939225390553474, -0.03278522938489914, -0.08667720854282379, -0.08459579944610596, 0.0927354171872139]], [[0.06484496593475342, -0.1135016605257988, -0.044687170535326004, -0.0775073766708374, -0.09949229657649994, -0.012841474264860153, 0.03960851579904556, -0.014129371382296085, -0.06143391132354736, 0.11801492422819138, 0.017257239669561386, 0.06623054295778275, -0.11159314960241318, 0.11492882668972015, 0.048099275678396225, -0.086171455681324, -0.05350473150610924, -0.05228733271360397, -0.11424272507429123, -0.0542323961853981, 0.10754212737083435, 0.07040979713201523, -0.0849182978272438, -0.08425889164209366, -0.05893845483660698, -0.03415166959166527, -0.009585422463715076, -0.015747686848044395, 0.03482624888420105, -0.024697933346033096, -0.09570502489805222, 0.09774918854236603], [0.005449293646961451, 0.02895999699831009, 0.04804636910557747, -0.023674948140978813, -0.0911594107747078, 0.038703031837940216, 0.04268959164619446, 0.06259319186210632, -0.05333217233419418, 0.05641642585396767, -0.05905994400382042, 0.07547424733638763, -0.11060184985399246, -0.08667131513357162, -0.08392072468996048, 0.031022898852825165, -0.08755914121866226, 0.027790654450654984, 0.042984530329704285, -0.10924328863620758, -0.02167036198079586, 0.03762432560324669, -0.02975570224225521, 0.03281356394290924, 0.030388938263058662, -0.030714930966496468, 0.01488812081515789, 0.0169640202075243, 0.0011828908463940024, 0.044931549578905106, 0.09008384495973587, 0.0543874092400074], [-0.11379615217447281, 0.021528590470552444, 0.08949863165616989, 0.09258376061916351, -0.07763650268316269, -0.06869228184223175, -0.019274504855275154, -0.03435206413269043, -0.02313467673957348, -0.11414783447980881, -0.11338646709918976, -0.04368326812982559, -0.027520569041371346, -0.02964385598897934, -0.08920111507177353, 0.028486700728535652, 0.06565416604280472, 0.030932720750570297, -0.002056262455880642, -0.10453938692808151, -0.057284723967313766, 0.10492786020040512, -0.002736104652285576, -0.012375307269394398, -0.022489096969366074, -0.0923396572470665, -0.09649764746427536, -0.01617436297237873, -0.049199435859918594, -0.03381243720650673, -0.01612863503396511, 0.0009899238357320428], [0.09059540927410126, 0.08004654943943024, -0.03232145681977272, 0.015625065192580223, 0.08996962010860443, -0.0311276838183403, -0.07600455731153488, 0.007611515466123819, -0.03933197259902954, 0.07171335071325302, 0.06403171271085739, 0.04911438003182411, 0.056770794093608856, -0.1049298346042633, 0.08099742233753204, 0.040990978479385376, -0.04841838404536247, 0.0021953629329800606, 0.11127113550901413, 0.040957260876894, 0.012579595670104027, -0.059260837733745575, 0.019354388117790222, -0.11187298595905304, -0.07125083357095718, -0.08326202630996704, -0.04389892891049385, -0.02514841966331005, -0.09189806878566742, 0.027121372520923615, -0.11176352202892303, 0.11029001325368881], [-0.06876342743635178, -0.031156253069639206, 0.019116267561912537, 0.07459287345409393, 0.03555374592542648, -0.055913276970386505, 0.008180951699614525, 0.03332739323377609, 0.0695049911737442, -0.0049149878323078156, 0.048921845853328705, -0.08817537873983383, 0.06525320559740067, 0.014980701729655266, -0.031066304072737694, -0.08181796967983246, -0.029972832649946213, 0.05142400041222572, 0.10085693001747131, 0.01607339456677437, -0.09240158647298813, 0.09604689478874207, -0.01908848248422146, 0.08347111940383911, 0.06853097677230835, -0.028661813586950302, -0.11043459922075272, 0.06169034540653229, 0.052617356181144714, 0.04073125496506691, 0.04969247430562973, 0.02023152820765972], [-0.09015991538763046, -0.06628438830375671, 0.0480777770280838, -0.017044782638549805, -0.006253926549106836, 0.039185140281915665, -0.022721178829669952, -0.043510664254426956, 0.07999814301729202, -0.07504287362098694, -0.011714660562574863, -0.05831658095121384, -0.0609515905380249, 0.08794607222080231, -0.10738237202167511, -0.08029761165380478, -0.05940931290388107, -0.04769473522901535, 0.09575522691011429, -0.1145244687795639, 0.0869099497795105, 0.03780481219291687, -0.07312796264886856, -0.07993938773870468, -0.03490692749619484, -0.05340149998664856, -0.02500118874013424, 0.05562109872698784, -0.03175757825374603, -0.05454913154244423, -0.02069796249270439, 0.09015588462352753], [-0.07512938976287842, 0.03690977394580841, 0.026867441833019257, 0.008847171440720558, 0.07415162026882172, 0.04683505371212959, -0.023338131606578827, 0.07884404808282852, 0.0936673954129219, 0.022972745820879936, 0.0047152042388916016, -0.03372271731495857, 0.014985415153205395, 0.05135386437177658, -0.030098646879196167, -0.036088187247514725, -0.07792364805936813, -0.043648961931467056, 0.10953787714242935, 0.010072359815239906, -0.10659556835889816, -0.03906163200736046, 0.06056450679898262, -0.07892238348722458, -0.030415760353207588, 0.018714049831032753, 0.11119344830513, 0.09796883165836334, 0.06064854562282562, -0.10608223080635071, -0.013384073972702026, 0.0019664380233734846], [0.10394671559333801, -0.07454463094472885, 0.011451244354248047, -0.09967274218797684, 0.0664709061384201, -0.018572930246591568, 0.0783458948135376, -0.057730600237846375, -0.08064987510442734, 0.10072612017393112, -0.0992533341050148, 0.025847595185041428, -0.117945097386837, 0.022622985765337944, 0.024047181010246277, 0.1098165363073349, 0.1149384006857872, 0.051105987280607224, -0.07180116325616837, -0.04582813382148743, 0.10659583657979965, 0.11244260519742966, -0.02534075826406479, 0.046055227518081665, 0.024155229330062866, 0.013315379619598389, -0.04599451646208763, 0.0004443575453478843, 0.009269309230148792, -0.03408854082226753, 0.06715545803308487, -0.025412101298570633], [-0.045068368315696716, -0.07290812581777573, -0.018992643803358078, -0.09707941114902496, -0.0595964640378952, 0.1084054708480835, -0.09373387694358826, 0.08924653381109238, -0.049360599368810654, 0.09305708110332489, -0.004704582504928112, 0.0388026237487793, 0.028129544109106064, -0.017426317557692528, -0.05060107260942459, 0.06004782393574715, 0.034086376428604126, -0.06565916538238525, 0.08927199989557266, 0.0358814001083374, 0.06273724883794785, 0.11239242553710938, -0.0831790640950203, 0.04040893539786339, 0.03355842083692551, 0.03452714905142784, -0.06790012866258621, 0.026558564975857735, -0.054117199033498764, 0.10198135673999786, 0.03376392275094986, 0.057023562490940094], [0.012275582179427147, -0.004797851201146841, 0.09698623418807983, 0.030943891033530235, -0.05369836837053299, -0.036106839776039124, 0.04487035423517227, -0.007683586794883013, 0.09345535933971405, 0.1015487089753151, 0.03043936751782894, -0.031944189220666885, -0.025113755837082863, -0.06395263224840164, -0.08623244613409042, 0.049322858452796936, 0.09112352877855301, -0.03966805338859558, -0.004694217350333929, 0.02917170338332653, -0.042684223502874374, 0.046425074338912964, 0.02741314098238945, 0.07316877692937851, 0.030754899606108665, -0.071413554251194, 0.08654285222291946, 0.05141693726181984, -0.10917612910270691, 0.08822815120220184, 0.061228688806295395, 0.0004217805981170386], [-0.058909058570861816, 0.10159499198198318, 0.05708923190832138, -0.03391609713435173, 0.014057371765375137, 0.03047267161309719, -0.00929531455039978, 0.0030199645552784204, 0.05794062465429306, 0.009726918302476406, -0.0027451282367110252, -0.08252283185720444, 0.03515486791729927, 0.07466898113489151, 0.02862524427473545, 0.07435433566570282, 0.05849187448620796, 0.11029718816280365, 0.06260739266872406, 0.07274430245161057, 0.10381612926721573, -0.05762898921966553, -0.08549149334430695, 0.030638139694929123, -0.058014463633298874, 0.04198429360985756, 0.047022745013237, 0.02560676820576191, 0.008199695497751236, 0.06614295393228531, -0.023538323119282722, 0.00802566297352314], [0.11713343113660812, -0.0005428418517112732, -0.08514388650655746, 0.010548868216574192, -0.021636655554175377, 0.04342334344983101, 0.025276068598031998, -0.11574484407901764, -0.10165739059448242, -0.07076922059059143, 0.06962234526872635, 0.04390732944011688, -0.03957091271877289, -0.09305695444345474, 0.09113916009664536, 0.06785719096660614, 0.009583915583789349, -0.08304670453071594, -0.01971646025776863, 0.11567262560129166, -0.1158754825592041, 0.0727367103099823, 0.10122852772474289, 0.08082582801580429, -0.10318127274513245, -0.036856651306152344, 0.1149432435631752, 0.054749686270952225, 0.00058103067567572, -0.10631583631038666, -0.07293546944856644, 0.007341274060308933], [0.0329575277864933, 0.07702412456274033, 0.05111544579267502, -0.0015108343213796616, 0.08009550720453262, 0.025605550035834312, -0.06731105595827103, -0.02011856995522976, 0.015566973946988583, -0.07567299902439117, -0.09723591059446335, 0.07747619599103928, -0.062344275414943695, 0.0872856080532074, 0.07147015631198883, -0.08555830270051956, 0.01876654475927353, 0.08886993676424026, 0.07327014952898026, -0.021719876676797867, -0.07061607390642166, -0.06829621642827988, -0.07782324403524399, -0.00851996149867773, -0.11330410838127136, 0.04276195168495178, -0.048845164477825165, -0.060187771916389465, 0.10902160406112671, -0.0911606028676033, 0.04932422190904617, 0.0031294331420212984], [0.015915874391794205, -0.0520147830247879, 0.09728381037712097, -0.04396628960967064, 0.029162265360355377, -0.03907178342342377, -0.036332596093416214, -0.047096364200115204, -0.04046287760138512, -0.07247458398342133, -0.06902049481868744, 0.032720908522605896, -0.06859654188156128, 0.08696019649505615, -0.07591204345226288, -0.030976852402091026, -0.058320142328739166, 0.06382180750370026, -0.07573593407869339, 0.09161971509456635, -0.08616720885038376, -0.012458099983632565, 0.08972113579511642, 0.05714085325598717, -0.010758241638541222, -0.059357017278671265, 0.08555196225643158, -0.04100693762302399, -0.032533902674913406, 0.01444834005087614, 0.07668166607618332, 0.10272996127605438], [-0.042822375893592834, -0.07673555612564087, -0.009766833856701851, 0.07549630850553513, -0.1118139997124672, -0.0024877008982002735, -0.08223997056484222, 0.08580545336008072, 0.03893374279141426, 0.0682547390460968, 0.013488758355379105, -0.11590862274169922, 0.04112697392702103, 0.08970223367214203, 0.11407407373189926, 0.014075127430260181, -0.01651895046234131, -0.0568033792078495, 0.026636207476258278, -0.006238013971596956, -0.005081054754555225, 0.07470104843378067, -0.10644508898258209, 0.06915696710348129, -0.007177369203418493, -0.041361723095178604, -0.11183101683855057, 0.11589688062667847, 0.00858708843588829, -0.020797858014702797, -0.0311126708984375, -0.04535437002778053], [0.06816276907920837, 0.04651644453406334, -0.04508844390511513, 0.03097466751933098, -0.020328087732195854, 0.07935980707406998, 0.08425454050302505, 0.09012016654014587, -0.007685013581067324, -0.07979171723127365, -0.09373565763235092, 0.08074811846017838, -0.02158646658062935, -0.000421727861976251, 0.06834859400987625, 0.05681680515408516, -0.009847336448729038, 0.05330384150147438, -0.03678881749510765, 0.07045707106590271, 0.10293564200401306, -0.0685432180762291, -0.0729740634560585, -0.10270455479621887, 0.08842645585536957, -0.10102555900812149, 0.04990261048078537, -0.05735514312982559, -0.06450723856687546, 0.016510704532265663, 0.09903556853532791, -0.05210861936211586]], [[0.0516219288110733, -0.0353391058743, 0.02692069113254547, -0.07303085178136826, -0.07562412321567535, -0.005829774308949709, 0.03513787314295769, -0.08767815679311752, -0.07880256325006485, -0.019110674038529396, -0.005829252302646637, 0.08297516405582428, -0.05849207565188408, -0.09704457968473434, -0.09243913739919662, 0.012220630422234535, -0.02439579740166664, 0.02999517135322094, 0.0794827789068222, 0.11550885438919067, -0.0904681533575058, -0.043195147067308426, 0.10353798419237137, 0.0710851401090622, -0.012354769743978977, 0.013531709089875221, -0.0008110154885798693, 0.07304314523935318, -0.04694978520274162, 0.03132973611354828, -0.03339631110429764, -0.013935768976807594], [-0.08328454941511154, -0.056297581642866135, 0.10455917567014694, 0.011262273415923119, -0.05931996926665306, 0.09760965406894684, -0.10396826267242432, 0.10983125120401382, 0.017717814072966576, -0.09813763946294785, -0.014661500230431557, -0.03785805404186249, 0.10147562623023987, -0.05009371414780617, 0.005117884371429682, -0.06401918083429337, -0.03021051548421383, 0.011622466146945953, -0.09060025215148926, 0.09337460249662399, -0.08776939660310745, -0.10668419301509857, -0.09562128037214279, -0.07695084065198898, 0.06376485526561737, 0.01809312216937542, 0.06335823237895966, -0.021242981776595116, 0.03761318325996399, 0.08118690550327301, -0.047479111701250076, -0.11296260356903076], [0.1154862716794014, -0.003053512191399932, 0.07224654406309128, 0.09324602782726288, 0.10792849957942963, 0.006050725933164358, -0.010914667509496212, -0.10170421749353409, 0.02413127012550831, 0.11613526195287704, -0.0681832879781723, -0.01999119482934475, -0.04921369254589081, -0.07128886878490448, 0.06729720532894135, 0.05612136796116829, 0.061532191932201385, -0.07256601005792618, -0.1123349666595459, 0.0634055882692337, 0.017190957441926003, -0.005370900966227055, -0.09107313305139542, 0.00045858617522753775, 0.02914813719689846, 0.0571347177028656, 0.045644212514162064, 0.020297130569815636, -0.11419130861759186, -0.0003172228462062776, -0.050784073770046234, -0.04455234855413437], [0.020898522809147835, 0.046162161976099014, -0.03387016803026199, -0.10073933005332947, 0.03318595141172409, -0.07082870602607727, -0.01357678510248661, 0.10907679796218872, -0.0871976837515831, -0.004304192028939724, 0.1005922183394432, -0.021757042035460472, 0.09734518826007843, -0.0826232060790062, 0.08075922727584839, -0.04060891270637512, 0.05864681676030159, 0.10964985936880112, -0.034561384469270706, -0.08407959342002869, 0.020582204684615135, 0.08347884565591812, -0.09593924880027771, -0.04027359187602997, -0.06611146777868271, -0.11227381974458694, -0.020373089239001274, -0.006491065490990877, 0.0937865749001503, 0.08449864387512207, 0.06142474338412285, 0.030889302492141724], [0.015174872241914272, -0.09758271276950836, 0.002832188503816724, -0.08011209219694138, -0.036018531769514084, 0.015656109899282455, -0.001390323624946177, -0.06561317294836044, -0.009442899376153946, 0.04732479900121689, 0.10088584572076797, -0.09329704195261002, -0.05091538652777672, -0.0063759516924619675, 0.09189464896917343, -0.09603548794984818, -0.005924430675804615, -0.02903715707361698, -0.010384107939898968, 0.0944407656788826, 0.054257720708847046, 0.09800012409687042, -0.07770317792892456, 0.0027329069562256336, 0.07056271284818649, 0.05384752154350281, -0.11232941597700119, 0.08271084725856781, 0.04023832082748413, 0.003966540098190308, -0.009930752217769623, -0.09982316941022873], [-0.10382641106843948, -0.002333057811483741, 0.0117020970210433, -0.08474601805210114, -0.08479146659374237, 0.03418615460395813, -0.07815667241811752, 0.005283984821289778, -0.07015908509492874, -0.08902212977409363, 0.0016603723634034395, 0.0897710770368576, -0.05306288227438927, -0.04033183306455612, 0.09651146084070206, -0.1038568913936615, -0.04607568681240082, -0.02823474444448948, -0.0033235640730708838, -0.06637542694807053, -0.05891533941030502, -0.030147263780236244, 0.07450411468744278, 0.006981739774346352, -0.023421406745910645, -0.11312904208898544, 0.06330329924821854, -0.022267838940024376, 0.11066440492868423, -0.11020595580339432, 0.009477075189352036, -0.0787881538271904], [-0.11158179491758347, 0.03267160803079605, -0.0005895448848605156, 0.10135851055383682, -0.11570463329553604, 0.016034124419093132, 0.10291736572980881, 0.11703401803970337, 0.057431574910879135, 0.08526382595300674, 0.10777965188026428, -0.06466906517744064, 0.08281932771205902, -0.11749690771102905, 0.051182642579078674, -0.08033131062984467, -0.11564411222934723, -0.02940138801932335, -0.0562705397605896, 0.10460488498210907, -0.0845557302236557, -0.08728932589292526, 0.004859493114054203, 0.011158511973917484, 0.08995769172906876, -0.019403785467147827, -0.009843947365880013, -0.05589945241808891, -0.0506165511906147, -0.10482486337423325, -0.07930237054824829, -0.041482023894786835], [0.08551134169101715, -0.10955619066953659, -0.05816739797592163, 0.03015974722802639, 0.05545683577656746, -0.023352807387709618, 0.0839657187461853, -0.10593333840370178, 0.0608336441218853, -0.005379142239689827, -0.06255967915058136, -0.08514954149723053, 0.062423452734947205, 0.009793242439627647, 0.10590977966785431, 0.007066735997796059, -0.018658485263586044, 0.037739578634500504, -0.03465599939227104, 0.05572088435292244, 0.09622800350189209, -0.055693868547677994, 0.015915222465991974, -0.03525987267494202, -0.0742870345711708, 0.05311738699674606, -0.015168122947216034, 0.003132234327495098, -0.02099311538040638, 0.013074792921543121, 0.02430574595928192, 0.037211183458566666], [-0.07217466831207275, 0.03336182236671448, 0.08581681549549103, 0.0005103338626213372, 0.08961885422468185, 0.0590326264500618, -0.007688520941883326, -0.08095733076334, 0.01652422733604908, -0.034327182918787, 0.0669618546962738, -0.10142479836940765, -0.04768849536776543, 0.009774986654520035, -0.0556095689535141, 0.011583671905100346, -0.0037164201494306326, 0.11156802624464035, -0.09657291322946548, 0.09895174205303192, 0.049838803708553314, 0.0074255745857954025, -0.0729009211063385, 0.1111009269952774, 0.09800384193658829, 0.09612417221069336, -0.06474684923887253, -0.03597742319107056, -0.025367585942149162, -0.0013693926157429814, -0.09657161682844162, -0.014149405062198639], [0.051218677312135696, 0.0763879343867302, 0.03532442823052406, 0.037513699382543564, 0.02837899699807167, -0.05745027959346771, -0.06316965818405151, 0.037999268621206284, -0.11374492943286896, -0.03156563267111778, -0.09074340760707855, -0.10432442277669907, 0.014606711454689503, -0.10025341063737869, -0.03712401166558266, 0.005017419811338186, -0.11004726588726044, -0.034794364124536514, 0.08366885036230087, 0.009783280082046986, 0.025311730802059174, -0.030259257182478905, -0.035295236855745316, -0.09959467500448227, -0.050104398280382156, 0.09630998969078064, -0.03344223275780678, 0.0612972155213356, -0.07104634493589401, 0.11427827179431915, -0.03466639295220375, 0.04527200385928154], [0.03609492629766464, -0.06520982831716537, 0.004288244526833296, -0.09255010634660721, 0.07101873308420181, -0.005096675828099251, -0.09082964062690735, -0.10534302145242691, -0.06630056351423264, 0.010423867963254452, -0.10853798687458038, -0.04815739393234253, -0.09789777547121048, -0.009690986946225166, 0.0201861634850502, 0.0007009599357843399, -0.03545695170760155, 0.005174087360501289, 0.11407005786895752, -0.09114167094230652, 0.0956854373216629, 0.023104697465896606, 0.02908320538699627, -0.11093025654554367, 0.05368034541606903, -0.10252989828586578, 0.06616540998220444, -0.05995803698897362, 0.058902557939291, -0.041800353676080704, -0.09943298250436783, -0.0048379977233707905], [0.10430382192134857, 0.03880823776125908, 0.0346822626888752, 0.03274235501885414, 0.10125604271888733, 0.00037126385723240674, -0.05710766837000847, -0.08177439868450165, -0.09068582206964493, -0.009523575194180012, 0.11850221455097198, -0.018250547349452972, 0.06393102556467056, 0.04503446817398071, -0.05326211452484131, -0.0535510778427124, -0.07337445020675659, 0.09468813240528107, -0.021117594093084335, 0.04147830605506897, -0.045040491968393326, -0.09385175257921219, 0.06147044897079468, -0.09766555577516556, 0.0159175843000412, -0.04914915934205055, -0.04613751918077469, -0.011135352775454521, 0.11053746938705444, 0.11457370221614838, -0.07420231401920319, -0.013993180356919765], [-0.06069531291723251, -0.06363226473331451, -0.11271131038665771, 0.04646586254239082, -0.06514199078083038, 0.055096596479415894, 0.07712133973836899, -0.08528701215982437, -0.10828456282615662, -0.004187964368611574, -0.10331231355667114, 0.09868592768907547, -0.009322348982095718, -0.030503083020448685, 0.014151214621961117, 0.004373525734990835, 0.04427120089530945, -0.0764128714799881, -0.01717347651720047, -0.07518782466650009, -0.014083017595112324, -0.061852794140577316, 0.028697585687041283, 0.11445090174674988, 0.05484255403280258, -0.09725534170866013, 0.1177678182721138, -0.10506854951381683, 0.01519046351313591, 0.020071793347597122, -0.08540485799312592, -0.00814143754541874], [0.0948309525847435, 0.06722186505794525, 0.0006076362915337086, 0.012698808684945107, -0.11102493107318878, 0.045136868953704834, -0.028788061812520027, -0.04358559474349022, 0.06274333596229553, -0.05713566392660141, 0.06547393649816513, 0.06883783638477325, 0.08491924405097961, 0.013234862126410007, 0.0855211392045021, -0.04598917439579964, -0.06397128850221634, 0.013779344968497753, -0.009747905656695366, -0.020767414942383766, -0.07935372740030289, 0.02309277467429638, 0.10958737879991531, 0.05910499021410942, 0.033385880291461945, -0.0668700784444809, -0.11143454909324646, -0.015658777207136154, 0.10043279826641083, -0.03463410586118698, 0.0349370501935482, 0.04377352073788643], [-0.03889089450240135, 0.09941128641366959, -0.07555519789457321, -0.009988661855459213, -0.06110427901148796, 0.1035052239894867, -0.04199553653597832, 0.05015375837683678, -0.04143809899687767, 0.07820183783769608, -0.019310306757688522, 0.03224949538707733, 0.07039453834295273, -0.092831552028656, 0.06322630494832993, -0.09903780370950699, -0.043360985815525055, -0.10274206846952438, 0.10959549993276596, -0.03322761505842209, 0.02121027372777462, 0.07897117733955383, 0.058846063911914825, 0.04952755570411682, -0.08766559511423111, 0.03493048623204231, -0.053823862224817276, -0.015314703807234764, -0.01400363352149725, -0.08198703080415726, -0.08868773281574249, -0.0775560513138771], [-0.00945591926574707, -0.04290188103914261, 0.093552365899086, -0.026073545217514038, -0.08760038763284683, -0.10433638095855713, 0.0032957452349364758, -0.10427289456129074, -0.055057328194379807, 0.08730615675449371, 0.07823249697685242, 0.08851826936006546, 0.039105821400880814, -0.0730355754494667, -0.016439778730273247, 0.03256164491176605, -0.10580623149871826, 0.06267085671424866, 0.010083557106554508, -0.007642664480954409, 0.08563026040792465, 0.025678446516394615, 0.09362489730119705, 0.06734819710254669, -0.10841776430606842, 0.11729349195957184, 0.02086581662297249, 0.0378250814974308, -0.09412573277950287, 0.104327492415905, 0.023462209850549698, 0.07007082551717758]]], [[[-0.01610366813838482, -0.06505189836025238, -0.11076971143484116, -0.06892050802707672, 0.08152613788843155, -0.04651542752981186, -0.030503418296575546, -0.10868432372808456, 0.0728241577744484, 0.040479861199855804, -0.08691315352916718, 0.04313494265079498, 0.06672490388154984, 0.08490394055843353, 0.08669663965702057, 0.025739289820194244, -0.10299303382635117, -0.04394824430346489, 0.008834403939545155, -0.047855082899332047, 0.05092698708176613, 0.013902558013796806, 0.022146472707390785, 0.011075973510742188, 0.032524388283491135, -0.008184707723557949, -0.08567120134830475, -0.049094490706920624, -0.0652715340256691, -0.029380710795521736, 0.06039916351437569, -0.004941348917782307], [-0.011981572024524212, 0.050370000302791595, 0.08583882451057434, 0.06942088901996613, 0.057419925928115845, -0.04000037536025047, 0.029853809624910355, 0.05874036252498627, -0.0410568006336689, -0.10735376924276352, 0.1135949119925499, 0.11401639878749847, -0.03798412159085274, -0.10173831135034561, -0.00999452080577612, 0.08216840028762817, 0.05073654279112816, 0.08441852033138275, 0.060127366334199905, -0.018236642703413963, 0.0854853168129921, 0.007537731900811195, 0.049442604184150696, -0.02715001069009304, 0.11413969099521637, 0.07737766951322556, 0.12015113979578018, -0.03806722164154053, 0.05355128273367882, 0.0826183632016182, -0.07129992544651031, 0.09103060513734818], [0.002381270518526435, -0.007291505113244057, -0.10863663256168365, -0.005591504275798798, 0.11193768680095673, -0.0752592608332634, 0.04648996889591217, -0.10864654928445816, 0.1031932681798935, -0.043371476233005524, -0.02929520606994629, 0.08058762550354004, -0.009503008797764778, 0.035277772694826126, -0.10181749612092972, 0.032062504440546036, -0.06155679374933243, 0.05571919307112694, -0.055369455367326736, 0.0648207888007164, -0.027716679498553276, 0.049278467893600464, 0.02667972259223461, 0.05325819179415703, -0.09219527244567871, -0.10073821991682053, -0.10379347950220108, 0.008272207342088223, 0.010346117429435253, -0.05910545587539673, -0.04846052825450897, -0.04069070518016815], [0.08128618448972702, 0.005399823654443026, -0.019024159759283066, -0.011141108348965645, -0.10786876082420349, 0.08417380601167679, 0.0727483481168747, -0.08301179856061935, -0.10148578882217407, -0.11370687186717987, 0.02992592751979828, 0.021090945228934288, -0.05233976989984512, -0.07092928141355515, 0.0842122733592987, 0.03815735876560211, 0.031458355486392975, 0.030584728345274925, 0.03615764155983925, -0.020877882838249207, -0.09100693464279175, -0.08871699124574661, 0.07583627849817276, 0.09192772954702377, 0.017351016402244568, 0.11013585329055786, 0.09271577000617981, 0.042850811034440994, -0.03135928139090538, 0.018252160400152206, 0.09669049829244614, -0.10772120952606201], [0.014148683287203312, -0.03475562483072281, 0.10773149132728577, 0.033274028450250626, 0.1138194277882576, 0.054560620337724686, 0.007386399898678064, -0.11154423654079437, 0.057269029319286346, -0.09682611376047134, 0.0831989198923111, 0.06747615337371826, 0.1111329197883606, 0.1182553619146347, -0.03441990911960602, -0.06907934695482254, 0.06636179238557816, 0.10428034514188766, 0.019729990512132645, 0.05204690247774124, 0.04162045568227768, 0.04012352600693703, 0.0034460481256246567, -0.031575072556734085, -0.06595508009195328, -0.03307809680700302, -0.07390762865543365, 0.033791519701480865, -0.1006379947066307, 0.004471520893275738, -0.06830103695392609, -0.051159266382455826], [0.05117917060852051, -0.0743645504117012, 0.09783171862363815, 0.076138436794281, -0.021316170692443848, 0.05754120275378227, -0.09966100752353668, -0.04356292262673378, 0.09644615650177002, -0.09184395521879196, 0.05451237037777901, -0.0696287602186203, 0.04124649614095688, -0.0015088403597474098, -0.019518882036209106, 0.10753042250871658, -0.1014433428645134, -0.11199614405632019, 0.08951959013938904, -0.025547629222273827, -0.044893451035022736, 0.0501832515001297, 0.045061226934194565, -0.038979072123765945, -0.07144977152347565, 0.06410862505435944, -0.08803965151309967, -0.04393594339489937, 0.06631474196910858, 0.049518294632434845, -0.07232064008712769, -0.09825333952903748], [0.044219277799129486, -0.08591333031654358, 0.048987288028001785, 0.07108300924301147, -0.002946285530924797, 0.08070678263902664, 0.01795748993754387, -0.04691954702138901, 0.1098099946975708, -0.027187934145331383, -0.002943405183032155, -0.1133044883608818, -0.027396919205784798, -0.027976198121905327, -0.09787440299987793, 0.11326194554567337, 0.03340163454413414, -0.015956424176692963, -0.05369530990719795, -0.05092607066035271, -0.019033469259738922, 0.03928351402282715, -0.06871791183948517, -0.023117657750844955, 